{"learner":{"attributes":{},"feature_names":[],"feature_types":[],"gradient_booster":{"model":{"gbtree_model_param":{"num_parallel_tree":"1","num_trees":"50"},"iteration_indptr":[0,1,2,3,4,5,6,7,8,9,10,11,12,13,14,15,16,17,18,19,20,21,22,23,24,25,26,27,28,29,30,31,32,33,34,35,36,37,38,39,40,41,42,43,44,45,46,47,48,49,50],"tree_info":[0,0,0,0,0,0,0,0,0,0,0,0,0,0,0,0,0,0,0,0,0,0,0,0,0,0,0,0,0,0,0,0,0,0,0,0,0,0,0,0,0,0,0,0,0,0,0,0,0,0],"trees":[{"base_weights":[-0E0,-4.3661274E1,2.674253E2,-6.465402E1,3.697786E1,1.9208932E2,5.9608288E1,-7.2722275E1,-3.2053967E1,1.3233284E1,2.203508E1,6.872781E1,2.6271735E2,-7.69509E0,-5.9535613E0,-3.678304E0,4.0721893E0,-1.7667274E0,5.291605E0,1.3629192E0,8.252325E0,7.2221894E0,2.7257349E1],"categories":[],"categories_nodes":[],"categories_segments":[],"categories_sizes":[],"default_left":[0,0,0,0,0,0,0,0,0,0,0,0,0,0,0,0,0,0,0,0,0,0,0],"id":0,"left_children":[1,3,5,7,9,11,-1,13,15,-1,17,19,21,-1,-1,-1,-1,-1,-1,-1,-1,-1,-1],"loss_changes":[1.9966181E6,2.5123784E5,4.797325E5,2.8442938E4,4.125495E4,1.6491244E5,0E0,6.0446875E2,1.0101934E4,0E0,3.5264203E4,5.716258E3,4.7223125E3,0E0,0E0,0E0,0E0,0E0,0E0,0E0,0E0,0E0,0E0],"parents":[2147483647,0,0,1,1,2,2,3,3,4,4,5,5,7,7,8,8,10,10,11,11,12,12],"right_children":[2,4,6,8,10,12,-1,14,16,-1,18,20,22,-1,-1,-1,-1,-1,-1,-1,-1,-1,-1],"split_conditions":[3.2E4,3E1,6.4E4,1.048E4,1.5E3,6.4E1,5.9608288E1,2E3,5E3,1.3233284E1,1.6E4,2.8E1,1.9E1,-7.69509E0,-5.9535613E0,-3.678304E0,4.0721893E0,-1.7667274E0,5.291605E0,1.3629192E0,8.252325E0,7.2221894E0,2.7257349E1],"split_indices":[2,3,2,2,1,3,0,1,1,0,2,5,5,0,0,0,0,0,0,0,0,0,0],"split_type":[0,0,0,0,0,0,0,0,0,0,0,0,0,0,0,0,0,0,0,0,0,0,0],"sum_hessian":[1.69E2,1.46E2,2.3E1,1.16E2,3E1,2E1,3E0,9.2E1,2.4E1,3E0,2.7E1,8E0,1.2E1,6.6E1,2.6E1,2.3E1,1E0,1.2E1,1.5E1,2E0,6E0,1E0,1.1E1],"tree_param":{"num_deleted":"0","num_feature":"36","num_nodes":"23","size_leaf_vector":"1"}},{"base_weights":[6.306262E-1,-4.2155136E1,2.28798E2,-5.830191E1,2.6820852E1,1.6550165E2,5.5137665E1,-6.559681E1,-2.883281E1,6.086506E0,1.0183237E2,6.687408E1,2.3117319E2,-6.9524436E0,-5.399608E0,-3.3257997E0,3.8685799E0,-2.1626809E0,2.906804E0,1.1855674E1,9.105255E-1,2.890893E0,8.44386E0,8.845793E0,2.4758757E1],"categories":[],"categories_nodes":[],"categories_segments":[],"categories_sizes":[],"default_left":[0,0,0,0,0,0,0,0,0,0,0,0,0,0,0,0,0,0,0,0,0,0,0,0,0],"id":1,"left_children":[1,3,5,7,9,11,-1,13,15,17,19,21,23,-1,-1,-1,-1,-1,-1,-1,-1,-1,-1,-1,-1],"loss_changes":[1.6692385E6,1.6194222E5,4.6003362E5,2.3260625E4,4.2929008E4,1.3998906E5,0E0,4.83375E2,8.756168E3,1.5277223E4,8.225332E3,4.894207E3,1.0895125E4,0E0,0E0,0E0,0E0,0E0,0E0,0E0,0E0,0E0,0E0,0E0,0E0],"parents":[2147483647,0,0,1,1,2,2,3,3,4,4,5,5,7,7,8,8,9,9,10,10,11,11,12,12],"right_children":[2,4,6,8,10,12,-1,14,16,18,20,22,24,-1,-1,-1,-1,-1,-1,-1,-1,-1,-1,-1,-1],"split_conditions":[2.4E4,3E1,6.4E4,1.048E4,9.6E1,6.4E1,5.5137665E1,6.2E3,5E3,1.2E4,5E3,7E0,1.9E1,-6.9524436E0,-5.399608E0,-3.3257997E0,3.8685799E0,-2.1626809E0,2.906804E0,1.1855674E1,9.105255E-1,2.890893E0,8.44386E0,8.845793E0,2.4758757E1],"split_indices":[2,3,2,2,3,3,0,2,1,2,1,4,5,0,0,0,0,0,0,0,0,0,0,0,0],"split_type":[0,0,0,0,0,0,0,0,0,0,0,0,0,0,0,0,0,0,0,0,0,0,0,0,0],"sum_hessian":[1.69E2,1.43E2,2.6E1,1.16E2,2.7E1,2.3E1,3E0,9.2E1,2.4E1,2.2E1,5E0,1E1,1.3E1,6.5E1,2.7E1,2.3E1,1E0,1E1,1.2E1,4E0,1E0,4E0,6E0,2E0,1.1E1],"tree_param":{"num_deleted":"0","num_feature":"36","num_nodes":"25","size_leaf_vector":"1"}},{"base_weights":[1.1662569E0,-3.792781E1,2.0962474E2,-5.257265E1,2.4621277E1,1.5082394E2,5.100234E1,-5.9169945E1,-2.5927818E1,1.1351612E2,9.41325E0,6.12171E1,2.1045619E2,-6.2846456E0,-4.785527E0,-3.007077E0,3.675151E0,1.2823656E1,3.4677415E0,-2.217691E0,2.856877E0,2.6596217E0,7.7201004E0,8.256073E0,2.2489202E1],"categories":[],"categories_nodes":[],"categories_segments":[],"categories_sizes":[],"default_left":[0,0,0,0,0,0,0,0,0,0,0,0,0,0,0,0,0,0,0,0,0,0,0,0,0],"id":2,"left_children":[1,3,5,7,9,11,-1,13,15,17,19,21,23,-1,-1,-1,-1,-1,-1,-1,-1,-1,-1,-1,-1],"loss_changes":[1.393364E6,1.3320153E5,3.999955E5,1.9032531E4,3.678507E4,1.153595E5,0E0,8.61125E2,7.597082E3,1.952461E2,1.5761717E4,4.0338906E3,7.280625E3,0E0,0E0,0E0,0E0,0E0,0E0,0E0,0E0,0E0,0E0,0E0,0E0],"parents":[2147483647,0,0,1,1,2,2,3,3,4,4,5,5,7,7,8,8,9,9,10,10,11,11,12,12],"right_children":[2,4,6,8,10,12,-1,14,16,18,20,22,24,-1,-1,-1,-1,-1,-1,-1,-1,-1,-1,-1,-1],"split_conditions":[2.4E4,3E1,6.4E4,1.048E4,1.5E3,6.4E1,5.100234E1,2E3,5E3,2.6E1,3E3,7E0,1.9E1,-6.2846456E0,-4.785527E0,-3.007077E0,3.675151E0,1.2823656E1,3.4677415E0,-2.217691E0,2.856877E0,2.6596217E0,7.7201004E0,8.256073E0,2.2489202E1],"split_indices":[2,3,2,2,1,3,0,1,1,0,1,4,5,0,0,0,0,0,0,0,0,0,0,0,0],"split_type":[0,0,0,0,0,0,0,0,0,0,0,0,0,0,0,0,0,0,0,0,0,0,0,0,0],"sum_hessian":[1.69E2,1.43E2,2.6E1,1.16E2,2.7E1,2.3E1,3E0,9.2E1,2.4E1,3E0,2.4E1,1E1,1.3E1,6.6E1,2.6E1,2.3E1,1E0,2E0,1E0,9E0,1.5E1,4E0,6E0,2E0,1.1E1],"tree_param":{"num_deleted":"0","num_feature":"36","num_nodes":"25","size_leaf_vector":"1"}},{"base_weights":[1.6299608E0,-3.1706726E1,2.0574925E2,-4.7404293E1,2.8561724E1,1.4528075E2,4.7177162E1,-5.3371983E1,-2.3308311E1,1.0623736E1,1.6445143E1,5.3272507E1,1.978033E1,-5.4286647E0,-2.6416621E0,-2.7188985E0,3.4913938E0,-1.41808E0,4.03009E0,9.020233E-1,6.4627414E0],"categories":[],"categories_nodes":[],"categories_segments":[],"categories_sizes":[],"default_left":[0,0,0,0,0,0,0,0,0,0,0,0,0,0,0,0,0,0,0,0,0],"id":3,"left_children":[1,3,5,7,9,11,-1,13,15,-1,17,19,-1,-1,-1,-1,-1,-1,-1,-1,-1],"loss_changes":[1.163316E6,1.4042594E5,3.175242E5,1.5580281E4,2.7428967E4,9.094519E4,0E0,8.5884375E2,6.5978154E3,0E0,2.1028441E4,3.9393691E3,0E0,0E0,0E0,0E0,0E0,0E0,0E0,0E0,0E0],"parents":[2147483647,0,0,1,1,2,2,3,3,4,4,5,5,7,7,8,8,10,10,11,11],"right_children":[2,4,6,8,10,12,-1,14,16,-1,18,20,-1,-1,-1,-1,-1,-1,-1,-1,-1],"split_conditions":[3.2E4,3E1,6.4E4,1.048E4,1.5E3,6.4E1,4.7177162E1,3.8E1,5E3,1.0623736E1,1.6E4,2.8E1,1.978033E1,-5.4286647E0,-2.6416621E0,-2.7188985E0,3.4913938E0,-1.41808E0,4.03009E0,9.020233E-1,6.4627414E0],"split_indices":[2,3,2,2,1,3,0,5,1,0,2,5,0,0,0,0,0,0,0,0,0],"split_type":[0,0,0,0,0,0,0,0,0,0,0,0,0,0,0,0,0,0,0,0,0],"sum_hessian":[1.69E2,1.46E2,2.3E1,1.16E2,3E1,2E1,3E0,9.2E1,2.4E1,3E0,2.7E1,8E0,1.2E1,8.8E1,4E0,2.3E1,1E0,1.2E1,1.5E1,2E0,6E0],"tree_param":{"num_deleted":"0","num_feature":"36","num_nodes":"21","size_leaf_vector":"1"}},{"base_weights":[1.9390832E0,-3.0727766E1,1.7609047E2,-4.272624E1,2.0506123E1,1.25370316E2,4.3638874E1,-4.8121563E1,-2.0946585E1,3.5140195E0,8.222482E1,5.1617123E1,1.7436423E2,-5.563405E0,-4.306246E0,-2.4583378E0,3.316824E0,-1.07929E0,3.1688607E0,1.0555611E1,2.3708181E0,2.1522615E0,6.5739326E0,1.2370094E1,2.2129845E1],"categories":[],"categories_nodes":[],"categories_segments":[],"categories_sizes":[],"default_left":[0,0,0,0,0,0,0,0,0,0,0,0,0,0,0,0,0,0,0,0,0,0,0,0,0],"id":4,"left_children":[1,3,5,7,9,11,-1,13,15,17,19,21,23,-1,-1,-1,-1,-1,-1,-1,-1,-1,-1,-1,-1],"loss_changes":[9.72537E5,8.9397016E4,3.0175375E5,1.27405E4,2.9075518E4,7.772284E4,0E0,1.1388594E3,5.735499E3,9.613117E3,5.6890625E3,3.260127E3,5.9149375E3,0E0,0E0,0E0,0E0,0E0,0E0,0E0,0E0,0E0,0E0,0E0,0E0],"parents":[2147483647,0,0,1,1,2,2,3,3,4,4,5,5,7,7,8,8,9,9,10,10,11,11,12,12],"right_children":[2,4,6,8,10,12,-1,14,16,18,20,22,24,-1,-1,-1,-1,-1,-1,-1,-1,-1,-1,-1,-1],"split_conditions":[2.4E4,3E1,6.4E4,1.048E4,9.6E1,6.4E1,4.3638874E1,5E0,5E3,5E3,4E1,7E0,1.6E4,-5.563405E0,-4.306246E0,-2.4583378E0,3.316824E0,-1.07929E0,3.1688607E0,1.0555611E1,2.3708181E0,2.1522615E0,6.5739326E0,1.2370094E1,2.2129845E1],"split_indices":[2,3,2,2,3,3,0,5,1,1,0,4,1,0,0,0,0,0,0,0,0,0,0,0,0],"split_type":[0,0,0,0,0,0,0,0,0,0,0,0,0,0,0,0,0,0,0,0,0,0,0,0,0],"sum_hessian":[1.69E2,1.43E2,2.6E1,1.16E2,2.7E1,2.3E1,3E0,9.2E1,2.4E1,2.2E1,5E0,1E1,1.3E1,3.3E1,5.9E1,2.3E1,1E0,1.5E1,7E0,3E0,2E0,4E0,6E0,8E0,5E0],"tree_param":{"num_deleted":"0","num_feature":"36","num_nodes":"25","size_leaf_vector":"1"}},{"base_weights":[2.2914684E0,-2.5618334E1,1.7314354E2,-3.6113476E1,3.565467E1,1.2099078E2,4.0365963E1,-4.2866905E1,-1.4034681E1,1.0084634E1,7.146866E1,4.488526E1,1.6437224E2,-4.467635E0,-1.347875E0,-1.6138779E0,2.454413E0,-3.0051622E0,4.394328E0,9.189956E0,2.295515E0,6.984045E-1,5.471646E0,4.398465E0,1.7073915E1],"categories":[],"categories_nodes":[],"categories_segments":[],"categories_sizes":[],"default_left":[0,0,0,0,0,0,0,0,0,0,0,0,0,0,0,0,0,0,0,0,0,0,0,0,0],"id":5,"left_children":[1,3,5,7,9,11,-1,13,15,17,19,21,23,-1,-1,-1,-1,-1,-1,-1,-1,-1,-1,-1,-1],"loss_changes":[8.1507175E5,9.5818734E4,2.3968994E5,1.8185922E4,1.9426092E4,6.1955062E4,0E0,4.5027344E3,2.9124932E3,2.0345996E4,6.810996E3,2.9713867E3,2.4545625E3,0E0,0E0,0E0,0E0,0E0,0E0,0E0,0E0,0E0,0E0,0E0,0E0],"parents":[2147483647,0,0,1,1,2,2,3,3,4,4,5,5,7,7,8,8,9,9,10,10,11,11,12,12],"right_children":[2,4,6,8,10,12,-1,14,16,18,20,22,24,-1,-1,-1,-1,-1,-1,-1,-1,-1,-1,-1,-1],"split_conditions":[3.2E4,8E0,6.4E4,9E0,4.8E1,6.4E1,4.0365963E1,6E0,3.1E1,1.2E4,6E1,2.8E1,1.9E1,-4.467635E0,-1.347875E0,-1.6138779E0,2.454413E0,-3.0051622E0,4.394328E0,9.189956E0,2.295515E0,6.984045E-1,5.471646E0,4.398465E0,1.7073915E1],"split_indices":[2,4,2,3,3,3,0,4,5,2,0,5,5,0,0,0,0,0,0,0,0,0,0,0,0],"split_type":[0,0,0,0,0,0,0,0,0,0,0,0,0,0,0,0,0,0,0,0,0,0,0,0,0],"sum_hessian":[1.69E2,1.46E2,2.3E1,1.25E2,2.1E1,2E1,3E0,9.5E1,3E1,1.3E1,8E0,8E0,1.2E1,8.9E1,6E0,2.9E1,1E0,6E0,7E0,5E0,3E0,2E0,6E0,1E0,1.1E1],"tree_param":{"num_deleted":"0","num_feature":"36","num_nodes":"25","size_leaf_vector":"1"}},{"base_weights":[2.5088398E0,-2.3002762E1,1.5866286E2,-3.387549E1,2.6575117E1,9.203026E1,3.073377E2,-3.575551E1,3.0053942E1,-3.5739446E0,5.093263E1,5.965486E1,1.6427534E1,1.7866741E1,4.193423E1,-3.9479465E0,-1.9525025E0,1.280685E0,4.0897613E0,-2.3660674E0,1.1937845E0,9.944125E0,3.582044E0,1.7332789E0,7.485041E0],"categories":[],"categories_nodes":[],"categories_segments":[],"categories_sizes":[],"default_left":[0,0,0,0,0,0,0,0,0,0,0,0,0,0,0,0,0,0,0,0,0,0,0,0,0],"id":6,"left_children":[1,3,5,7,9,11,13,15,17,19,21,23,-1,-1,-1,-1,-1,-1,-1,-1,-1,-1,-1,-1,-1],"loss_changes":[6.808854E5,8.014011E4,2.0947388E5,1.5617406E4,2.0009648E4,3.2301516E4,2.5958812E4,6.3612812E3,2.2431738E2,4.3330117E3,7.434043E3,7.7061367E3,0E0,0E0,0E0,0E0,0E0,0E0,0E0,0E0,0E0,0E0,0E0,0E0,0E0],"parents":[2147483647,0,0,1,1,2,2,3,3,4,4,5,5,6,6,7,7,8,8,9,9,10,10,11,11],"right_children":[2,4,6,8,10,12,14,16,18,20,22,24,-1,-1,-1,-1,-1,-1,-1,-1,-1,-1,-1,-1,-1],"split_conditions":[3.2E4,3.2E1,6.5E1,5E3,7E0,1.6E4,6.4E4,1.2E4,5.7E1,1E1,2.6E1,7E0,1.6427534E1,1.7866741E1,4.193423E1,-3.9479465E0,-1.9525025E0,1.280685E0,4.0897613E0,-2.3660674E0,1.1937845E0,9.944125E0,3.582044E0,1.7332789E0,7.485041E0],"split_indices":[2,3,3,1,4,1,2,2,0,5,0,4,0,0,0,0,0,0,0,0,0,0,0,0,0],"split_type":[0,0,0,0,0,0,0,0,0,0,0,0,0,0,0,0,0,0,0,0,0,0,0,0,0],"sum_hessian":[1.69E2,1.46E2,2.3E1,1.2E2,2.6E1,1.7E1,6E0,1.17E2,3E0,1.2E1,1.4E1,1.3E1,4E0,4E0,2E0,9.4E1,2.3E1,2E0,1E0,5E0,7E0,2E0,1.2E1,4E0,9E0],"tree_param":{"num_deleted":"0","num_feature":"36","num_nodes":"25","size_leaf_vector":"1"}},{"base_weights":[2.8301342E0,-2.231344E1,1.3682439E2,-3.1323706E1,1.6133505E1,8.086809E1,2.8514694E2,-3.8722248E1,-2.1330872E1,8.1362625E1,5.051506E0,5.54449E1,1.511333E1,1.64374E1,3.913862E1,-1.6790866E0,-3.9500077E0,-2.287353E0,2.867232E0,9.281184E0,2.3507485E0,-1.5776371E0,1.775321E0,1.5946168E0,6.6371727E0],"categories":[],"categories_nodes":[],"categories_segments":[],"categories_sizes":[],"default_left":[0,0,0,0,0,0,0,0,0,0,0,0,0,0,0,0,0,0,0,0,0,0,0,0,0],"id":7,"left_children":[1,3,5,7,9,11,13,15,17,19,21,23,-1,-1,-1,-1,-1,-1,-1,-1,-1,-1,-1,-1,-1],"loss_changes":[5.757991E5,5.0389438E4,2.0102938E5,7.8241016E3,1.9829328E4,2.9134094E4,2.5482E4,4.6264844E2,4.667002E3,4.6781055E2,6.8938193E3,6.278754E3,0E0,0E0,0E0,0E0,0E0,0E0,0E0,0E0,0E0,0E0,0E0,0E0,0E0],"parents":[2147483647,0,0,1,1,2,2,3,3,4,4,5,5,6,6,7,7,8,8,9,9,10,10,11,11],"right_children":[2,4,6,8,10,12,14,16,18,20,22,24,-1,-1,-1,-1,-1,-1,-1,-1,-1,-1,-1,-1,-1],"split_conditions":[2.4E4,3E1,6.5E1,6.2E3,1.5E3,1.6E4,6.4E4,2.00001E0,5E3,2.6E1,3E3,7E0,1.511333E1,1.64374E1,3.913862E1,-1.6790866E0,-3.9500077E0,-2.287353E0,2.867232E0,9.281184E0,2.3507485E0,-1.5776371E0,1.775321E0,1.5946168E0,6.6371727E0],"split_indices":[2,3,3,2,1,1,2,12,1,0,1,4,0,0,0,0,0,0,0,0,0,0,0,0,0],"split_type":[0,0,0,0,0,0,0,0,0,0,0,0,0,0,0,0,0,0,0,0,0,0,0,0,0],"sum_hessian":[1.69E2,1.43E2,2.6E1,1.16E2,2.7E1,2E1,6E0,6.5E1,5.1E1,3E0,2.4E1,1.6E1,4E0,4E0,2E0,3E0,6.2E1,5E1,1E0,2E0,1E0,9E0,1.5E1,4E0,1.2E1],"tree_param":{"num_deleted":"0","num_feature":"36","num_nodes":"25","size_leaf_vector":"1"}},{"base_weights":[3.051248E0,-1.8525574E1,1.3508214E2,-2.6491861E1,2.79416E1,9.248179E1,3.249635E1,-3.1755148E1,-9.338072E0,7.1689825E0,5.714994E1,3.3326687E1,1.26321335E2,-3.329979E0,-7.359032E-1,-1.1216598E0,2.3508847E0,-2.5171149E0,3.4570472E0,7.8740996E-1,7.0103884E0,4.2998454E-1,4.1005807E0,8.420454E0,1.6142351E1],"categories":[],"categories_nodes":[],"categories_segments":[],"categories_sizes":[],"default_left":[0,0,0,0,0,0,0,0,0,0,0,0,0,0,0,0,0,0,0,0,0,0,0,0,0],"id":8,"left_children":[1,3,5,7,9,11,-1,13,15,17,19,21,23,-1,-1,-1,-1,-1,-1,-1,-1,-1,-1,-1,-1],"loss_changes":[4.867997E5,5.5155344E4,1.640831E5,1.1079414E4,1.2938434E4,3.7827547E4,0E0,3.372539E3,2.176506E3,1.3276528E4,5.192842E3,1.8297871E3,5.6265E3,0E0,0E0,0E0,0E0,0E0,0E0,0E0,0E0,0E0,0E0,0E0,0E0],"parents":[2147483647,0,0,1,1,2,2,3,3,4,4,5,5,7,7,8,8,9,9,10,10,11,11,12,12],"right_children":[2,4,6,8,10,12,-1,14,16,18,20,22,24,-1,-1,-1,-1,-1,-1,-1,-1,-1,-1,-1,-1],"split_conditions":[3.2E4,8E0,6.4E4,9E0,4.8E1,6.4E1,3.249635E1,6E0,3.1E1,1.2E4,1.2E1,2.8E1,1.6E4,-3.329979E0,-7.359032E-1,-1.1216598E0,2.3508847E0,-2.5171149E0,3.4570472E0,7.8740996E-1,7.0103884E0,4.2998454E-1,4.1005807E0,8.420454E0,1.6142351E1],"split_indices":[2,4,2,3,3,3,0,4,5,2,4,5,1,0,0,0,0,0,0,0,0,0,0,0,0],"split_type":[0,0,0,0,0,0,0,0,0,0,0,0,0,0,0,0,0,0,0,0,0,0,0,0,0],"sum_hessian":[1.69E2,1.46E2,2.3E1,1.25E2,2.1E1,2E1,3E0,9.5E1,3E1,1.3E1,8E0,8E0,1.2E1,8.9E1,6E0,2.9E1,1E0,6E0,7E0,2E0,6E0,2E0,6E0,7E0,5E0],"tree_param":{"num_deleted":"0","num_feature":"36","num_nodes":"25","size_leaf_vector":"1"}},{"base_weights":[3.1431267E0,-1.6632874E1,1.2414016E2,-2.4858326E1,2.0845373E1,6.897114E1,2.4826906E2,-2.631045E1,2.4193909E1,8.195079E0,1.2678908E1,9.222678E1,1.9251293E1,1.4139897E1,3.4362953E1,-3.3323953E0,-1.9210557E0,8.100845E-1,3.623655E0,-1.9998366E0,2.1848145E0,6.1553955E0,1.2285795E1,-1.9901085E-1,2.3123212E0],"categories":[],"categories_nodes":[],"categories_segments":[],"categories_sizes":[],"default_left":[0,0,0,0,0,0,0,0,0,0,0,0,0,0,0,0,0,0,0,0,0,0,0,0,0],"id":9,"left_children":[1,3,5,7,9,11,13,15,17,-1,19,21,23,-1,-1,-1,-1,-1,-1,-1,-1,-1,-1,-1,-1],"loss_changes":[4.0884716E5,4.5834684E4,1.4723028E5,9.255375E3,1.2434365E4,1.9037328E4,2.2749406E4,5.2356484E3,4.8166528E2,0E0,7.9275684E3,3.7121406E3,6.2173267E2,0E0,0E0,0E0,0E0,0E0,0E0,0E0,0E0,0E0,0E0,0E0,0E0],"parents":[2147483647,0,0,1,1,2,2,3,3,4,4,5,5,6,6,7,7,8,8,10,10,11,11,12,12],"right_children":[2,4,6,8,10,12,14,16,18,-1,20,22,24,-1,-1,-1,-1,-1,-1,-1,-1,-1,-1,-1,-1],"split_conditions":[3.2E4,3.2E1,6.5E1,5E3,3E3,4E1,6.4E4,1E0,5.7E1,8.195079E0,1E1,1.6E4,3E1,1.4139897E1,3.4362953E1,-3.3323953E0,-1.9210557E0,8.100845E-1,3.623655E0,-1.9998366E0,2.1848145E0,6.1553955E0,1.2285795E1,-1.9901085E-1,2.3123212E0],"split_indices":[2,3,3,1,2,0,2,3,0,0,5,1,3,0,0,0,0,0,0,0,0,0,0,0,0],"split_type":[0,0,0,0,0,0,0,0,0,0,0,0,0,0,0,0,0,0,0,0,0,0,0,0,0],"sum_hessian":[1.69E2,1.46E2,2.3E1,1.2E2,2.6E1,1.7E1,6E0,1.17E2,3E0,2E0,2.4E1,1.1E1,6E0,4E0,2E0,5.7E1,6E1,2E0,1E0,5E0,1.9E1,7E0,4E0,1E0,5E0],"tree_param":{"num_deleted":"0","num_feature":"36","num_nodes":"25","size_leaf_vector":"1"}},{"base_weights":[3.2795062E0,-1.4918155E1,1.1460353E2,-2.1568296E1,2.3847115E1,6.321594E1,2.3037112E2,-2.5912363E1,-7.4199514E0,5.958807E0,4.9023693E1,8.454087E1,1.7628067E1,1.3008707E1,3.2072086E1,-2.760655E0,-6.4678293E-1,-9.083349E-1,2.1240997E0,-2.213687E0,2.9797673E0,6.467773E0,1.3286717E0,5.6167984E0,1.1302932E1,-1.8906021E-1,2.119628E0],"categories":[],"categories_nodes":[],"categories_segments":[],"categories_sizes":[],"default_left":[0,0,0,0,0,0,0,0,0,0,0,0,0,0,0,0,0,0,0,0,0,0,0,0,0,0,0],"id":10,"left_children":[1,3,5,7,9,11,13,15,17,19,21,23,25,-1,-1,-1,-1,-1,-1,-1,-1,-1,-1,-1,-1,-1,-1],"loss_changes":[3.4610194E5,3.8410133E4,1.2821331E5,7.5518633E3,9.6159375E3,1.6008547E4,2.1702844E4,2.9839375E3,1.6708512E3,1.0036393E4,4.175496E3,3.3509688E3,5.276008E2,0E0,0E0,0E0,0E0,0E0,0E0,0E0,0E0,0E0,0E0,0E0,0E0,0E0,0E0],"parents":[2147483647,0,0,1,1,2,2,3,3,4,4,5,5,6,6,7,7,8,8,9,9,10,10,11,11,12,12],"right_children":[2,4,6,8,10,12,14,16,18,20,22,24,26,-1,-1,-1,-1,-1,-1,-1,-1,-1,-1,-1,-1,-1,-1],"split_conditions":[3.2E4,8E0,6.5E1,9E0,4.8E1,4E1,6.4E4,2.62E3,3.1E1,1.2E4,6E1,1.6E4,3E1,1.3008707E1,3.2072086E1,-2.760655E0,-6.4678293E-1,-9.083349E-1,2.1240997E0,-2.213687E0,2.9797673E0,6.467773E0,1.3286717E0,5.6167984E0,1.1302932E1,-1.8906021E-1,2.119628E0],"split_indices":[2,4,3,3,3,0,2,1,5,2,0,1,3,0,0,0,0,0,0,0,0,0,0,0,0,0,0],"split_type":[0,0,0,0,0,0,0,0,0,0,0,0,0,0,0,0,0,0,0,0,0,0,0,0,0,0,0],"sum_hessian":[1.69E2,1.46E2,2.3E1,1.25E2,2.1E1,1.7E1,6E0,9.5E1,3E1,1.3E1,8E0,1.1E1,6E0,4E0,2E0,8.7E1,8E0,2.9E1,1E0,6E0,7E0,5E0,3E0,7E0,4E0,1E0,5E0],"tree_param":{"num_deleted":"0","num_feature":"36","num_nodes":"27","size_leaf_vector":"1"}},{"base_weights":[3.365096E0,-1.3383E1,1.0580698E2,-1.9428862E1,2.1851608E1,5.794158E1,2.1377414E2,-2.77235E1,-1.2612965E1,7.2175546E0,1.3210438E1,7.749676E1,1.6141054E1,1.196801E1,2.9933949E1,-2.8369904E0,3.914322E-1,-2.4051843E0,-6.2600946E-1,-1.1777672E0,3.085065E0,3.2893128E0,8.870985E0,-1.7960739E-1,1.9429922E0],"categories":[],"categories_nodes":[],"categories_segments":[],"categories_sizes":[],"default_left":[0,0,0,0,0,0,0,0,0,0,0,0,0,0,0,0,0,0,0,0,0,0,0,0,0],"id":11,"left_children":[1,3,5,7,9,11,13,15,17,-1,19,21,23,-1,-1,-1,-1,-1,-1,-1,-1,-1,-1,-1,-1],"loss_changes":[2.9308612E5,3.1739008E4,1.11643E5,6.773789E3,8.6134E3,1.3462621E4,2.0533312E4,1.256293E3,5.0089814E3,0E0,9.17926E3,3.0837812E3,4.478473E2,0E0,0E0,0E0,0E0,0E0,0E0,0E0,0E0,0E0,0E0,0E0,0E0],"parents":[2147483647,0,0,1,1,2,2,3,3,4,4,5,5,6,6,7,7,8,8,10,10,11,11,12,12],"right_children":[2,4,6,8,10,12,14,16,18,-1,20,22,24,-1,-1,-1,-1,-1,-1,-1,-1,-1,-1,-1,-1],"split_conditions":[3.2E4,8E0,6.5E1,1E0,2.6E1,4E1,6.4E4,3.8E1,6.2E3,7.2175546E0,1.2E4,4.8E1,3E1,1.196801E1,2.9933949E1,-2.8369904E0,3.914322E-1,-2.4051843E0,-6.2600946E-1,-1.1777672E0,3.085065E0,3.2893128E0,8.870985E0,-1.7960739E-1,1.9429922E0],"split_indices":[2,4,3,3,0,0,2,5,2,0,2,3,3,0,0,0,0,0,0,0,0,0,0,0,0],"split_type":[0,0,0,0,0,0,0,0,0,0,0,0,0,0,0,0,0,0,0,0,0,0,0,0,0],"sum_hessian":[1.69E2,1.46E2,2.3E1,1.25E2,2.1E1,1.7E1,6E0,5.5E1,7E1,2E0,1.9E1,1.1E1,6E0,4E0,2E0,5.4E1,1E0,2.4E1,4.6E1,8E0,1.1E1,3E0,8E0,1E0,5E0],"tree_param":{"num_deleted":"0","num_feature":"36","num_nodes":"25","size_leaf_vector":"1"}},{"base_weights":[3.378432E0,-1.2019884E1,9.755235E1,-1.8338877E1,1.6743744E1,6.4956635E1,2.4429178E2,-2.1135826E1,-2.2112625E0,6.736384E0,9.999582E0,4.0742023E1,1.1870282E2,6.95083E0,2.7938353E1,-2.747444E0,-1.7614272E0,-1.0234599E0,1.3005115E0,-1.7053216E0,1.7615442E0,9.1468143E-1,5.0511527E0,2.4905732E0,1.324811E1],"categories":[],"categories_nodes":[],"categories_segments":[],"categories_sizes":[],"default_left":[0,0,0,0,0,0,0,0,0,0,0,0,0,0,0,0,0,0,0,0,0,0,0,0,0],"id":12,"left_children":[1,3,5,7,9,11,13,15,17,-1,19,21,23,-1,-1,-1,-1,-1,-1,-1,-1,-1,-1,-1,-1],"loss_changes":[2.4769292E5,2.7025365E4,9.892547E4,5.41134E3,8.543922E3,2.249411E4,5.1143594E3,1.8152031E3,2.452738E3,0E0,5.451158E3,4.4766914E3,4.4546406E3,0E0,0E0,0E0,0E0,0E0,0E0,0E0,0E0,0E0,0E0,0E0,0E0],"parents":[2147483647,0,0,1,1,2,2,3,3,4,4,5,5,6,6,7,7,8,8,10,10,11,11,12,12],"right_children":[2,4,6,8,10,12,14,16,18,-1,20,22,24,-1,-1,-1,-1,-1,-1,-1,-1,-1,-1,-1,-1],"split_conditions":[3.2E4,3.2E1,6.4E4,1.6E4,3E3,1.6E4,6.5E1,5E0,2.62E3,6.736384E0,1E1,7E0,2.5E1,6.95083E0,2.7938353E1,-2.747444E0,-1.7614272E0,-1.0234599E0,1.3005115E0,-1.7053216E0,1.7615442E0,9.1468143E-1,5.0511527E0,2.4905732E0,1.324811E1],"split_indices":[2,3,2,2,2,1,3,5,1,0,5,4,0,0,0,0,0,0,0,0,0,0,0,0,0],"split_type":[0,0,0,0,0,0,0,0,0,0,0,0,0,0,0,0,0,0,0,0,0,0,0,0,0],"sum_hessian":[1.69E2,1.46E2,2.3E1,1.2E2,2.6E1,2E1,3E0,1.02E2,1.8E1,2E0,2.4E1,1.5E1,5E0,1E0,2E0,3.4E1,6.8E1,1.2E1,6E0,5E0,1.9E1,4E0,1.1E1,1E0,4E0],"tree_param":{"num_deleted":"0","num_feature":"36","num_nodes":"25","size_leaf_vector":"1"}},{"base_weights":[3.3885572E0,-4.407251E0,1.6180457E2,-1.5045492E1,3.6398003E1,8.970267E0,2.114808E1,-1.91268E1,-3.421176E0,2.0204863E1,7.913396E1,-2.0330276E0,-9.211339E-2,-6.1448723E-1,1.9223689E0,-1.8726677E0,3.282066E0,1.112155E1,3.1225636E0],"categories":[],"categories_nodes":[],"categories_segments":[],"categories_sizes":[],"default_left":[0,0,0,0,0,0,0,0,0,0,0,0,0,0,0,0,0,0,0],"id":13,"left_children":[1,3,5,7,9,-1,-1,11,13,15,17,-1,-1,-1,-1,-1,-1,-1,-1],"loss_changes":[2.1065986E5,7.13053E4,9.683594E3,6.102078E3,2.193011E4,0E0,0E0,2.0846406E3,2.2768477E3,1.3384581E4,1.0359973E4,0E0,0E0,0E0,0E0,0E0,0E0,0E0,0E0],"parents":[2147483647,0,0,1,1,2,2,3,3,4,4,7,7,8,8,9,9,10,10],"right_children":[2,4,6,8,10,-1,-1,12,14,16,18,-1,-1,-1,-1,-1,-1,-1,-1],"split_conditions":[1.6E4,8E0,6.5E1,9E0,6.5E1,8.970267E0,2.114808E1,6E0,3.1E1,1.2E4,3.5E1,-2.0330276E0,-9.211339E-2,-6.1448723E-1,1.9223689E0,-1.8726677E0,3.282066E0,1.112155E1,3.1225636E0],"split_indices":[1,4,3,3,3,0,0,4,5,2,0,0,0,0,0,0,0,0,0],"split_type":[0,0,0,0,0,0,0,0,0,0,0,0,0,0,0,0,0,0,0],"sum_hessian":[1.69E2,1.62E2,7E0,1.29E2,3.3E1,4E0,3E0,9.5E1,3.4E1,2.5E1,8E0,8.9E1,6E0,3.1E1,3E0,6E0,1.9E1,4E0,4E0],"tree_param":{"num_deleted":"0","num_feature":"36","num_nodes":"19","size_leaf_vector":"1"}},{"base_weights":[3.3141408E0,-1.8544657E0,2.1827493E2,-1.0749759E1,5.1594563E1,6.154776E0,2.5000141E1,-1.2793379E1,3.8385723E1,3.4249607E1,9.792116E1,-1.6252428E0,4.4584203E-1,4.649682E0,-1.084877E-1,7.891916E-1,4.0752196E0,1.9175309E0,1.0983527E1],"categories":[],"categories_nodes":[],"categories_segments":[],"categories_sizes":[],"default_left":[0,0,0,0,0,0,0,0,0,0,0,0,0,0,0,0,0,0,0],"id":14,"left_children":[1,3,5,7,9,-1,-1,11,13,15,17,-1,-1,-1,-1,-1,-1,-1,-1],"loss_changes":[1.8928289E5,7.995391E4,4.502578E3,1.4950734E4,1.593102E4,0E0,0E0,8.36726E3,1.9713418E3,2.9348594E3,3.523E3,0E0,0E0,0E0,0E0,0E0,0E0,0E0,0E0],"parents":[2147483647,0,0,1,1,2,2,3,3,4,4,7,7,8,8,9,9,10,10],"right_children":[2,4,6,8,10,-1,-1,12,14,16,18,-1,-1,-1,-1,-1,-1,-1,-1],"split_conditions":[6.4E4,2.4E4,6.5E1,9.6E1,1.6E4,6.154776E0,2.5000141E1,3E3,5E3,7E0,2.5E1,-1.6252428E0,4.4584203E-1,4.649682E0,-1.084877E-1,7.891916E-1,4.0752196E0,1.9175309E0,1.0983527E1],"split_indices":[2,2,3,3,1,0,0,1,1,4,0,0,0,0,0,0,0,0,0],"split_type":[0,0,0,0,0,0,0,0,0,0,0,0,0,0,0,0,0,0,0],"sum_hessian":[1.69E2,1.66E2,3E0,1.43E2,2.3E1,1E0,2E0,1.38E2,5E0,1.8E1,5E0,1.15E2,2.3E1,4E0,1E0,4E0,1.4E1,1E0,4E0],"tree_param":{"num_deleted":"0","num_feature":"36","num_nodes":"19","size_leaf_vector":"1"}},{"base_weights":[3.2902696E0,-1.5425082E0,2.0423618E2,-9.651436E0,4.717533E1,5.847037E0,2.3333466E1,-1.1687519E1,3.1867256E1,3.1080666E1,9.027922E1,-1.4866308E0,4.031155E-1,3.0618212E-1,4.2777066E0,1.7289578E0,4.448303E0,1.8216537E0,1.0104845E1],"categories":[],"categories_nodes":[],"categories_segments":[],"categories_sizes":[],"default_left":[0,0,0,0,0,0,0,0,0,0,0,0,0,0,0,0,0,0,0],"id":15,"left_children":[1,3,5,7,9,-1,-1,11,13,15,17,-1,-1,-1,-1,-1,-1,-1,-1],"loss_changes":[1.654066E5,6.642856E4,3.3230938E3,1.254556E4,1.3843887E4,0E0,0E0,6.955283E3,2.068857E3,2.7427383E3,2.8156016E3,0E0,0E0,0E0,0E0,0E0,0E0,0E0,0E0],"parents":[2147483647,0,0,1,1,2,2,3,3,4,4,7,7,8,8,9,9,10,10],"right_children":[2,4,6,8,10,-1,-1,12,14,16,18,-1,-1,-1,-1,-1,-1,-1,-1],"split_conditions":[6.4E4,2.4E4,6.5E1,6.5E1,1.6E4,5.847037E0,2.3333466E1,3E3,1.2E1,6.4E1,2.5E1,-1.4866308E0,4.031155E-1,3.0618212E-1,4.2777066E0,1.7289578E0,4.448303E0,1.8216537E0,1.0104845E1],"split_indices":[2,2,3,3,1,0,0,1,4,3,0,0,0,0,0,0,0,0,0],"split_type":[0,0,0,0,0,0,0,0,0,0,0,0,0,0,0,0,0,0,0],"sum_hessian":[1.69E2,1.66E2,3E0,1.43E2,2.3E1,1E0,2E0,1.37E2,6E0,1.8E1,5E0,1.14E2,2.3E1,2E0,4E0,1E1,8E0,1E0,4E0],"tree_param":{"num_deleted":"0","num_feature":"36","num_nodes":"19","size_leaf_vector":"1"}},{"base_weights":[3.259975E0,-1.2588922E0,1.9110768E2,-1.10728655E1,3.2348354E1,5.5546846E0,2.17779E1,-1.8297112E1,-5.531124E0,2.2115252E1,8.323904E1,-1.8783274E0,4.220898E-1,-1.4950185E0,-8.05484E-2,6.843733E-1,3.6085873E0,1.730571E0,9.296456E0],"categories":[],"categories_nodes":[],"categories_segments":[],"categories_sizes":[],"default_left":[0,0,0,0,0,0,0,0,0,0,0,0,0,0,0,0,0,0,0],"id":16,"left_children":[1,3,5,7,9,-1,-1,11,13,15,17,-1,-1,-1,-1,-1,-1,-1,-1],"loss_changes":[1.4454656E5,5.5438234E4,2.3654219E3,5.103334E3,1.7948395E4,0E0,0E0,6.923379E2,3.3262896E3,6.793675E3,2.2386016E3,0E0,0E0,0E0,0E0,0E0,0E0,0E0,0E0],"parents":[2147483647,0,0,1,1,2,2,3,3,4,4,7,7,8,8,9,9,10,10],"right_children":[2,4,6,8,10,-1,-1,12,14,16,18,-1,-1,-1,-1,-1,-1,-1,-1],"split_conditions":[6.4E4,8E0,6.5E1,1E0,1.6E4,5.5546846E0,2.17779E1,3.8E1,6.2E3,4.8E1,2.5E1,-1.8783274E0,4.220898E-1,-1.4950185E0,-8.05484E-2,6.843733E-1,3.6085873E0,1.730571E0,9.296456E0],"split_indices":[2,4,3,3,1,0,0,5,2,3,0,0,0,0,0,0,0,0,0],"split_type":[0,0,0,0,0,0,0,0,0,0,0,0,0,0,0,0,0,0,0],"sum_hessian":[1.69E2,1.66E2,3E0,1.29E2,3.7E1,1E0,2E0,5.5E1,7.4E1,3.2E1,5E0,5.4E1,1E0,2.4E1,5E1,1.6E1,1.6E1,1E0,4E0],"tree_param":{"num_deleted":"0","num_feature":"36","num_nodes":"19","size_leaf_vector":"1"}},{"base_weights":[3.1670418E0,-1.05942E0,1.7883006E2,-7.9133387E0,4.0108234E1,5.2769504E0,2.0326042E1,-9.615261E0,2.6769318E1,2.642525E1,7.675298E1,-1.2611126E0,2.6046014E-1,4.7101226E0,9.2163086E-1,8.147443E-1,3.237108E0,1.644043E0,8.552741E0],"categories":[],"categories_nodes":[],"categories_segments":[],"categories_sizes":[],"default_left":[0,0,0,0,0,0,0,0,0,0,0,0,0,0,0,0,0,0,0],"id":17,"left_children":[1,3,5,7,9,-1,-1,11,13,15,17,-1,-1,-1,-1,-1,-1,-1,-1],"loss_changes":[1.2640308E5,4.7438066E4,1.592875E3,8.757309E3,1.0005613E4,0E0,0E0,5.0848945E3,2.0641035E3,1.8011162E3,1.7691367E3,0E0,0E0,0E0,0E0,0E0,0E0,0E0,0E0],"parents":[2147483647,0,0,1,1,2,2,3,3,4,4,7,7,8,8,9,9,10,10],"right_children":[2,4,6,8,10,-1,-1,12,14,16,18,-1,-1,-1,-1,-1,-1,-1,-1],"split_conditions":[6.4E4,2.4E4,6.5E1,6.5E1,1.6E4,5.2769504E0,2.0326042E1,1.6E4,2.6E1,2.62E3,2.5E1,-1.2611126E0,2.6046014E-1,4.7101226E0,9.2163086E-1,8.147443E-1,3.237108E0,1.644043E0,8.552741E0],"split_indices":[2,2,3,3,1,0,0,2,0,1,0,0,0,0,0,0,0,0,0],"split_type":[0,0,0,0,0,0,0,0,0,0,0,0,0,0,0,0,0,0,0],"sum_hessian":[1.69E2,1.66E2,3E0,1.43E2,2.3E1,1E0,2E0,1.37E2,6E0,1.8E1,5E0,1.1E2,2.7E1,2E0,4E0,5E0,1.3E1,1E0,4E0],"tree_param":{"num_deleted":"0","num_feature":"36","num_nodes":"19","size_leaf_vector":"1"}},{"base_weights":[3.112E0,-8.4042615E-1,1.673478E2,-7.0898447E0,3.66911E1,5.013101E0,1.8970972E1,-8.660986E0,2.4896921E1,2.3995977E1,7.077715E1,-1.0121653E0,1.3399862E0,4.396114E0,8.479004E-1,1.3266208E0,3.444392E0,1.5618409E0,7.868522E0],"categories":[],"categories_nodes":[],"categories_segments":[],"categories_sizes":[],"default_left":[0,0,0,0,0,0,0,0,0,0,0,0,0,0,0,0,0,0,0],"id":18,"left_children":[1,3,5,7,9,-1,-1,11,13,15,17,-1,-1,-1,-1,-1,-1,-1,-1],"loss_changes":[1.1049271E5,3.9430023E4,9.744375E2,7.452457E3,8.687074E3,0E0,0E0,4.5824766E3,1.8182163E3,1.6730361E3,1.3882559E3,0E0,0E0,0E0,0E0,0E0,0E0,0E0,0E0],"parents":[2147483647,0,0,1,1,2,2,3,3,4,4,7,7,8,8,9,9,10,10],"right_children":[2,4,6,8,10,-1,-1,12,14,16,18,-1,-1,-1,-1,-1,-1,-1,-1],"split_conditions":[6.4E4,2.4E4,6.5E1,6.5E1,1.6E4,5.013101E0,1.8970972E1,5E3,2.6E1,6.4E1,2.5E1,-1.0121653E0,1.3399862E0,4.396114E0,8.479004E-1,1.3266208E0,3.444392E0,1.5618409E0,7.868522E0],"split_indices":[2,2,3,3,1,0,0,1,0,3,0,0,0,0,0,0,0,0,0],"split_type":[0,0,0,0,0,0,0,0,0,0,0,0,0,0,0,0,0,0,0],"sum_hessian":[1.69E2,1.66E2,3E0,1.43E2,2.3E1,1E0,2E0,1.37E2,6E0,1.8E1,5E0,1.29E2,8E0,2E0,4E0,1E1,8E0,1E0,4E0],"tree_param":{"num_deleted":"0","num_feature":"36","num_nodes":"19","size_leaf_vector":"1"}},{"base_weights":[3.0581965E0,-6.3798046E-1,1.5660904E2,-6.342166E0,3.3613716E1,4.762445E0,1.7706244E1,-7.792511E0,2.3156372E1,2.1847486E1,6.527116E1,-1.0181019E0,3.9771098E-1,4.1030397E0,7.8006834E-1,1.2060194E0,3.1382234E0,1.4837494E0,7.23904E0],"categories":[],"categories_nodes":[],"categories_segments":[],"categories_sizes":[],"default_left":[0,0,0,0,0,0,0,0,0,0,0,0,0,0,0,0,0,0,0],"id":19,"left_children":[1,3,5,7,9,-1,-1,11,13,15,17,-1,-1,-1,-1,-1,-1,-1,-1],"loss_changes":[9.658359E4,3.2841316E4,4.8392188E2,6.341206E3,7.5137207E3,0E0,0E0,3.9199229E3,1.6012104E3,1.3945908E3,1.0802031E3,0E0,0E0,0E0,0E0,0E0,0E0,0E0,0E0],"parents":[2147483647,0,0,1,1,2,2,3,3,4,4,7,7,8,8,9,9,10,10],"right_children":[2,4,6,8,10,-1,-1,12,14,16,18,-1,-1,-1,-1,-1,-1,-1,-1],"split_conditions":[6.4E4,2.4E4,6.5E1,6.5E1,1.6E4,4.762445E0,1.7706244E1,3E3,2.6E1,6.4E1,2.5E1,-1.0181019E0,3.9771098E-1,4.1030397E0,7.8006834E-1,1.2060194E0,3.1382234E0,1.4837494E0,7.23904E0],"split_indices":[2,2,3,3,1,0,0,1,0,3,0,0,0,0,0,0,0,0,0],"split_type":[0,0,0,0,0,0,0,0,0,0,0,0,0,0,0,0,0,0,0],"sum_hessian":[1.69E2,1.66E2,3E0,1.43E2,2.3E1,1E0,2E0,1.37E2,6E0,1.8E1,5E0,1.14E2,2.3E1,2E0,4E0,1E1,8E0,1E0,4E0],"tree_param":{"num_deleted":"0","num_feature":"36","num_nodes":"19","size_leaf_vector":"1"}},{"base_weights":[2.986485E0,-4.7041184E-1,1.465653E2,-6.2015357E0,2.8202007E1,4.5243225E0,1.6525826E1,-9.719399E0,5.974985E0,-1.3968091E0,4.0111374E1,-1.5046042E0,-7.104041E-1,1.7978985E0,4.960727E-2,-1.2562444E0,1.0048188E0,5.124147E0,1.7011051E0],"categories":[],"categories_nodes":[],"categories_segments":[],"categories_sizes":[],"default_left":[0,0,0,0,0,0,0,0,0,0,0,0,0,0,0,0,0,0,0],"id":20,"left_children":[1,3,5,7,9,-1,-1,11,13,15,17,-1,-1,-1,-1,-1,-1,-1,-1],"loss_changes":[8.4446266E4,2.7617201E4,9.921875E1,6.055021E3,9.926117E3,0E0,0E0,1.4115996E3,2.0956848E3,1.2763456E3,4.270506E3,0E0,0E0,0E0,0E0,0E0,0E0,0E0,0E0],"parents":[2147483647,0,0,1,1,2,2,3,3,4,4,7,7,8,8,9,9,10,10],"right_children":[2,4,6,8,10,-1,-1,12,14,16,18,-1,-1,-1,-1,-1,-1,-1,-1],"split_conditions":[6.4E4,4.8E1,6.5E1,1.6E4,1.9E1,4.5243225E0,1.6525826E1,5E0,5E1,1E1,4E1,-1.5046042E0,-7.104041E-1,1.7978985E0,4.960727E-2,-1.2562444E0,1.0048188E0,5.124147E0,1.7011051E0],"split_indices":[2,3,3,2,5,0,0,5,0,5,0,0,0,0,0,0,0,0,0],"split_type":[0,0,0,0,0,0,0,0,0,0,0,0,0,0,0,0,0,0,0],"sum_hessian":[1.69E2,1.66E2,3E0,1.39E2,2.7E1,1E0,2E0,1.08E2,3.1E1,8E0,1.9E1,3.4E1,7.4E1,9E0,2.2E1,4E0,4E0,1.2E1,7E0],"tree_param":{"num_deleted":"0","num_feature":"36","num_nodes":"19","size_leaf_vector":"1"}},{"base_weights":[2.8481686E0,-3.8620734E-1,1.3717133E1,-5.147234E0,2.8196045E1,-9.601169E0,2.0232558E0,1.7954672E1,5.5927715E1,-1.3528465E0,-5.27715E-1,3.0012925E0,-7.069671E-2,1.3674601E0,3.6223524E0,1.1533539E0,6.2499843E0],"categories":[],"categories_nodes":[],"categories_segments":[],"categories_sizes":[],"default_left":[0,0,0,0,0,0,0,0,0,0,0,0,0,0,0,0,0],"id":21,"left_children":[1,3,-1,5,7,9,11,13,15,-1,-1,-1,-1,-1,-1,-1,-1],"loss_changes":[7.390974E4,2.2870637E4,0E0,4.618338E3,5.812084E3,1.4399805E3,4.300628E3,9.9030566E2,1.0297422E3,0E0,0E0,0E0,0E0,0E0,0E0,0E0,0E0],"parents":[2147483647,0,0,1,1,3,3,4,4,5,5,6,6,7,7,8,8],"right_children":[2,4,-1,6,8,10,12,14,16,-1,-1,-1,-1,-1,-1,-1,-1],"split_conditions":[6.4E4,2.4E4,1.3717133E1,1.2E1,1.6E4,2E0,2.9E1,6.5E1,2.5E1,-1.3528465E0,-5.27715E-1,3.0012925E0,-7.069671E-2,1.3674601E0,3.6223524E0,1.1533539E0,6.2499843E0],"split_indices":[2,2,0,5,1,3,0,3,0,0,0,0,0,0,0,0,0],"split_type":[0,0,0,0,0,0,0,0,0,0,0,0,0,0,0,0,0],"sum_hessian":[1.69E2,1.66E2,3E0,1.43E2,2.3E1,8.8E1,5.5E1,1.8E1,5E0,4.5E1,4.3E1,4E0,5.1E1,1.6E1,2E0,1E0,4E0],"tree_param":{"num_deleted":"0","num_feature":"36","num_nodes":"17","size_leaf_vector":"1"}},{"base_weights":[2.7231188E0,-2.6708817E-1,1.26883484E2,-5.113987E0,2.3976944E1,3.6122499E0,1.4509631E1,-8.612024E0,3.5425432E0,-1.2879164E0,3.414728E1,-1.7866652E0,-7.385214E-1,6.3631004E-1,-1.3971226E0,-1.1135277E0,8.817027E-1,4.3449197E0,1.4763268E0],"categories":[],"categories_nodes":[],"categories_segments":[],"categories_sizes":[],"default_left":[0,0,0,0,0,0,0,0,0,0,0,0,0,0,0,0,0,0,0],"id":22,"left_children":[1,3,5,7,9,-1,-1,11,13,15,17,-1,-1,-1,-1,-1,-1,-1,-1],"loss_changes":[6.3148977E4,1.9746512E4,1.3708164E3,4.26983E3,7.2386396E3,0E0,0E0,1.00341797E3,2.1142427E3,9.9374316E2,2.9647168E3,0E0,0E0,0E0,0E0,0E0,0E0,0E0,0E0],"parents":[2147483647,0,0,1,1,2,2,3,3,4,4,7,7,8,8,9,9,10,10],"right_children":[2,4,6,8,10,-1,-1,12,14,16,18,-1,-1,-1,-1,-1,-1,-1,-1],"split_conditions":[6.4E4,4.8E1,6.5E1,1.2E4,1.9E1,3.6122499E0,1.4509631E1,2E3,2E2,1E1,4E1,-1.7866652E0,-7.385214E-1,6.3631004E-1,-1.3971226E0,-1.1135277E0,8.817027E-1,4.3449197E0,1.4763268E0],"split_indices":[2,3,3,2,5,0,0,2,0,5,0,0,0,0,0,0,0,0,0],"split_type":[0,0,0,0,0,0,0,0,0,0,0,0,0,0,0,0,0,0,0],"sum_hessian":[1.69E2,1.66E2,3E0,1.39E2,2.7E1,1E0,2E0,9.9E1,4E1,8E0,1.9E1,1E1,8.9E1,3.5E1,5E0,4E0,4E0,1.2E1,7E0],"tree_param":{"num_deleted":"0","num_feature":"36","num_nodes":"19","size_leaf_vector":"1"}},{"base_weights":[2.5709567E0,-2.2658536E-1,1.187256E2,-6.2955785E0,1.5874366E1,5.409361E0,1.563108E1,-9.797291E0,-2.969069E0,1.0793471E1,4.7948086E1,1.5297943E0,-1.0493726E0,1.6924044E0,-3.883751E-1,-1.0523391E0,1.4046463E0,8.7844086E-1,5.402394E0],"categories":[],"categories_nodes":[],"categories_segments":[],"categories_sizes":[],"default_left":[0,0,0,0,0,0,0,0,0,0,0,0,0,0,0,0,0,0,0],"id":23,"left_children":[1,3,5,7,9,-1,-1,11,13,15,17,-1,-1,-1,-1,-1,-1,-1,-1],"loss_changes":[5.526798E4,1.6418605E4,1.2614062E3,1.3920254E3,6.9787803E3,0E0,0E0,1.191686E3,1.2302642E3,2.9909028E3,9.5314844E2,0E0,0E0,0E0,0E0,0E0,0E0,0E0,0E0],"parents":[2147483647,0,0,1,1,2,2,3,3,4,4,7,7,8,8,9,9,10,10],"right_children":[2,4,6,8,10,-1,-1,12,14,16,18,-1,-1,-1,-1,-1,-1,-1,-1],"split_conditions":[6.4E4,3.2E1,3.2E4,1E0,1.6E4,5.409361E0,1.563108E1,2.9E1,2.00001E0,1E1,2.5E1,1.5297943E0,-1.0493726E0,1.6924044E0,-3.883751E-1,-1.0523391E0,1.4046463E0,8.7844086E-1,5.402394E0],"split_indices":[2,3,1,3,1,0,0,0,16,5,0,0,0,0,0,0,0,0,0],"split_type":[0,0,0,0,0,0,0,0,0,0,0,0,0,0,0,0,0,0,0],"sum_hessian":[1.69E2,1.66E2,3E0,1.21E2,4.5E1,2E0,1E0,5.8E1,6.3E1,4E1,5E0,1E0,5.7E1,2E0,6.1E1,5E0,3.5E1,1E0,4E0],"tree_param":{"num_deleted":"0","num_feature":"36","num_nodes":"19","size_leaf_vector":"1"}},{"base_weights":[2.4871435E0,-1.5352212E-1,1.12113144E2,-4.0519543E0,2.1143818E1,5.0487366E0,1.48495245E1,-6.6913514E0,4.528819E0,-2.3377008E0,2.9917942E1,-1.5408617E0,-5.655177E-1,3.240629E0,2.7020383E-1,-8.163621E-1,1.0093373E0,3.3567111E0,-7.333425E-2],"categories":[],"categories_nodes":[],"categories_segments":[],"categories_sizes":[],"default_left":[0,0,0,0,0,0,0,0,0,0,0,0,0,0,0,0,0,0,0],"id":24,"left_children":[1,3,5,7,9,-1,-1,11,13,15,17,-1,-1,-1,-1,-1,-1,-1,-1],"loss_changes":[4.9229766E4,1.3951056E4,1.4711641E3,3.2463298E3,5.426713E3,0E0,0E0,8.974155E2,1.6439214E3,6.617781E2,2.1497988E3,0E0,0E0,0E0,0E0,0E0,0E0,0E0,0E0],"parents":[2147483647,0,0,1,1,2,2,3,3,4,4,7,7,8,8,9,9,10,10],"right_children":[2,4,6,8,10,-1,-1,12,14,16,18,-1,-1,-1,-1,-1,-1,-1,-1],"split_conditions":[6.4E4,6.4E1,3.2E4,1.6E4,1.9E1,5.0487366E0,1.48495245E1,2E3,4E0,2.097E4,8.4E1,-1.5408617E0,-5.655177E-1,3.240629E0,2.7020383E-1,-8.163621E-1,1.0093373E0,3.3567111E0,-7.333425E-2],"split_indices":[2,3,1,2,5,0,0,2,5,2,0,0,0,0,0,0,0,0,0],"split_type":[0,0,0,0,0,0,0,0,0,0,0,0,0,0,0,0,0,0,0],"sum_hessian":[1.69E2,1.66E2,3E0,1.41E2,2.5E1,2E0,1E0,1.08E2,3.3E1,7E0,1.8E1,1E1,9.8E1,1E0,3.2E1,5E0,2E0,1.6E1,2E0],"tree_param":{"num_deleted":"0","num_feature":"36","num_nodes":"19","size_leaf_vector":"1"}},{"base_weights":[2.3841877E0,-1.08943895E-1,1.0587639E2,-3.8028698E0,1.8364576E1,4.712154E0,1.4107047E1,-6.463136E0,2.7783372E0,-1.1422517E0,2.622442E1,-1.4007834E0,-5.4691935E-1,3.0785973E0,1.3084972E-1,-8.749499E-1,6.693445E-1,3.3853805E0,1.0548619E0],"categories":[],"categories_nodes":[],"categories_segments":[],"categories_sizes":[],"default_left":[0,0,0,0,0,0,0,0,0,0,0,0,0,0,0,0,0,0,0],"id":25,"left_children":[1,3,5,7,9,-1,-1,11,13,15,17,-1,-1,-1,-1,-1,-1,-1,-1],"loss_changes":[4.387488E4,1.1465886E4,1.6238359E3,2.4690435E3,4.3229326E3,0E0,0E0,6.732876E2,1.6475533E3,5.950369E2,2.0348232E3,0E0,0E0,0E0,0E0,0E0,0E0,0E0,0E0],"parents":[2147483647,0,0,1,1,2,2,3,3,4,4,7,7,8,8,9,9,10,10],"right_children":[2,4,6,8,10,-1,-1,12,14,16,18,-1,-1,-1,-1,-1,-1,-1,-1],"split_conditions":[6.4E4,4.8E1,3.2E4,1.2E4,1.9E1,4.712154E0,1.4107047E1,2E3,4E0,1E1,4E1,-1.4007834E0,-5.4691935E-1,3.0785973E0,1.3084972E-1,-8.749499E-1,6.693445E-1,3.3853805E0,1.0548619E0],"split_indices":[2,3,1,2,5,0,0,2,5,5,0,0,0,0,0,0,0,0,0],"split_type":[0,0,0,0,0,0,0,0,0,0,0,0,0,0,0,0,0,0,0],"sum_hessian":[1.69E2,1.66E2,3E0,1.39E2,2.7E1,2E0,1E0,9.9E1,4E1,8E0,1.9E1,1E1,8.9E1,1E0,3.9E1,4E0,4E0,1.2E1,7E0],"tree_param":{"num_deleted":"0","num_feature":"36","num_nodes":"19","size_leaf_vector":"1"}},{"base_weights":[2.2888029E0,-6.513593E-2,9.9993546E1,-3.1771502E0,1.8609663E1,4.3980103E0,1.3401694E1,-6.3186803E0,1.8723737E0,1.1540869E1,4.3162913E0,1.1445053E0,-6.8585944E-1,2.1613407E0,-6.1809686E-3,2.7632248E0,7.075788E-1],"categories":[],"categories_nodes":[],"categories_segments":[],"categories_sizes":[],"default_left":[0,0,0,0,0,0,0,0,0,0,0,0,0,0,0,0,0],"id":26,"left_children":[1,3,5,7,9,-1,-1,11,13,15,-1,-1,-1,-1,-1,-1,-1],"loss_changes":[3.9104977E4,9.764538E3,1.7289922E3,2.2961367E3,3.6673467E3,0E0,0E0,9.320857E2,2.1395715E3,1.2414666E3,0E0,0E0,0E0,0E0,0E0,0E0,0E0],"parents":[2147483647,0,0,1,1,2,2,3,3,4,4,7,7,8,8,9,9],"right_children":[2,4,6,8,10,-1,-1,12,14,16,-1,-1,-1,-1,-1,-1,-1],"split_conditions":[6.4E4,2.4E4,3.2E4,1.2E1,6.5E1,4.3980103E0,1.3401694E1,2.00001E0,2.9E1,2.00001E0,4.3162913E0,1.1445053E0,-6.8585944E-1,2.1613407E0,-6.1809686E-3,2.7632248E0,7.075788E-1],"split_indices":[2,2,1,5,3,0,0,12,0,23,0,0,0,0,0,0,0],"split_type":[0,0,0,0,0,0,0,0,0,0,0,0,0,0,0,0,0],"sum_hessian":[1.69E2,1.66E2,3E0,1.43E2,2.3E1,2E0,1E0,8.8E1,5.5E1,1.9E1,4E0,2E0,8.6E1,4E0,5.1E1,3E0,1.6E1],"tree_param":{"num_deleted":"0","num_feature":"36","num_nodes":"17","size_leaf_vector":"1"}},{"base_weights":[2.2258084E0,3.6581804E-3,9.444412E1,-4.317461E0,1.1463938E1,4.1048098E0,1.273161E1,-7.111059E0,-1.6746521E0,7.5784817E0,3.6103897E1,1.3251847E0,-7.690624E-1,-6.3806224E-1,1.3084458E-1,-7.7619475E-1,9.924707E-1,4.620346E-1,4.147654E0],"categories":[],"categories_nodes":[],"categories_segments":[],"categories_sizes":[],"default_left":[0,0,0,0,0,0,0,0,0,0,0,0,0,0,0,0,0,0,0],"id":27,"left_children":[1,3,5,7,9,-1,-1,11,13,15,17,-1,-1,-1,-1,-1,-1,-1,-1],"loss_changes":[3.4836555E4,8.319541E3,1.7948477E3,8.888108E2,4.130312E3,0E0,0E0,7.982107E2,9.068044E2,1.5527112E3,8.232632E2,0E0,0E0,0E0,0E0,0E0,0E0,0E0,0E0],"parents":[2147483647,0,0,1,1,2,2,3,3,4,4,7,7,8,8,9,9,10,10],"right_children":[2,4,6,8,10,-1,-1,12,14,16,18,-1,-1,-1,-1,-1,-1,-1,-1],"split_conditions":[6.4E4,3.2E1,3.2E4,1E0,1.6E4,4.1048098E0,1.273161E1,2.9E1,6.2E3,1E1,2.5E1,1.3251847E0,-7.690624E-1,-6.3806224E-1,1.3084458E-1,-7.7619475E-1,9.924707E-1,4.620346E-1,4.147654E0],"split_indices":[2,3,1,3,1,0,0,0,2,5,0,0,0,0,0,0,0,0,0],"split_type":[0,0,0,0,0,0,0,0,0,0,0,0,0,0,0,0,0,0,0],"sum_hessian":[1.69E2,1.66E2,3E0,1.21E2,4.5E1,2E0,1E0,5.8E1,6.3E1,4E1,5E0,1E0,5.7E1,2.4E1,3.9E1,5E0,3.5E1,1E0,4E0],"tree_param":{"num_deleted":"0","num_feature":"36","num_nodes":"19","size_leaf_vector":"1"}},{"base_weights":[2.1309407E0,3.24829E-2,8.920882E1,-2.8458633E0,1.4423055E1,3.8311565E0,1.2095029E1,-4.3894334E0,4.4301353E0,-1.1509255E0,2.0710194E1,7.0761544E-1,-4.8620987E-1,-1.2272193E0,9.219327E-1,2.1791486E-1,-1.389576E0,2.6911767E0,8.0438614E-1],"categories":[],"categories_nodes":[],"categories_segments":[],"categories_sizes":[],"default_left":[0,0,0,0,0,0,0,0,0,0,0,0,0,0,0,0,0,0,0],"id":28,"left_children":[1,3,5,7,9,-1,-1,11,13,15,17,-1,-1,-1,-1,-1,-1,-1,-1],"loss_changes":[3.1061072E4,6.9583613E3,1.828418E3,1.5917877E3,2.765477E3,0E0,0E0,6.6305347E2,2.1129077E3,4.122521E2,1.3545508E3,0E0,0E0,0E0,0E0,0E0,0E0,0E0,0E0],"parents":[2147483647,0,0,1,1,2,2,3,3,4,4,7,7,8,8,9,9,10,10],"right_children":[2,4,6,8,10,-1,-1,12,14,16,18,-1,-1,-1,-1,-1,-1,-1,-1],"split_conditions":[6.4E4,4.8E1,3.2E4,3E3,1.9E1,3.8311565E0,1.2095029E1,2.00001E0,2.00001E0,7.5E1,4E1,7.0761544E-1,-4.8620987E-1,-1.2272193E0,9.219327E-1,2.1791486E-1,-1.389576E0,2.6911767E0,8.0438614E-1],"split_indices":[2,3,1,1,5,0,0,16,28,0,0,0,0,0,0,0,0,0,0],"split_type":[0,0,0,0,0,0,0,0,0,0,0,0,0,0,0,0,0,0,0],"sum_hessian":[1.69E2,1.66E2,3E0,1.39E2,2.7E1,2E0,1E0,1.15E2,2.4E1,8E0,1.9E1,4E0,1.11E2,5E0,1.9E1,7E0,1E0,1.2E1,7E0],"tree_param":{"num_deleted":"0","num_feature":"36","num_nodes":"19","size_leaf_vector":"1"}},{"base_weights":[2.024707E0,4.2648613E-2,8.426947E1,-1.536361E0,2.2575546E1,3.5757446E0,1.1490277E1,-3.1291623E0,8.927931E0,2.8452826E1,-2.581477E0,-6.50839E-1,-6.401081E-2,2.3105342E0,5.281398E-1,-3.168564E-2,3.2088642E0,-7.904617E-1,4.032402E-1],"categories":[],"categories_nodes":[],"categories_segments":[],"categories_sizes":[],"default_left":[0,0,0,0,0,0,0,0,0,0,0,0,0,0,0,0,0,0,0],"id":29,"left_children":[1,3,5,7,9,-1,-1,11,13,15,17,-1,-1,-1,-1,-1,-1,-1,-1],"loss_changes":[2.7708775E4,5.9764873E3,1.8357031E3,2.6447402E3,1.699854E3,0E0,0E0,1.148152E3,9.636376E2,9.515801E2,1.3749442E2,0E0,0E0,0E0,0E0,0E0,0E0,0E0,0E0],"parents":[2147483647,0,0,1,1,2,2,3,3,4,4,7,7,8,8,9,9,10,10],"right_children":[2,4,6,8,10,-1,-1,12,14,16,18,-1,-1,-1,-1,-1,-1,-1,-1],"split_conditions":[6.4E4,6.5E1,3.2E4,5E3,6.4E1,3.5757446E0,1.1490277E1,1E0,2.00001E0,2.00001E0,1.12E2,-6.50839E-1,-6.401081E-2,2.3105342E0,5.281398E-1,-3.168564E-2,3.2088642E0,-7.904617E-1,4.032402E-1],"split_indices":[2,3,1,1,0,0,0,3,23,28,0,0,0,0,0,0,0,0,0],"split_type":[0,0,0,0,0,0,0,0,0,0,0,0,0,0,0,0,0,0,0],"sum_hessian":[1.69E2,1.66E2,3E0,1.56E2,1E1,2E0,1E0,1.36E2,2E1,8E0,2E0,5.7E1,7.9E1,3E0,1.7E1,1E0,7E0,1E0,1E0],"tree_param":{"num_deleted":"0","num_feature":"36","num_nodes":"19","size_leaf_vector":"1"}},{"base_weights":[1.9397647E0,6.78079E-2,7.9609024E1,-1.0075561E0,2.9091333E1,3.3373616E0,1.0915763E1,-3.2194002E0,5.5986032E0,2.7796784E-1,3.379773E0,-8.930815E-1,-2.2096395E-1,-7.5022787E-1,7.626566E-1],"categories":[],"categories_nodes":[],"categories_segments":[],"categories_sizes":[],"default_left":[0,0,0,0,0,0,0,0,0,0,0,0,0,0,0],"id":30,"left_children":[1,3,5,7,9,-1,-1,11,13,-1,-1,-1,-1,-1,-1],"loss_changes":[2.4711498E4,5.241524E3,1.8217812E3,2.3851348E3,6.490513E2,0E0,0E0,6.8385986E2,1.1465093E3,0E0,0E0,0E0,0E0,0E0,0E0],"parents":[2147483647,0,0,1,1,2,2,3,3,4,4,7,7,8,8],"right_children":[2,4,6,8,10,-1,-1,12,14,-1,-1,-1,-1,-1,-1],"split_conditions":[6.4E4,1.6E4,3.2E4,3.2E1,2.5E1,3.3373616E0,1.0915763E1,5.12E2,1E1,2.7796784E-1,3.379773E0,-8.930815E-1,-2.2096395E-1,-7.5022787E-1,7.626566E-1],"split_indices":[2,1,1,3,0,0,0,1,5,0,0,0,0,0,0],"split_type":[0,0,0,0,0,0,0,0,0,0,0,0,0,0,0],"sum_hessian":[1.69E2,1.66E2,3E0,1.61E2,5E0,2E0,1E0,1.21E2,4E1,1E0,4E0,1.7E1,1.04E2,5E0,3.5E1],"tree_param":{"num_deleted":"0","num_feature":"36","num_nodes":"15","size_leaf_vector":"1"}},{"base_weights":[1.8446668E0,7.633361E-2,7.521141E1,-1.2878488E0,1.9539999E1,3.1148722E0,1.0369974E1,-3.240581E0,4.9125648E0,2.4869165E1,-2.9608357E0,1.6185764E0,-3.5398424E-1,2.1221862E0,1.1913886E-1,-6.823349E-2,2.8148396E0,-7.890709E-1,3.4494552E-1],"categories":[],"categories_nodes":[],"categories_segments":[],"categories_sizes":[],"default_left":[0,0,0,0,0,0,0,0,0,0,0,0,0,0,0,0,0,0,0],"id":31,"left_children":[1,3,5,7,9,-1,-1,11,13,15,17,-1,-1,-1,-1,-1,-1,-1,-1],"loss_changes":[2.2049523E4,4.4593467E3,1.7909746E3,1.9168359E3,1.3926514E3,0E0,0E0,7.549219E2,2.2809277E3,7.733096E2,1.2202441E2,0E0,0E0,0E0,0E0,0E0,0E0,0E0,0E0],"parents":[2147483647,0,0,1,1,2,2,3,3,4,4,7,7,8,8,9,9,10,10],"right_children":[2,4,6,8,10,-1,-1,12,14,16,18,-1,-1,-1,-1,-1,-1,-1,-1],"split_conditions":[6.4E4,6.5E1,3.2E4,3E3,6.4E1,3.1148722E0,1.0369974E1,2.00001E0,2.00001E0,2.00001E0,1.12E2,1.6185764E0,-3.5398424E-1,2.1221862E0,1.1913886E-1,-6.823349E-2,2.8148396E0,-7.890709E-1,3.4494552E-1],"split_indices":[2,3,1,1,0,0,0,19,23,28,0,0,0,0,0,0,0,0,0],"split_type":[0,0,0,0,0,0,0,0,0,0,0,0,0,0,0,0,0,0,0],"sum_hessian":[1.69E2,1.66E2,3E0,1.56E2,1E1,2E0,1E0,1.19E2,3.7E1,8E0,2E0,1E0,1.18E2,6E0,3.1E1,1E0,7E0,1E0,1E0],"tree_param":{"num_deleted":"0","num_feature":"36","num_nodes":"19","size_leaf_vector":"1"}},{"base_weights":[1.773689E0,1.0348037E-1,7.106148E1,-8.2392937E-1,2.5126297E1,2.9072144E0,9.851474E0,-3.8556526E0,2.8334663E0,2.5811312E-1,2.9119105E0,1.2320851E0,-4.369145E-1,6.505057E-1,-1.2227974E-1],"categories":[],"categories_nodes":[],"categories_segments":[],"categories_sizes":[],"default_left":[0,0,0,0,0,0,0,0,0,0,0,0,0,0,0],"id":32,"left_children":[1,3,5,7,9,-1,-1,11,13,-1,-1,-1,-1,-1,-1],"loss_changes":[1.9665908E4,3.8961716E3,1.7469434E3,1.8072151E3,4.6495093E2,0E0,0E0,7.9311145E2,1.110032E3,0E0,0E0,0E0,0E0,0E0,0E0],"parents":[2147483647,0,0,1,1,2,2,3,3,4,4,7,7,8,8],"right_children":[2,4,6,8,10,-1,-1,12,14,-1,-1,-1,-1,-1,-1],"split_conditions":[6.4E4,1.6E4,3.2E4,1.2E1,2.5E1,2.9072144E0,9.851474E0,2.00001E0,8.4E1,2.5811312E-1,2.9119105E0,1.2320851E0,-4.369145E-1,6.505057E-1,-1.2227974E-1],"split_indices":[2,1,1,5,0,0,0,12,0,0,0,0,0,0,0],"split_type":[0,0,0,0,0,0,0,0,0,0,0,0,0,0,0],"sum_hessian":[1.69E2,1.66E2,3E0,1.61E2,5E0,2E0,1E0,8.8E1,7.3E1,1E0,4E0,2E0,8.6E1,3.8E1,3.5E1],"tree_param":{"num_deleted":"0","num_feature":"36","num_nodes":"15","size_leaf_vector":"1"}},{"base_weights":[1.6978024E0,1.2003862E-1,6.714499E1,-1.0656502E0,1.703214E1,2.7133994E0,9.358899E0,-1.1226577E0,-2.2320668E-1,2.3128393E1,5.815983E-1,-2.248991E-1,7.0639306E-1,-9.734726E-2,2.6710584E0,5.7321495E-1,-7.435028E-1],"categories":[],"categories_nodes":[],"categories_segments":[],"categories_sizes":[],"default_left":[0,0,0,0,0,0,0,0,0,0,0,0,0,0,0,0,0],"id":33,"left_children":[1,3,5,7,9,-1,-1,-1,11,13,15,-1,-1,-1,-1,-1,-1],"loss_changes":[1.7546174E4,3.366916E3,1.6927578E3,1.3414152E3,1.0897019E3,0E0,0E0,0E0,2.171163E3,7.1670215E2,2.0777888E2,0E0,0E0,0E0,0E0,0E0,0E0],"parents":[2147483647,0,0,1,1,2,2,3,3,4,4,8,8,9,9,10,10],"right_children":[2,4,6,8,10,-1,-1,-1,12,14,16,-1,-1,-1,-1,-1,-1],"split_conditions":[6.4E4,6.5E1,3.2E4,2.00001E0,5.2E1,2.7133994E0,9.358899E0,-1.1226577E0,3E3,2.00001E0,2.62E3,-2.248991E-1,7.0639306E-1,-9.734726E-2,2.6710584E0,5.7321495E-1,-7.435028E-1],"split_indices":[2,3,1,28,0,0,0,0,1,28,1,0,0,0,0,0,0],"split_type":[0,0,0,0,0,0,0,0,0,0,0,0,0,0,0,0,0],"sum_hessian":[1.69E2,1.66E2,3E0,1.56E2,1E1,2E0,1E0,1.1E1,1.45E2,7E0,3E0,1.14E2,3.1E1,1E0,6E0,2E0,1E0],"tree_param":{"num_deleted":"0","num_feature":"36","num_nodes":"17","size_leaf_vector":"1"}},{"base_weights":[1.6094031E0,1.185881E-1,6.3448578E1,-6.888061E-1,2.1898468E1,2.5325074E0,8.890955E0,-3.188355E0,2.326716E0,2.098877E-1,2.5438612E0,1.1649394E0,-3.6633536E-1,1.5570496E0,1.3474931E-1],"categories":[],"categories_nodes":[],"categories_segments":[],"categories_sizes":[],"default_left":[0,0,0,0,0,0,0,0,0,0,0,0,0,0,0],"id":34,"left_children":[1,3,5,7,9,-1,-1,11,13,-1,-1,-1,-1,-1,-1],"loss_changes":[1.5664906E4,2.9517705E3,1.6310049E3,1.2284844E3,3.6716772E2,0E0,0E0,6.6993994E2,9.386963E2,0E0,0E0,0E0,0E0,0E0,0E0],"parents":[2147483647,0,0,1,1,2,2,3,3,4,4,7,7,8,8],"right_children":[2,4,6,8,10,-1,-1,12,14,-1,-1,-1,-1,-1,-1],"split_conditions":[6.4E4,1.6E4,3.2E4,1.2E1,2.5E1,2.5325074E0,8.890955E0,2.00001E0,2.00001E0,2.098877E-1,2.5438612E0,1.1649394E0,-3.6633536E-1,1.5570496E0,1.3474931E-1],"split_indices":[2,1,1,5,0,0,0,12,23,0,0,0,0,0,0],"split_type":[0,0,0,0,0,0,0,0,0,0,0,0,0,0,0],"sum_hessian":[1.69E2,1.66E2,3E0,1.61E2,5E0,2E0,1E0,8.8E1,7.3E1,1E0,4E0,2E0,8.6E1,4E0,6.9E1],"tree_param":{"num_deleted":"0","num_feature":"36","num_nodes":"15","size_leaf_vector":"1"}},{"base_weights":[1.5465076E0,1.3813163E-1,5.995958E1,-9.0630007E-1,1.5032463E1,2.363672E0,8.446408E0,-9.94518E-1,-1.571709E-1,1.9294456E1,-2.7643383E0,-1.7596026E-1,6.368488E-1,-9.921723E-2,2.1954308E0,-7.130653E-1,2.9841462E-1],"categories":[],"categories_nodes":[],"categories_segments":[],"categories_sizes":[],"default_left":[0,0,0,0,0,0,0,0,0,0,0,0,0,0,0,0,0],"id":35,"left_children":[1,3,5,7,9,-1,-1,-1,11,13,15,-1,-1,-1,-1,-1,-1],"loss_changes":[1.3977204E4,2.6114944E3,1.5638408E3,1.0615292E3,8.876848E2,0E0,0E0,0E0,1.5379166E3,5.07417E2,9.6577995E1,0E0,0E0,0E0,0E0,0E0,0E0],"parents":[2147483647,0,0,1,1,2,2,3,3,4,4,8,8,9,9,10,10],"right_children":[2,4,6,8,10,-1,-1,-1,12,14,16,-1,-1,-1,-1,-1,-1],"split_conditions":[6.4E4,6.5E1,3.2E4,2.00001E0,6.4E1,2.363672E0,8.446408E0,-9.94518E-1,4E3,2.00001E0,1.12E2,-1.7596026E-1,6.368488E-1,-9.921723E-2,2.1954308E0,-7.130653E-1,2.9841462E-1],"split_indices":[2,3,1,28,0,0,0,0,1,28,0,0,0,0,0,0,0],"split_type":[0,0,0,0,0,0,0,0,0,0,0,0,0,0,0,0,0],"sum_hessian":[1.69E2,1.66E2,3E0,1.56E2,1E1,2E0,1E0,1.1E1,1.45E2,8E0,2E0,1.17E2,2.8E1,1E0,7E0,1E0,1E0],"tree_param":{"num_deleted":"0","num_feature":"36","num_nodes":"17","size_leaf_vector":"1"}},{"base_weights":[1.4621977E0,5.212536E-1,8.024088E0,-6.8360835E-1,1.6341831E1,-1.677818E0,5.538679E0,5.0627465E0,2.6777124E1,-9.35585E-1,-9.995805E-2,3.4004623E-1,2.522062E0,1.0174521E0,-5.14446E-1,8.036133E-1,2.8918097E0],"categories":[],"categories_nodes":[],"categories_segments":[],"categories_sizes":[],"default_left":[0,0,0,0,0,0,0,0,0,0,0,0,0,0,0,0,0],"id":36,"left_children":[1,3,-1,5,7,9,11,13,15,-1,-1,-1,-1,-1,-1,-1,-1],"loss_changes":[1.255965E4,3.2325837E3,0E0,9.8672174E2,1.2768411E3,7.040796E2,8.4009204E2,4.17581E2,8.354004E0,0E0,0E0,0E0,0E0,0E0,0E0,0E0,0E0],"parents":[2147483647,0,0,1,1,3,3,4,4,5,5,6,6,7,7,8,8],"right_children":[2,4,-1,6,8,10,12,14,16,-1,-1,-1,-1,-1,-1,-1,-1],"split_conditions":[3.2E4,6.5E1,8.024088E0,5E3,2.097E4,2.00001E0,6E1,2.62E3,2.9E1,-9.35585E-1,-9.995805E-2,3.4004623E-1,2.522062E0,1.0174521E0,-5.14446E-1,8.036133E-1,2.8918097E0],"split_indices":[1,3,0,1,2,28,0,1,0,0,0,0,0,0,0,0,0],"split_type":[0,0,0,0,0,0,0,0,0,0,0,0,0,0,0,0,0],"sum_hessian":[1.69E2,1.68E2,1E0,1.57E2,1.1E1,1.36E2,2.1E1,6E0,5E0,1E1,1.26E2,2E1,1E0,4E0,2E0,1E0,4E0],"tree_param":{"num_deleted":"0","num_feature":"36","num_nodes":"17","size_leaf_vector":"1"}},{"base_weights":[1.3986194E0,5.047791E-1,7.6228824E0,-5.552333E-1,1.5780888E1,-5.98388E0,4.5418447E-1,4.216311E0,2.4715316E0,1.6776246E0,-7.631229E-1,-1.2142392E0,1.03207126E-1,9.9255866E-1,-4.8014933E-1],"categories":[],"categories_nodes":[],"categories_segments":[],"categories_sizes":[],"default_left":[0,0,0,0,0,0,0,0,0,0,0,0,0,0,0],"id":37,"left_children":[1,3,-1,5,7,9,11,13,-1,-1,-1,-1,-1,-1,-1],"loss_changes":[1.1332185E4,2.7453562E3,0E0,8.7400165E2,1.0323442E3,1.06537E3,9.952501E2,3.5656845E2,0E0,0E0,0E0,0E0,0E0,0E0,0E0],"parents":[2147483647,0,0,1,1,3,3,4,4,5,5,6,6,7,7],"right_children":[2,4,-1,6,8,10,12,14,-1,-1,-1,-1,-1,-1,-1],"split_conditions":[3.2E4,9.6E1,7.6228824E0,2.62E3,2.097E4,2.00001E0,2.00001E0,1.5E3,2.4715316E0,1.6776246E0,-7.631229E-1,-1.2142392E0,1.03207126E-1,9.9255866E-1,-4.8014933E-1],"split_indices":[1,3,0,2,2,12,25,1,0,0,0,0,0,0,0],"split_type":[0,0,0,0,0,0,0,0,0,0,0,0,0,0,0],"sum_hessian":[1.69E2,1.68E2,1E0,1.58E2,1E1,2.4E1,1.34E2,5E0,5E0,1E0,2.3E1,5E0,1.29E2,3E0,2E0],"tree_param":{"num_deleted":"0","num_feature":"36","num_nodes":"15","size_leaf_vector":"1"}},{"base_weights":[1.3199939E0,1.1489759E-1,5.1302765E1,-5.1518345E-1,1.7107935E1,2.0125427E0,7.241739E0,-4.470111E0,6.5027285E-1,1.4538728E-1,1.9947973E0,5.7892096E-1,-5.5456156E-1,-7.667679E-1,1.5931071E-1],"categories":[],"categories_nodes":[],"categories_segments":[],"categories_sizes":[],"default_left":[0,0,0,0,0,0,0,0,0,0,0,0,0,0,0],"id":38,"left_children":[1,3,5,7,9,-1,-1,11,13,-1,-1,-1,-1,-1,-1],"loss_changes":[1.0233895E4,1.7968812E3,1.1757607E3,7.4961255E2,2.3774695E2,0E0,0E0,4.403609E2,1.0003641E3,0E0,0E0,0E0,0E0,0E0,0E0],"parents":[2147483647,0,0,1,1,2,2,3,3,4,4,7,7,8,8],"right_children":[2,4,6,8,10,-1,-1,12,14,-1,-1,-1,-1,-1,-1],"split_conditions":[6.4E4,1.6E4,3.2E4,7.68E2,2.5E1,2.0125427E0,7.241739E0,2.00001E0,2.00001E0,1.4538728E-1,1.9947973E0,5.7892096E-1,-5.5456156E-1,-7.667679E-1,1.5931071E-1],"split_indices":[2,1,1,1,0,0,0,12,28,0,0,0,0,0,0],"split_type":[0,0,0,0,0,0,0,0,0,0,0,0,0,0,0],"sum_hessian":[1.69E2,1.66E2,3E0,1.61E2,5E0,2E0,1E0,3.6E1,1.25E2,1E0,4E0,3E0,3.3E1,1.2E1,1.13E2],"tree_param":{"num_deleted":"0","num_feature":"36","num_nodes":"15","size_leaf_vector":"1"}},{"base_weights":[1.2515904E0,4.4483638E-1,6.879651E0,-5.404932E-1,1.3381272E1,-1.3432426E0,5.0656404E0,4.4231195E0,2.160224E1,-1.1263283E0,-8.8903755E-2,1.2979627E0,2.2759171E-1,8.7597144E-1,-4.2789102E-1,6.318909E-1,2.3395123E0],"categories":[],"categories_nodes":[],"categories_segments":[],"categories_sizes":[],"default_left":[0,0,0,0,0,0,0,0,0,0,0,0,0,0,0,0,0],"id":39,"left_children":[1,3,-1,5,7,9,11,13,15,-1,-1,-1,-1,-1,-1,-1,-1],"loss_changes":[9.233059E3,2.1614167E3,0E0,7.178551E2,7.88187E2,6.162833E2,4.1201605E2,3.016422E2,1.6575684E1,0E0,0E0,0E0,0E0,0E0,0E0,0E0,0E0],"parents":[2147483647,0,0,1,1,3,3,4,4,5,5,6,6,7,7,8,8],"right_children":[2,4,-1,6,8,10,12,14,16,-1,-1,-1,-1,-1,-1,-1,-1],"split_conditions":[3.2E4,6.5E1,6.879651E0,8E3,2.097E4,2.00001E0,2.00001E0,2.62E3,2.9E1,-1.1263283E0,-8.8903755E-2,1.2979627E0,2.2759171E-1,8.7597144E-1,-4.2789102E-1,6.318909E-1,2.3395123E0],"split_indices":[1,3,0,1,2,25,27,1,0,0,0,0,0,0,0,0,0],"split_type":[0,0,0,0,0,0,0,0,0,0,0,0,0,0,0,0,0],"sum_hessian":[1.69E2,1.68E2,1E0,1.57E2,1.1E1,1.38E2,1.9E1,6E0,5E0,5E0,1.33E2,4E0,1.5E1,4E0,2E0,1E0,4E0],"tree_param":{"num_deleted":"0","num_feature":"36","num_nodes":"17","size_leaf_vector":"1"}},{"base_weights":[1.1888398E0,4.2242244E-1,6.535669E0,-9.853954E-1,8.2033205E0,-2.652754E-1,-6.3495107E0,4.4601355E0,1.9937246E1,-1.0324677E0,2.2758383E-2,-7.173407E-1,3.4164152E-1,-7.119955E-1,6.053827E-1,6.00296E-1,2.1523511E0],"categories":[],"categories_nodes":[],"categories_segments":[],"categories_sizes":[],"default_left":[0,0,0,0,0,0,0,0,0,0,0,0,0,0,0,0,0],"id":40,"left_children":[1,3,-1,5,7,9,11,13,15,-1,-1,-1,-1,-1,-1,-1,-1],"loss_changes":[8.332883E3,1.8593241E3,0E0,5.545598E2,1.0530557E3,6.369569E2,1.612912E2,4.3065985E2,3.4160156E0,0E0,0E0,0E0,0E0,0E0,0E0,0E0,0E0],"parents":[2147483647,0,0,1,1,3,3,4,4,5,5,6,6,7,7,8,8],"right_children":[2,4,-1,6,8,10,12,14,16,-1,-1,-1,-1,-1,-1,-1,-1],"split_conditions":[3.2E4,2.4E4,6.535669E0,8E2,6.5E1,2.00001E0,1.31E3,2.00001E0,2.9E1,-1.0324677E0,2.2758383E-2,-7.173407E-1,3.4164152E-1,-7.119955E-1,6.053827E-1,6.00296E-1,2.1523511E0],"split_indices":[1,2,0,0,3,25,1,32,0,0,0,0,0,0,0,0,0],"split_type":[0,0,0,0,0,0,0,0,0,0,0,0,0,0,0,0,0],"sum_hessian":[1.69E2,1.68E2,1E0,1.43E2,2.5E1,1.27E2,1.6E1,2E1,5E0,5E0,1.22E2,1.5E1,1E0,2E0,1.8E1,1E0,4E0],"tree_param":{"num_deleted":"0","num_feature":"36","num_nodes":"17","size_leaf_vector":"1"}},{"base_weights":[1.1158174E0,3.8764045E-1,6.2088866E0,-4.6253008E-1,1.1549249E1,-7.4953115E-1,1.1472096E-1,1.5738214E1,-7.632332E-1,-1.2317069E-1,4.8033413E-1,1.40686035E-2,1.7670319E0,3.084966E-1,-6.1539155E-1],"categories":[],"categories_nodes":[],"categories_segments":[],"categories_sizes":[],"default_left":[0,0,0,0,0,0,0,0,0,0,0,0,0,0,0],"id":41,"left_children":[1,3,-1,5,7,-1,9,11,13,-1,-1,-1,-1,-1,-1],"loss_changes":[7.5237915E3,1.6090288E3,0E0,6.422893E2,6.309303E2,0E0,9.339111E2,2.6873877E2,1.01962296E2,0E0,0E0,0E0,0E0,0E0,0E0],"parents":[2147483647,0,0,1,1,3,3,4,4,6,6,7,7,8,8],"right_children":[2,4,-1,6,8,-1,10,12,14,-1,-1,-1,-1,-1,-1],"split_conditions":[3.2E4,6.5E1,6.2088866E0,2.00001E0,5.2E1,-7.4953115E-1,3E3,2.00001E0,2.62E3,-1.2317069E-1,4.8033413E-1,1.40686035E-2,1.7670319E0,3.084966E-1,-6.1539155E-1],"split_indices":[1,3,0,28,0,0,1,28,1,0,0,0,0,0,0],"split_type":[0,0,0,0,0,0,0,0,0,0,0,0,0,0,0],"sum_hessian":[1.69E2,1.68E2,1E0,1.57E2,1.1E1,1.1E1,1.46E2,8E0,3E0,1.14E2,3.2E1,1E0,7E0,2E0,1E0],"tree_param":{"num_deleted":"0","num_feature":"36","num_nodes":"15","size_leaf_vector":"1"}},{"base_weights":[1.0471218E0,3.552771E-1,5.8984437E0,-4.1876128E-1,1.0517176E1,-5.861662E0,2.79047E-1,1.4362294E1,-7.6363564E-1,-5.141017E-2,-6.4979756E-1,1.546129E0,-5.0634826E-3,1.3365174E-2,1.6124169E0,2.8793004E-1,-5.846222E-1],"categories":[],"categories_nodes":[],"categories_segments":[],"categories_sizes":[],"default_left":[0,0,0,0,0,0,0,0,0,0,0,0,0,0,0,0,0],"id":42,"left_children":[1,3,-1,5,7,9,11,13,15,-1,-1,-1,-1,-1,-1,-1,-1],"loss_changes":[6.79326E3,1.3337073E3,0E0,6.0173566E2,5.3148035E2,5.7908447E1,7.0653156E2,2.2346643E2,9.089518E1,0E0,0E0,0E0,0E0,0E0,0E0,0E0,0E0],"parents":[2147483647,0,0,1,1,3,3,4,4,5,5,6,6,7,7,8,8],"right_children":[2,4,-1,6,8,10,12,14,16,-1,-1,-1,-1,-1,-1,-1,-1],"split_conditions":[3.2E4,6.5E1,5.8984437E0,5.12E2,5.2E1,2.00001E0,2.00001E0,2.00001E0,2.62E3,-5.141017E-2,-6.4979756E-1,1.546129E0,-5.0634826E-3,1.3365174E-2,1.6124169E0,2.8793004E-1,-5.846222E-1],"split_indices":[1,3,0,1,0,16,16,28,1,0,0,0,0,0,0,0,0],"split_type":[0,0,0,0,0,0,0,0,0,0,0,0,0,0,0,0,0],"sum_hessian":[1.69E2,1.68E2,1E0,1.57E2,1.1E1,1.7E1,1.4E2,8E0,3E0,2E0,1.5E1,2E0,1.38E2,1E0,7E0,2E0,1E0],"tree_param":{"num_deleted":"0","num_feature":"36","num_nodes":"17","size_leaf_vector":"1"}},{"base_weights":[9.89865E-1,5.4102063E-2,3.98105E1,-4.0629968E-1,1.2475932E1,1.5723857E0,5.603522E0,7.3348504E-1,-3.1285691E0,7.270508E-2,1.4680299E0,-3.1823075E-1,2.707283E-1,-7.6608926E-2,-8.8113004E-1],"categories":[],"categories_nodes":[],"categories_segments":[],"categories_sizes":[],"default_left":[0,0,0,0,0,0,0,0,0,0,0,0,0,0,0],"id":43,"left_children":[1,3,5,7,9,-1,-1,11,13,-1,-1,-1,-1,-1,-1],"loss_changes":[6.173421E3,9.601473E2,6.8210645E2,5.0494855E2,1.4471979E2,0E0,0E0,8.9744836E2,6.376659E2,0E0,0E0,0E0,0E0,0E0,0E0],"parents":[2147483647,0,0,1,1,2,2,3,3,4,4,7,7,8,8],"right_children":[2,4,6,8,10,-1,-1,12,14,-1,-1,-1,-1,-1,-1],"split_conditions":[6.4E4,1.6E4,3.2E4,2E2,2.5E1,1.5723857E0,5.603522E0,8E3,6.2E3,7.270508E-2,1.4680299E0,-3.1823075E-1,2.707283E-1,-7.6608926E-2,-8.8113004E-1],"split_indices":[2,1,1,0,0,0,0,2,2,0,0,0,0,0,0],"split_type":[0,0,0,0,0,0,0,0,0,0,0,0,0,0,0],"sum_hessian":[1.69E2,1.66E2,3E0,1.61E2,5E0,2E0,1E0,1.14E2,4.7E1,1E0,4E0,3.8E1,7.6E1,3.4E1,1.3E1],"tree_param":{"num_deleted":"0","num_feature":"36","num_nodes":"15","size_leaf_vector":"1"}},{"base_weights":[9.362411E-1,3.1179923E-1,5.323346E0,-3.6646882E-1,9.216346E0,-6.8554467E-1,1.6573662E-1,1.2586243E1,-6.700096E-1,1.6047521E-1,-2.8356653E-1,-8.392334E-4,1.4161621E0,2.7031812E-1,-5.394791E-1],"categories":[],"categories_nodes":[],"categories_segments":[],"categories_sizes":[],"default_left":[0,0,0,0,0,0,0,0,0,0,0,0,0,0,0],"id":44,"left_children":[1,3,-1,5,7,-1,9,11,13,-1,-1,-1,-1,-1,-1],"loss_changes":[5.5350195E3,1.0240817E3,0E0,5.4678436E2,4.082249E2,0E0,6.394529E2,1.7869067E2,7.8333435E1,0E0,0E0,0E0,0E0,0E0,0E0],"parents":[2147483647,0,0,1,1,3,3,4,4,6,6,7,7,8,8],"right_children":[2,4,-1,6,8,-1,10,12,14,-1,-1,-1,-1,-1,-1],"split_conditions":[3.2E4,6.5E1,5.323346E0,2.00001E0,5.2E1,-6.8554467E-1,2E2,2.00001E0,2.62E3,1.6047521E-1,-2.8356653E-1,-8.392334E-4,1.4161621E0,2.7031812E-1,-5.394791E-1],"split_indices":[1,3,0,28,0,0,0,28,1,0,0,0,0,0,0],"split_type":[0,0,0,0,0,0,0,0,0,0,0,0,0,0,0],"sum_hessian":[1.69E2,1.68E2,1E0,1.57E2,1.1E1,1.1E1,1.46E2,8E0,3E0,9.9E1,4.7E1,1E0,7E0,2E0,1E0],"tree_param":{"num_deleted":"0","num_feature":"36","num_nodes":"15","size_leaf_vector":"1"}},{"base_weights":[8.759162E-1,3.1808406E-2,3.5898438E1,-3.7213027E-1,1.0932851E1,1.4150065E0,5.057178E0,-9.7167635E-1,-1.2640279E-2,6.1047364E-2,1.2875232E0,-4.1580144E-1,7.666605E-2],"categories":[],"categories_nodes":[],"categories_segments":[],"categories_sizes":[],"default_left":[0,0,0,0,0,0,0,0,0,0,0,0,0],"id":45,"left_children":[1,3,5,7,9,-1,-1,-1,11,-1,-1,-1,-1],"loss_changes":[5.024531E3,7.3942834E2,5.608911E2,5.440841E2,1.1244E2,0E0,0E0,0E0,5.1037518E2,0E0,0E0,0E0,0E0],"parents":[2147483647,0,0,1,1,2,2,3,3,4,4,8,8],"right_children":[2,4,6,8,10,-1,-1,-1,12,-1,-1,-1,-1],"split_conditions":[6.4E4,1.6E4,3.2E4,2.00001E0,2.5E1,1.4150065E0,5.057178E0,-9.7167635E-1,2.62E3,6.1047364E-2,1.2875232E0,-4.1580144E-1,7.666605E-2],"split_indices":[2,1,1,25,0,0,0,0,2,0,0,0,0],"split_type":[0,0,0,0,0,0,0,0,0,0,0,0,0],"sum_hessian":[1.69E2,1.66E2,3E0,1.61E2,5E0,2E0,1E0,5E0,1.56E2,1E0,4E0,2.4E1,1.32E2],"tree_param":{"num_deleted":"0","num_feature":"36","num_nodes":"13","size_leaf_vector":"1"}},{"base_weights":[8.266193E-1,2.6295182E-1,4.8043213E0,-1.8171169E-1,1.0579695E0,-8.907032E-1,1.5077966E-1,-5.7442594E-1,6.746476E-2],"categories":[],"categories_nodes":[],"categories_segments":[],"categories_sizes":[],"default_left":[0,0,0,0,0,0,0,0,0],"id":46,"left_children":[1,3,-1,5,-1,-1,7,-1,-1],"loss_changes":[4.5118247E3,7.772064E2,0E0,4.7422125E2,0E0,0E0,4.9181448E2,0E0,0E0],"parents":[2147483647,0,0,1,1,3,3,6,6],"right_children":[2,4,-1,6,-1,-1,8,-1,-1],"split_conditions":[3.2E4,1.6E4,4.8043213E0,2.00001E0,1.0579695E0,-8.907032E-1,2.00001E0,-5.7442594E-1,6.746476E-2],"split_indices":[1,1,0,25,0,0,28,0,0],"split_type":[0,0,0,0,0,0,0,0,0],"sum_hessian":[1.69E2,1.68E2,1E0,1.62E2,6E0,5E0,1.57E2,1.2E1,1.45E2],"tree_param":{"num_deleted":"0","num_feature":"36","num_nodes":"9","size_leaf_vector":"1"}},{"base_weights":[7.7022E-1,6.9489963E-3,3.244423E1,-3.3293533E-1,9.182668E0,1.2831604E0,4.5641055E0,1.4912518E0,-5.202519E-1,5.0964355E-3,1.0998815E0,8.603899E-1,-8.075163E-2],"categories":[],"categories_nodes":[],"categories_segments":[],"categories_sizes":[],"default_left":[0,0,0,0,0,0,0,0,0,0,0,0,0],"id":47,"left_children":[1,3,5,7,9,-1,-1,-1,11,-1,-1,-1,-1],"loss_changes":[4.10967E3,5.238773E2,4.496494E2,4.7038593E2,9.8946594E1,0E0,0E0,0E0,4.289357E2,0E0,0E0,0E0,0E0],"parents":[2147483647,0,0,1,1,2,2,3,3,4,4,8,8],"right_children":[2,4,6,8,10,-1,-1,-1,12,-1,-1,-1,-1],"split_conditions":[6.4E4,1.6E4,3.2E4,2.00001E0,2.5E1,1.2831604E0,4.5641055E0,1.4912518E0,2.00001E0,5.0964355E-3,1.0998815E0,8.603899E-1,-8.075163E-2],"split_indices":[2,1,1,19,0,0,0,0,16,0,0,0,0],"split_type":[0,0,0,0,0,0,0,0,0,0,0,0,0],"sum_hessian":[1.69E2,1.66E2,3E0,1.61E2,5E0,2E0,1E0,1E0,1.6E2,1E0,4E0,4E0,1.56E2],"tree_param":{"num_deleted":"0","num_feature":"36","num_nodes":"13","size_leaf_vector":"1"}},{"base_weights":[7.474517E-1,2.3875013E-1,4.335901E0,-3.2159737E-1,7.596763E0,1.4166893E0,-5.041157E-1,9.877082E0,-2.536555E0,7.915587E-1,-7.7597454E-2,2.8128816E-2,1.0912027E0,-5.156738E-1,1.3519059E-1],"categories":[],"categories_nodes":[],"categories_segments":[],"categories_sizes":[],"default_left":[0,0,0,0,0,0,0,0,0,0,0,0,0,0,0],"id":48,"left_children":[1,3,-1,5,7,-1,9,11,13,-1,-1,-1,-1,-1,-1],"loss_changes":[3.6746643E3,6.9923755E2,0E0,4.249594E2,3.023401E2,0E0,3.6551062E2,9.62417E1,3.7536865E1,0E0,0E0,0E0,0E0,0E0,0E0],"parents":[2147483647,0,0,1,1,3,3,4,4,6,6,7,7,8,8],"right_children":[2,4,-1,6,8,-1,10,12,14,-1,-1,-1,-1,-1,-1],"split_conditions":[3.2E4,6.5E1,4.335901E0,2.00001E0,6.4E1,1.4166893E0,2.00001E0,2.00001E0,1.12E2,7.915587E-1,-7.7597454E-2,2.8128816E-2,1.0912027E0,-5.156738E-1,1.3519059E-1],"split_indices":[1,3,0,19,0,0,16,28,0,0,0,0,0,0,0],"split_type":[0,0,0,0,0,0,0,0,0,0,0,0,0,0,0],"sum_hessian":[1.69E2,1.68E2,1E0,1.57E2,1.1E1,1E0,1.56E2,9E0,2E0,4E0,1.52E2,1E0,8E0,1E0,1E0],"tree_param":{"num_deleted":"0","num_feature":"36","num_nodes":"15","size_leaf_vector":"1"}},{"base_weights":[7.150903E-1,2.5558969E-2,2.932425E1,5.3198347E0,-4.9365476E-1,5.704193E-1,3.5296204E0,1.2928028E1,-2.9533377E0,1.345855E0,-6.7398864E-1,2.391326E0,5.2807415E-1,-8.504715E-1,2.0784317E-1,6.7906034E-1,-9.740809E-2],"categories":[],"categories_nodes":[],"categories_segments":[],"categories_sizes":[],"default_left":[0,0,0,0,0,0,0,0,0,0,0,0,0,0,0,0,0],"id":49,"left_children":[1,3,5,7,9,-1,-1,11,13,-1,15,-1,-1,-1,-1,-1,-1],"loss_changes":[3.3528254E3,4.6168588E2,3.6289502E2,9.8233923E2,3.940274E2,0E0,0E0,5.4577795E2,2.4114249E2,0E0,3.4710468E2,0E0,0E0,0E0,0E0,0E0,0E0],"parents":[2147483647,0,0,1,1,2,2,3,3,4,4,7,7,8,8,10,10],"right_children":[2,4,6,8,10,-1,-1,12,14,-1,16,-1,-1,-1,-1,-1,-1],"split_conditions":[6.4E4,2.00001E0,6.5E1,5E1,2.00001E0,5.704193E-1,3.5296204E0,3.2E4,8.4E1,1.345855E0,2.00001E0,2.391326E0,5.2807415E-1,-8.504715E-1,2.0784317E-1,6.7906034E-1,-9.740809E-2],"split_indices":[2,27,3,0,19,0,0,2,0,0,31,0,0,0,0,0,0],"split_type":[0,0,0,0,0,0,0,0,0,0,0,0,0,0,0,0,0],"sum_hessian":[1.69E2,1.66E2,3E0,1.4E1,1.52E2,1E0,2E0,7E0,7E0,1E0,1.51E2,2E0,5E0,3E0,4E0,5E0,1.46E2],"tree_param":{"num_deleted":"0","num_feature":"36","num_nodes":"17","size_leaf_vector":"1"}}]},"name":"gbtree"},"learner_model_param":{"base_score":"1.0355621E2","boost_from_average":"1","num_class":"0","num_feature":"36","num_target":"1"},"objective":{"name":"reg:squarederror","reg_loss_param":{"scale_pos_weight":"1"}}},"version":[2,0,3]}