{"learner":{"attributes":{},"feature_names":[],"feature_types":[],"gradient_booster":{"model":{"gbtree_model_param":{"num_parallel_tree":"1","num_trees":"50"},"iteration_indptr":[0,1,2,3,4,5,6,7,8,9,10,11,12,13,14,15,16,17,18,19,20,21,22,23,24,25,26,27,28,29,30,31,32,33,34,35,36,37,38,39,40,41,42,43,44,45,46,47,48,49,50],"tree_info":[0,0,0,0,0,0,0,0,0,0,0,0,0,0,0,0,0,0,0,0,0,0,0,0,0,0,0,0,0,0,0,0,0,0,0,0,0,0,0,0,0,0,0,0,0,0,0,0,0,0],"trees":[{"base_weights":[-3.0393197E-5,-1.7974973E0,1.3687059E0,1.928442E-1,-1.8716831E0,-1.6316198E0,1.7858888E0,8.749664E-1,-1.9163434E-1,-1.9126242E-1,1.8434455E-1,-1.883213E-1,1.9756948E0,-1.4477494E-1,1.8368542E-1,-1.7468373E-1,2.0242722E-1],"categories":[],"categories_nodes":[],"categories_segments":[],"categories_sizes":[],"default_left":[0,0,0,0,0,0,0,0,0,0,0,0,0,0,0,0,0],"id":0,"left_children":[1,3,5,-1,7,9,11,13,-1,-1,-1,-1,15,-1,-1,-1,-1],"loss_changes":[4.0057131E3,1.9816211E2,1.1598689E3,0E0,8.639209E1,1.1421912E2,5.691848E2,2.8880348E1,0E0,0E0,0E0,0E0,1.4323022E2,0E0,0E0,0E0,0E0],"parents":[2147483647,0,0,1,1,2,2,4,4,5,5,6,6,7,7,12,12],"right_children":[2,4,6,-1,8,10,12,14,-1,-1,-1,-1,16,-1,-1,-1,-1],"split_conditions":[2.00001E0,2.00001E0,2.00001E0,1.928442E-1,2.00001E0,2.00001E0,2.00001E0,2.00001E0,-1.9163434E-1,-1.9126242E-1,1.8434455E-1,-1.883213E-1,2.00001E0,-1.4477494E-1,1.8368542E-1,-1.7468373E-1,2.0242722E-1],"split_indices":[28,108,55,0,66,20,59,38,0,0,0,0,22,0,0,0,0],"split_type":[0,0,0,0,0,0,0,0,0,0,0,0,0,0,0,0,0],"sum_hessian":[1.626168E3,7.028501E2,9.233179E2,1.3233057E1,6.8961707E2,1.1235615E2,8.109617E2,1.0736254E1,6.788808E2,1.0436638E2,7.9897704E0,3.944949E1,7.715122E2,2.9961638E0,7.74009E0,9.487852E0,7.6202435E2],"tree_param":{"num_deleted":"0","num_feature":"126","num_nodes":"17","size_leaf_vector":"1"}},{"base_weights":[-7.6357904E-4,-1.6442187E0,1.2376956E0,1.7529848E-1,-1.7127689E0,-1.4915701E0,1.6129966E0,7.936375E-1,-1.7540015E-1,-1.7518315E-1,1.6823678E-1,-1.7266954E-1,1.7836787E0,-1.3501415E-1,1.6768712E-1,-1.9250204E-1,1.8298738E-1],"categories":[],"categories_nodes":[],"categories_segments":[],"categories_sizes":[],"default_left":[0,0,0,0,0,0,0,0,0,0,0,0,0,0,0,0,0],"id":1,"left_children":[1,3,5,-1,7,9,11,13,-1,-1,-1,-1,15,-1,-1,-1,-1],"loss_changes":[3.2822827E3,1.6438928E2,9.4438E2,0E0,7.164673E1,9.520967E1,4.6419653E2,2.4400166E1,0E0,0E0,0E0,0E0,1.354585E2,0E0,0E0,0E0,0E0],"parents":[2147483647,0,0,1,1,2,2,4,4,5,5,6,6,7,7,12,12],"right_children":[2,4,6,-1,8,10,12,14,-1,-1,-1,-1,16,-1,-1,-1,-1],"split_conditions":[2.00001E0,2.00001E0,2.00001E0,1.7529848E-1,2.00001E0,2.00001E0,2.00001E0,2.00001E0,-1.7540015E-1,-1.7518315E-1,1.6823678E-1,-1.7266954E-1,2.00001E0,-1.3501415E-1,1.6768712E-1,-1.9250204E-1,1.8298738E-1],"split_indices":[28,108,55,0,66,20,59,38,0,0,0,0,23,0,0,0,0],"split_type":[0,0,0,0,0,0,0,0,0,0,0,0,0,0,0,0,0],"sum_hessian":[1.6106366E3,6.92006E2,9.186307E2,1.3201384E1,6.7880457E2,1.10690735E2,8.0793994E2,1.0690863E1,6.681137E2,1.02716125E2,7.9746084E0,3.884055E1,7.6909937E2,2.965175E0,7.725688E0,8.961569E0,7.601378E2],"tree_param":{"num_deleted":"0","num_feature":"126","num_nodes":"17","size_leaf_vector":"1"}},{"base_weights":[-1.276622E-3,-1.5271249E0,1.1384448E0,1.61849E-1,-1.591399E0,-1.3843068E0,1.4821742E0,7.2884876E-1,-1.6300899E-1,-1.6289812E-1,1.5565662E-1,-1.6062622E-1,1.63851E0,-1.2679262E-1,1.5517469E-1,-1.7539063E-1,1.684036E-1],"categories":[],"categories_nodes":[],"categories_segments":[],"categories_sizes":[],"default_left":[0,0,0,0,0,0,0,0,0,0,0,0,0,0,0,0,0],"id":2,"left_children":[1,3,5,-1,7,9,11,13,-1,-1,-1,-1,15,-1,-1,-1,-1],"loss_changes":[2.7354502E3,1.3855347E2,7.828369E2,0E0,6.0401367E1,8.059906E1,3.8548083E2,2.0879316E1,0E0,0E0,0E0,0E0,1.19590576E2,0E0,0E0,0E0,0E0],"parents":[2147483647,0,0,1,1,2,2,4,4,5,5,6,6,7,7,12,12],"right_children":[2,4,6,-1,8,10,12,14,-1,-1,-1,-1,16,-1,-1,-1,-1],"split_conditions":[2.00001E0,2.00001E0,2.00001E0,1.61849E-1,2.00001E0,2.00001E0,2.00001E0,2.00001E0,-1.6300899E-1,-1.6289812E-1,1.5565662E-1,-1.6062622E-1,2.00001E0,-1.2679262E-1,1.5517469E-1,-1.7539063E-1,1.684036E-1],"split_indices":[28,108,55,0,66,20,59,38,0,0,0,0,22,0,0,0,0],"split_type":[0,0,0,0,0,0,0,0,0,0,0,0,0,0,0,0,0],"sum_hessian":[1.5709641E3,6.71554E2,8.994101E2,1.2962827E1,6.585912E2,1.0748829E2,7.919218E2,1.0509542E1,6.4808167E2,9.964419E1,7.844098E0,3.7708595E1,7.542132E2,2.9092927E0,7.60025E0,9.490507E0,7.447227E2],"tree_param":{"num_deleted":"0","num_feature":"126","num_nodes":"17","size_leaf_vector":"1"}},{"base_weights":[-1.6506803E-3,-1.4349082E0,1.0611646E0,1.5120491E-1,-1.4958515E0,-1.2996238E0,1.3804673E0,6.757744E-1,-1.532607E-1,-1.5322949E-1,1.4554316E-1,-1.5108608E-1,1.525765E0,-1.19751714E-1,1.4510377E-1,-1.9008778E-1,1.57098E-1],"categories":[],"categories_nodes":[],"categories_segments":[],"categories_sizes":[],"default_left":[0,0,0,0,0,0,0,0,0,0,0,0,0,0,0,0,0],"id":3,"left_children":[1,3,5,-1,7,9,11,13,-1,-1,-1,-1,15,-1,-1,-1,-1],"loss_changes":[2.3095828E3,1.18206665E2,6.5805786E2,0E0,5.1561646E1,6.904852E1,3.24677E2,1.8046194E1,0E0,0E0,0E0,0E0,1.1626672E2,0E0,0E0,0E0,0E0],"parents":[2147483647,0,0,1,1,2,2,4,4,5,5,6,6,7,7,12,12],"right_children":[2,4,6,-1,8,10,12,14,-1,-1,-1,-1,16,-1,-1,-1,-1],"split_conditions":[2.00001E0,2.00001E0,2.00001E0,1.5120491E-1,2.00001E0,2.00001E0,2.00001E0,2.00001E0,-1.532607E-1,-1.5322949E-1,1.4554316E-1,-1.5108608E-1,2.00001E0,-1.19751714E-1,1.4510377E-1,-1.9008778E-1,1.57098E-1],"split_indices":[28,108,55,0,66,20,59,38,0,0,0,0,23,0,0,0,0],"split_type":[0,0,0,0,0,0,0,0,0,0,0,0,0,0,0,0,0],"sum_hessian":[1.514183E3,6.4458246E2,8.696005E2,1.2577493E1,6.3200494E2,1.0323732E2,7.663632E2,1.022951E1,6.2177545E2,9.560691E1,7.6304083E0,3.6219555E1,7.301437E2,2.8348706E0,7.3946395E0,8.974395E0,7.2116925E2],"tree_param":{"num_deleted":"0","num_feature":"126","num_nodes":"17","size_leaf_vector":"1"}},{"base_weights":[-1.959462E-3,-1.3605388E0,9.9867773E-1,1.4256364E-1,-1.4188384E0,-2.922027E-1,1.5254335E-1,6.312728E-1,-1.4540942E-1,1.4991683E-1,-7.97029E-1,-1.1363286E-1,1.3680473E-1,1.4944118E-1,-1.5187997E-1],"categories":[],"categories_nodes":[],"categories_segments":[],"categories_sizes":[],"default_left":[0,0,0,0,0,0,0,0,0,0,0,0,0,0,0],"id":4,"left_children":[1,3,5,-1,7,9,-1,11,-1,-1,13,-1,-1,-1,-1],"loss_changes":[1.9692507E3,1.0182068E2,5.676671E2,0E0,4.4451416E1,2.2057242E2,0E0,1.5723827E1,0E0,0E0,3.1635275E2,0E0,0E0,0E0,0E0],"parents":[2147483647,0,0,1,1,2,2,4,4,5,5,7,7,10,10],"right_children":[2,4,6,-1,8,10,-1,12,-1,-1,14,-1,-1,-1,-1],"split_conditions":[2.00001E0,2.00001E0,2.00001E0,1.4256364E-1,2.00001E0,2.00001E0,1.5254335E-1,2.00001E0,-1.4540942E-1,1.4991683E-1,2.00001E0,-1.1363286E-1,1.3680473E-1,1.4944118E-1,-1.5187997E-1],"split_indices":[28,108,20,0,66,26,0,38,0,0,29,0,0,0,0],"split_type":[0,0,0,0,0,0,0,0,0,0,0,0,0,0,0],"sum_hessian":[1.4465703E3,6.133952E2,8.3317505E2,1.2091278E1,6.013039E2,2.415854E2,5.9158966E2,9.879997E0,5.914239E2,5.2680283E1,1.8890512E2,2.7471018E0,7.132895E0,4.499303E1,1.439121E2],"tree_param":{"num_deleted":"0","num_feature":"126","num_nodes":"15","size_leaf_vector":"1"}},{"base_weights":[-1.8032558E-3,-1.2994021E0,9.5000744E-1,1.3539861E-1,-1.3555747E0,-2.7729717E-1,1.4507274E-1,5.9321E-1,-1.3896564E-1,1.425681E-1,-7.5814056E-1,-1.08245544E-1,1.2982784E-1,1.4211415E-1,-1.4462493E-1],"categories":[],"categories_nodes":[],"categories_segments":[],"categories_sizes":[],"default_left":[0,0,0,0,0,0,0,0,0,0,0,0,0,0,0],"id":5,"left_children":[1,3,5,-1,7,9,-1,11,-1,-1,13,-1,-1,-1,-1],"loss_changes":[1.6950154E3,8.838995E1,4.869239E2,0E0,3.8627808E1,1.8961899E2,0E0,1.37916E1,0E0,0E0,2.7228012E2,0E0,0E0,0E0,0E0],"parents":[2147483647,0,0,1,1,2,2,4,4,5,5,7,7,10,10],"right_children":[2,4,6,-1,8,10,-1,12,-1,-1,14,-1,-1,-1,-1],"split_conditions":[2.00001E0,2.00001E0,2.00001E0,1.3539861E-1,2.00001E0,2.00001E0,1.4507274E-1,2.00001E0,-1.3896564E-1,1.425681E-1,2.00001E0,-1.08245544E-1,1.2982784E-1,1.4211415E-1,-1.4462493E-1],"split_indices":[28,108,20,0,66,26,0,38,0,0,29,0,0,0,0],"split_type":[0,0,0,0,0,0,0,0,0,0,0,0,0,0,0],"sum_hessian":[1.3704064E3,5.7971655E2,7.906899E2,1.1539274E1,5.6817725E2,2.2924303E2,5.614469E2,9.483882E0,5.5869336E2,5.004308E1,1.7919994E2,2.6501908E0,6.833691E0,4.274828E1,1.3645166E2],"tree_param":{"num_deleted":"0","num_feature":"126","num_nodes":"15","size_leaf_vector":"1"}},{"base_weights":[-1.623526E-3,-1.2483346E0,9.1003937E-1,1.2934925E-1,-1.30278E0,-2.6486823E-1,1.3894717E-1,5.600867E-1,-1.3359389E-1,1.3649258E-1,-7.2591656E-1,-1.03446625E-1,1.2385954E-1,1.3604786E-1,-1.3862573E-1],"categories":[],"categories_nodes":[],"categories_segments":[],"categories_sizes":[],"default_left":[0,0,0,0,0,0,0,0,0,0,0,0,0,0,0],"id":6,"left_children":[1,3,5,-1,7,9,-1,11,-1,-1,13,-1,-1,-1,-1],"loss_changes":[1.4687677E3,7.722357E1,4.2082703E2,0E0,3.378827E1,1.6416725E2,0E0,1.2164267E1,0E0,0E0,2.359992E2,0E0,0E0,0E0,0E0],"parents":[2147483647,0,0,1,1,2,2,4,4,5,5,7,7,10,10],"right_children":[2,4,6,-1,8,10,-1,12,-1,-1,14,-1,-1,-1,-1],"split_conditions":[2.00001E0,2.00001E0,2.00001E0,1.2934925E-1,2.00001E0,2.00001E0,1.3894717E-1,2.00001E0,-1.3359389E-1,1.3649258E-1,2.00001E0,-1.03446625E-1,1.2385954E-1,1.3604786E-1,-1.3862573E-1],"split_indices":[28,108,20,0,66,26,0,38,0,0,29,0,0,0,0],"split_type":[0,0,0,0,0,0,0,0,0,0,0,0,0,0,0],"sum_hessian":[1.2902698E3,5.448335E2,7.4543634E2,1.0948255E1,5.338852E2,2.1615921E2,5.292771E2,9.05897E0,5.2482623E2,4.7232624E1,1.6892657E2,2.547503E0,6.511467E0,4.0356613E1,1.2856996E2],"tree_param":{"num_deleted":"0","num_feature":"126","num_nodes":"15","size_leaf_vector":"1"}},{"base_weights":[-1.4253319E-3,-1.20509E0,8.767563E-1,1.24159865E-1,-1.2581252E0,-2.5433564E-1,1.338535E-1,5.3082055E-1,-1.2905605E0,1.3139474E-1,-6.9882387E-1,-9.91269E-2,1.1867445E-1,-1.3066708E-1,-9.84149E-2,1.3094984E-1,-1.3359599E-1],"categories":[],"categories_nodes":[],"categories_segments":[],"categories_sizes":[],"default_left":[0,0,0,0,0,0,0,0,0,0,0,0,0,0,0,0,0],"id":7,"left_children":[1,3,5,-1,7,9,-1,11,13,-1,15,-1,-1,-1,-1,-1,-1],"loss_changes":[1.2797349E3,6.783063E1,3.6595142E2,0E0,2.9718445E1,1.4296135E2,0E0,1.0779762E1,1.1414185E0,0E0,2.057414E2,0E0,0E0,0E0,0E0,0E0,0E0],"parents":[2147483647,0,0,1,1,2,2,4,4,5,5,7,7,8,8,10,10],"right_children":[2,4,6,-1,8,10,-1,12,14,-1,16,-1,-1,-1,-1,-1,-1],"split_conditions":[2.00001E0,2.00001E0,2.00001E0,1.24159865E-1,2.00001E0,2.00001E0,1.338535E-1,2.00001E0,2.00001E0,1.3139474E-1,2.00001E0,-9.91269E-2,1.1867445E-1,-1.3066708E-1,-9.84149E-2,1.3094984E-1,-1.3359599E-1],"split_indices":[28,108,20,0,66,26,0,38,38,0,29,0,0,0,0,0,0],"split_type":[0,0,0,0,0,0,0,0,0,0,0,0,0,0,0,0,0],"sum_hessian":[1.2086824E3,5.0969937E2,6.9898303E2,1.0338503E1,4.9936087E2,2.0276779E2,4.9621524E2,8.619012E0,4.9074185E2,4.4346035E1,1.5842175E2,2.441707E0,6.177305E0,4.6312747E2,2.7614382E1,3.7900364E1,1.20521385E2],"tree_param":{"num_deleted":"0","num_feature":"126","num_nodes":"17","size_leaf_vector":"1"}},{"base_weights":[-1.2996177E-3,-1.1681064E0,8.487182E-1,1.1964375E-1,-1.2199833E0,-2.4528177E-1,1.295685E-1,5.046114E-1,-1.2518547E0,1.2706223E-1,-6.757596E-1,-9.520181E-2,1.1410625E-1,-1.268639E-1,-9.3894966E-2,1.2660967E-1,-1.2932982E-1],"categories":[],"categories_nodes":[],"categories_segments":[],"categories_sizes":[],"default_left":[0,0,0,0,0,0,0,0,0,0,0,0,0,0,0,0,0],"id":8,"left_children":[1,3,5,-1,7,9,-1,11,13,-1,15,-1,-1,-1,-1,-1,-1],"loss_changes":[1.1202979E3,5.985608E1,3.1986163E2,0E0,2.626416E1,1.2509953E2,0E0,9.591761E0,1.2149658E0,0E0,1.8023468E2,0E0,0E0,0E0,0E0,0E0,0E0],"parents":[2147483647,0,0,1,1,2,2,4,4,5,5,7,7,8,8,10,10],"right_children":[2,4,6,-1,8,10,-1,12,14,-1,16,-1,-1,-1,-1,-1,-1],"split_conditions":[2.00001E0,2.00001E0,2.00001E0,1.1964375E-1,2.00001E0,2.00001E0,1.295685E-1,2.00001E0,2.00001E0,1.2706223E-1,2.00001E0,-9.520181E-2,1.1410625E-1,-1.268639E-1,-9.3894966E-2,1.2660967E-1,-1.2932982E-1],"split_indices":[28,108,20,0,66,26,0,38,38,0,29,0,0,0,0,0,0],"split_type":[0,0,0,0,0,0,0,0,0,0,0,0,0,0,0,0,0],"sum_hessian":[1.1275532E3,4.750647E2,6.5248846E2,9.725251E0,4.6533945E2,1.8938911E2,4.6309937E2,8.174513E0,4.5716495E2,4.145521E1,1.479339E2,2.334889E0,5.8396235E0,4.3099207E2,2.6172882E1,3.5440533E1,1.1249336E2],"tree_param":{"num_deleted":"0","num_feature":"126","num_nodes":"17","size_leaf_vector":"1"}},{"base_weights":[-1.1593018E-3,-1.1360786E0,8.248674E-1,1.15661316E-1,-1.1870086E0,-2.3739687E-1,1.259285E-1,4.8085734E-1,-1.2184507E0,1.2333822E-1,-6.559087E-1,-9.1605216E-2,1.10029735E-1,-1.2361319E-1,-8.9648776E-2,1.2287185E-1,-1.2567517E-1],"categories":[],"categories_nodes":[],"categories_segments":[],"categories_sizes":[],"default_left":[0,0,0,0,0,0,0,0,0,0,0,0,0,0,0,0,0],"id":9,"left_children":[1,3,5,-1,7,9,-1,11,13,-1,15,-1,-1,-1,-1,-1,-1],"loss_changes":[9.8450226E2,5.302704E1,2.8077628E2,0E0,2.330603E1,1.09917114E2,0E0,8.564948E0,1.314148E0,0E0,1.5853952E2,0E0,0E0,0E0,0E0,0E0,0E0],"parents":[2147483647,0,0,1,1,2,2,4,4,5,5,7,7,8,8,10,10],"right_children":[2,4,6,-1,8,10,-1,12,14,-1,16,-1,-1,-1,-1,-1,-1],"split_conditions":[2.00001E0,2.00001E0,2.00001E0,1.15661316E-1,2.00001E0,2.00001E0,1.259285E-1,2.00001E0,2.00001E0,1.2333822E-1,2.00001E0,-9.1605216E-2,1.10029735E-1,-1.2361319E-1,-8.9648776E-2,1.2287185E-1,-1.2567517E-1],"split_indices":[28,108,20,0,66,26,0,38,38,0,29,0,0,0,0,0,0],"split_type":[0,0,0,0,0,0,0,0,0,0,0,0,0,0,0,0,0],"sum_hessian":[1.0481655E3,4.4137E2,6.067956E2,9.119772E0,4.322502E2,1.762564E2,4.3053918E2,7.7333927E0,4.245168E2,3.861264E1,1.3764374E2,2.2286615E0,5.504731E0,3.997258E2,2.4791027E1,3.302168E1,1.0462206E2],"tree_param":{"num_deleted":"0","num_feature":"126","num_nodes":"17","size_leaf_vector":"1"}},{"base_weights":[-1.0053858E-3,-1.1080626E0,8.0440885E-1,1.12105824E-1,-1.1582228E0,-2.3044586E-1,1.228107E-1,4.5909876E-1,-1.1893494E0,1.2010413E-1,-6.3865435E-1,-8.828481E-2,1.0634881E-1,-1.2081394E-1,-8.5622296E-2,1.19618595E-1,-1.2251709E-1],"categories":[],"categories_nodes":[],"categories_segments":[],"categories_sizes":[],"default_left":[0,0,0,0,0,0,0,0,0,0,0,0,0,0,0,0,0],"id":10,"left_children":[1,3,5,-1,7,9,-1,11,13,-1,15,-1,-1,-1,-1,-1,-1],"loss_changes":[8.6798303E2,4.7137756E1,2.4736066E2,0E0,2.0754883E1,9.691268E1,0E0,7.6719117E0,1.4326172E0,0E0,1.3994618E2,0E0,0E0,0E0,0E0,0E0,0E0],"parents":[2147483647,0,0,1,1,2,2,4,4,5,5,7,7,8,8,10,10],"right_children":[2,4,6,-1,8,10,-1,12,14,-1,16,-1,-1,-1,-1,-1,-1],"split_conditions":[2.00001E0,2.00001E0,2.00001E0,1.12105824E-1,2.00001E0,2.00001E0,1.228107E-1,2.00001E0,2.00001E0,1.2010413E-1,2.00001E0,-8.828481E-2,1.0634881E-1,-1.2081394E-1,-8.5622296E-2,1.19618595E-1,-1.2251709E-1],"split_indices":[28,108,20,0,66,26,0,38,38,0,29,0,0,0,0,0,0],"split_type":[0,0,0,0,0,0,0,0,0,0,0,0,0,0,0,0,0],"sum_hessian":[9.714687E2,4.0896402E2,5.625047E2,8.530237E0,4.004338E2,1.6353568E2,3.98969E2,7.301514E0,3.931323E2,3.585583E1,1.2767985E2,2.124247E0,5.1772676E0,3.696552E2,2.3477072E1,3.0675642E1,9.70042E1],"tree_param":{"num_deleted":"0","num_feature":"126","num_nodes":"17","size_leaf_vector":"1"}},{"base_weights":[-8.373738E-4,-1.0833207E0,7.867331E-1,1.0889436E-1,-1.1328615E0,-2.2424656E-1,1.2012096E-1,4.389802E-1,-1.1637706E0,1.172684E-1,-6.235199E-1,-8.519893E-2,1.0298871E-1,-1.1838776E-1,-8.177403E-2,1.1675892E-1,-1.1976693E-1],"categories":[],"categories_nodes":[],"categories_segments":[],"categories_sizes":[],"default_left":[0,0,0,0,0,0,0,0,0,0,0,0,0,0,0,0,0],"id":11,"left_children":[1,3,5,-1,7,9,-1,11,13,-1,15,-1,-1,-1,-1,-1,-1],"loss_changes":[7.673717E2,4.202841E1,2.1859518E2,0E0,1.854129E1,8.570066E1,0E0,6.8910227E0,1.5661011E0,0E0,1.2390808E2,0E0,0E0,0E0,0E0,0E0,0E0],"parents":[2147483647,0,0,1,1,2,2,4,4,5,5,7,7,8,8,10,10],"right_children":[2,4,6,-1,8,10,-1,12,14,-1,16,-1,-1,-1,-1,-1,-1],"split_conditions":[2.00001E0,2.00001E0,2.00001E0,1.0889436E-1,2.00001E0,2.00001E0,1.2012096E-1,2.00001E0,2.00001E0,1.172684E-1,2.00001E0,-8.519893E-2,1.0298871E-1,-1.1838776E-1,-8.177403E-2,1.1675892E-1,-1.1976693E-1],"split_indices":[28,108,20,0,66,26,0,38,38,0,29,0,0,0,0,0,0],"split_type":[0,0,0,0,0,0,0,0,0,0,0,0,0,0,0,0,0],"sum_hessian":[8.981093E2,3.7807928E2,5.2003E2,7.962405E0,3.7011688E2,1.5134134E2,3.686887E2,6.8831067E0,3.632338E2,3.321068E1,1.1813066E2,2.0225518E0,4.8605547E0,3.409979E2,2.2235897E1,2.8424463E1,8.97062E1],"tree_param":{"num_deleted":"0","num_feature":"126","num_nodes":"17","size_leaf_vector":"1"}},{"base_weights":[-6.550169E-4,-1.0612661E0,7.7136415E-1,1.059615E-1,-1.1103168E0,-2.18654E-1,1.17785946E-1,4.2022485E-1,-1.141094E0,1.1475914E-1,-6.101304E-1,-8.231414E-2,9.989052E-2,-1.1627277E-1,-7.8072414E-2,1.14221215E-1,-1.1735501E-1],"categories":[],"categories_nodes":[],"categories_segments":[],"categories_sizes":[],"default_left":[0,0,0,0,0,0,0,0,0,0,0,0,0,0,0,0,0],"id":12,"left_children":[1,3,5,-1,7,9,-1,11,13,-1,15,-1,-1,-1,-1,-1,-1],"loss_changes":[6.800243E2,3.757263E1,1.9368613E2,0E0,1.6610321E1,7.597972E1,0E0,6.204988E0,1.7114258E0,0E0,1.0999712E2,0E0,0E0,0E0,0E0,0E0,0E0],"parents":[2147483647,0,0,1,1,2,2,4,4,5,5,7,7,8,8,10,10],"right_children":[2,4,6,-1,8,10,-1,12,14,-1,16,-1,-1,-1,-1,-1,-1],"split_conditions":[2.00001E0,2.00001E0,2.00001E0,1.059615E-1,2.00001E0,2.00001E0,1.17785946E-1,2.00001E0,2.00001E0,1.1475914E-1,2.00001E0,-8.231414E-2,9.989052E-2,-1.1627277E-1,-7.8072414E-2,1.14221215E-1,-1.1735501E-1],"split_indices":[28,108,20,0,66,26,0,38,38,0,29,0,0,0,0,0,0],"split_type":[0,0,0,0,0,0,0,0,0,0,0,0,0,0,0,0,0],"sum_hessian":[8.285013E2,3.4885904E2,4.7964227E2,7.420155E0,3.414389E2,1.3974815E2,3.398941E2,6.4811134E0,3.349578E2,3.0694271E1,1.0905389E2,1.9242272E0,4.5568857E0,3.1388797E2,2.1069815E1,2.6282625E1,8.2771255E1],"tree_param":{"num_deleted":"0","num_feature":"126","num_nodes":"17","size_leaf_vector":"1"}},{"base_weights":[-4.5732368E-4,-1.0414249E0,7.5792474E-1,1.0325494E-1,-1.0900985E0,-2.1355183E-1,1.15747586E-1,4.0261546E-1,-1.1208197E0,1.12518825E-1,-5.9818554E-1,-7.960344E-2,9.700746E-2,-1.1441957E-1,-7.449366E-2,1.11948244E-1,-1.1522577E-1],"categories":[],"categories_nodes":[],"categories_segments":[],"categories_sizes":[],"default_left":[0,0,0,0,0,0,0,0,0,0,0,0,0,0,0,0,0],"id":13,"left_children":[1,3,5,-1,7,9,-1,11,13,-1,15,-1,-1,-1,-1,-1,-1],"loss_changes":[6.038368E2,3.3669098E1,1.7200677E2,0E0,1.4918213E1,6.751055E1,0E0,5.599802E0,1.8660583E0,0E0,9.787318E1,0E0,0E0,0E0,0E0,0E0,0E0],"parents":[2147483647,0,0,1,1,2,2,4,4,5,5,7,7,8,8,10,10],"right_children":[2,4,6,-1,8,10,-1,12,14,-1,16,-1,-1,-1,-1,-1,-1],"split_conditions":[2.00001E0,2.00001E0,2.00001E0,1.0325494E-1,2.00001E0,2.00001E0,1.15747586E-1,2.00001E0,2.00001E0,1.12518825E-1,2.00001E0,-7.960344E-2,9.700746E-2,-1.1441957E-1,-7.449366E-2,1.11948244E-1,-1.1522577E-1],"split_indices":[28,108,20,0,66,26,0,38,38,0,29,0,0,0,0,0,0],"split_type":[0,0,0,0,0,0,0,0,0,0,0,0,0,0,0,0,0],"sum_hessian":[7.628821E2,3.2137894E2,4.415031E2,6.905917E0,3.1447302E2,1.288005E2,3.127026E2,6.0974674E0,3.0837555E2,2.831682E1,1.0048369E2,1.8297218E0,4.2677455E0,2.883963E2,1.9979233E1,2.4258852E1,7.622484E1],"tree_param":{"num_deleted":"0","num_feature":"126","num_nodes":"17","size_leaf_vector":"1"}},{"base_weights":[-2.4337685E-4,-1.0234084E0,7.461115E-1,1.0073252E-1,-1.0718046E0,-2.0884469E-1,1.1395925E-1,3.8598117E-1,-1.1025381E0,1.10500835E-1,-5.8744174E-1,-7.704497E-2,9.430211E-2,-7.247943E-2,-1.12976514E-1,1.098935E-1,-1.1333423E-1],"categories":[],"categories_nodes":[],"categories_segments":[],"categories_sizes":[],"default_left":[0,0,0,0,0,0,0,0,0,0,0,0,0,0,0,0,0],"id":14,"left_children":[1,3,5,-1,7,9,-1,11,13,-1,15,-1,-1,-1,-1,-1,-1],"loss_changes":[5.371129E2,3.0235748E1,1.5305522E2,0E0,1.342926E1,6.0100777E1,0E0,5.0640078E0,2.1072693E0,0E0,8.726246E1,0E0,0E0,0E0,0E0,0E0,0E0],"parents":[2147483647,0,0,1,1,2,2,4,4,5,5,7,7,8,8,10,10],"right_children":[2,4,6,-1,8,10,-1,12,14,-1,16,-1,-1,-1,-1,-1,-1],"split_conditions":[2.00001E0,2.00001E0,2.00001E0,1.0073252E-1,2.00001E0,2.00001E0,1.1395925E-1,2.00001E0,2.00001E0,1.10500835E-1,2.00001E0,-7.704497E-2,9.430211E-2,-7.247943E-2,-1.12976514E-1,1.098935E-1,-1.1333423E-1],"split_indices":[28,108,20,0,66,26,0,38,120,0,29,0,0,0,0,0,0],"split_type":[0,0,0,0,0,0,0,0,0,0,0,0,0,0,0,0,0],"sum_hessian":[7.013551E2,2.9566367E2,4.0569144E2,6.421005E0,2.8924268E2,1.18519806E2,2.8717163E2,5.7333198E0,2.8350934E2,2.6083391E1,9.243642E1,1.7393224E0,3.9939976E0,2.0917955E1,2.625914E2,2.2357462E1,7.007896E1],"tree_param":{"num_deleted":"0","num_feature":"126","num_nodes":"17","size_leaf_vector":"1"}},{"base_weights":[-9.990015E-6,-1.0067885E0,7.356779E-1,9.8359935E-2,-1.0549889E0,-2.0445234E-1,1.1238307E-1,3.7018692E-1,-1.0857908E0,1.0866685E-1,-5.7769763E-1,-7.4620895E-2,9.1744356E-2,-1.1137333E-1,-6.618199E-2,1.0801879E-1,-1.1164345E-1],"categories":[],"categories_nodes":[],"categories_segments":[],"categories_sizes":[],"default_left":[0,0,0,0,0,0,0,0,0,0,0,0,0,0,0,0,0],"id":15,"left_children":[1,3,5,-1,7,9,-1,11,13,-1,15,-1,-1,-1,-1,-1,-1],"loss_changes":[4.7844055E2,2.7202515E1,1.364246E2,0E0,1.2112274E1,5.3594032E1,0E0,4.5881248E0,2.3593445E0,0E0,7.794217E1,0E0,0E0,0E0,0E0,0E0,0E0],"parents":[2147483647,0,0,1,1,2,2,4,4,5,5,7,7,8,8,10,10],"right_children":[2,4,6,-1,8,10,-1,12,14,-1,16,-1,-1,-1,-1,-1,-1],"split_conditions":[2.00001E0,2.00001E0,2.00001E0,9.8359935E-2,2.00001E0,2.00001E0,1.1238307E-1,2.00001E0,2.00001E0,1.0866685E-1,2.00001E0,-7.4620895E-2,9.1744356E-2,-1.1137333E-1,-6.618199E-2,1.0801879E-1,-1.1164345E-1],"split_indices":[28,108,20,0,66,26,0,38,38,0,29,0,0,0,0,0,0],"split_type":[0,0,0,0,0,0,0,0,0,0,0,0,0,0,0,0,0],"sum_hessian":[6.439523E2,2.7172794E2,3.7222437E2,5.965888E0,2.6576202E2,1.0891024E2,2.6331412E2,5.3892117E0,2.6037283E2,2.3995207E1,8.491503E1,1.6531874E0,3.7360241E0,2.4274724E2,1.7625578E1,2.0579508E1,6.4335526E1],"tree_param":{"num_deleted":"0","num_feature":"126","num_nodes":"17","size_leaf_vector":"1"}},{"base_weights":[2.430955E-4,-9.9149585E-1,7.264205E-1,9.610919E-2,-1.039587E0,-2.0030735E-1,1.10987894E-1,3.5512623E-1,-1.0705191E0,1.06984995E-1,-5.687857E-1,-7.23166E-2,8.9309976E-2,-6.479708E-2,-1.1025305E-1,1.0629225E-1,-1.101228E-1],"categories":[],"categories_nodes":[],"categories_segments":[],"categories_sizes":[],"default_left":[0,0,0,0,0,0,0,0,0,0,0,0,0,0,0,0,0],"id":16,"left_children":[1,3,5,-1,7,9,-1,11,13,-1,15,-1,-1,-1,-1,-1,-1],"loss_changes":[4.2674033E2,2.4519302E1,1.21781876E2,0E0,1.09470215E1,4.7861862E1,0E0,4.1642513E0,2.5301514E0,0E0,6.972902E1,0E0,0E0,0E0,0E0,0E0,0E0],"parents":[2147483647,0,0,1,1,2,2,4,4,5,5,7,7,8,8,10,10],"right_children":[2,4,6,-1,8,10,-1,12,14,-1,16,-1,-1,-1,-1,-1,-1],"split_conditions":[2.00001E0,2.00001E0,2.00001E0,9.610919E-2,2.00001E0,2.00001E0,1.10987894E-1,2.00001E0,2.00001E0,1.06984995E-1,2.00001E0,-7.23166E-2,8.9309976E-2,-6.479708E-2,-1.1025305E-1,1.0629225E-1,-1.101228E-1],"split_indices":[28,108,20,0,66,26,0,38,120,0,29,0,0,0,0,0,0],"split_type":[0,0,0,0,0,0,0,0,0,0,0,0,0,0,0,0,0],"sum_hessian":[5.90548E2,2.4947505E2,3.410729E2,5.5403986E0,2.4393466E2,9.996319E1,2.411097E2,5.065224E0,2.3886943E2,2.2050602E1,7.791259E1,1.5713778E0,3.4938467E0,1.831775E1,2.2055168E2,1.8923578E1,5.898901E1],"tree_param":{"num_deleted":"0","num_feature":"126","num_nodes":"17","size_leaf_vector":"1"}},{"base_weights":[5.178076E-4,-9.7709626E-1,7.181707E-1,9.395736E-2,-1.0251431E0,-1.9635203E-1,1.0974789E-1,-1.0903247E-1,-2.976899E-1,1.0542841E-1,-5.6056434E-1,3.2031757E-1,-7.326975E-2,1.04687095E-1,-1.0874649E-1],"categories":[],"categories_nodes":[],"categories_segments":[],"categories_sizes":[],"default_left":[0,0,0,0,0,0,0,0,0,0,0,0,0,0,0],"id":17,"left_children":[1,3,5,-1,7,9,-1,-1,11,-1,13,-1,-1,-1,-1],"loss_changes":[3.8101367E2,2.2134506E1,1.0885161E2,0E0,1.0332474E1,4.279772E1,0E0,0E0,3.2588734E1,0E0,6.2470947E1,0E0,0E0,0E0,0E0],"parents":[2147483647,0,0,1,1,2,2,4,4,5,5,8,8,10,10],"right_children":[2,4,6,-1,8,10,-1,-1,12,-1,14,-1,-1,-1,-1],"split_conditions":[2.00001E0,2.00001E0,2.00001E0,9.395736E-2,2.00001E0,2.00001E0,1.0974789E-1,-1.0903247E-1,2.00001E0,1.0542841E-1,2.00001E0,3.2031757E-1,-7.326975E-2,1.04687095E-1,-1.0874649E-1],"split_indices":[28,108,20,0,38,26,0,0,114,0,29,0,0,0,0],"split_type":[0,0,0,0,0,0,0,0,0,0,0,0,0,0,0],"sum_hessian":[5.410734E2,2.2889813E2,3.1217526E2,5.143906E0,2.2375423E2,9.166082E1,2.2051445E2,2.0489624E2,1.8857977E1,2.0245817E1,7.1415E1,1.3809377E0,1.747704E1,1.7386503E1,5.4028496E1],"tree_param":{"num_deleted":"0","num_feature":"126","num_nodes":"15","size_leaf_vector":"1"}},{"base_weights":[1.3297407E-3,-9.61059E-1,7.1078676E-1,9.188567E-2,-1.0090085E0,-1.925355E-1,1.0864141E-1,-1.07999995E-1,-2.649122E-1,1.03974245E-1,-5.52912E-1,3.2376716E-1,-6.492408E-2,1.0318055E-1,-1.074927E-1],"categories":[],"categories_nodes":[],"categories_segments":[],"categories_sizes":[],"default_left":[0,0,0,0,0,0,0,0,0,0,0,0,0,0,0],"id":18,"left_children":[1,3,5,-1,7,9,-1,-1,11,-1,13,-1,-1,-1,-1],"loss_changes":[3.3975607E2,1.9961792E1,9.740404E1,0E0,1.06163025E1,3.831258E1,0E0,0E0,2.8083696E1,0E0,5.6040825E1,0E0,0E0,0E0,0E0],"parents":[2147483647,0,0,1,1,2,2,4,4,5,5,8,8,10,10],"right_children":[2,4,6,-1,8,10,-1,-1,12,-1,14,-1,-1,-1,-1],"split_conditions":[2.00001E0,2.00001E0,2.00001E0,9.188567E-2,2.00001E0,2.00001E0,1.0864141E-1,-1.07999995E-1,2.00001E0,1.03974245E-1,2.00001E0,3.2376716E-1,-6.492408E-2,1.0318055E-1,-1.074927E-1],"split_indices":[28,108,20,0,38,26,0,0,20,0,29,0,0,0,0],"split_type":[0,0,0,0,0,0,0,0,0,0,0,0,0,0,0],"sum_hessian":[4.9561127E2,2.1016489E2,2.8544638E2,4.775441E0,2.0538945E2,8.397873E1,2.0146764E2,1.8708862E2,1.8300821E1,1.857565E1,6.540308E1,1.0754514E0,1.722537E1,1.5963867E1,4.9439213E1],"tree_param":{"num_deleted":"0","num_feature":"126","num_nodes":"15","size_leaf_vector":"1"}},{"base_weights":[2.182606E-3,-9.4442487E-1,7.041482E-1,8.987887E-2,-9.9224436E-1,-1.8881354E-1,1.0765015E-1,4.4228008E-1,-1.0314194E0,1.0260292E-1,-5.45724E-1,-6.3713275E-2,8.925449E-2,-5.5100627E-2,-1.0717535E-1,1.0175308E-1,-1.06342636E-1],"categories":[],"categories_nodes":[],"categories_segments":[],"categories_sizes":[],"default_left":[0,0,0,0,0,0,0,0,0,0,0,0,0,0,0,0,0],"id":19,"left_children":[1,3,5,-1,7,9,-1,11,13,-1,15,-1,-1,-1,-1,-1,-1],"loss_changes":[3.029507E2,1.8002869E1,8.7246124E1,0E0,1.1116699E1,3.4331463E1,0E0,3.3596873E0,2.9933472E0,0E0,5.0331493E1,0E0,0E0,0E0,0E0,0E0,0E0],"parents":[2147483647,0,0,1,1,2,2,4,4,5,5,7,7,8,8,10,10],"right_children":[2,4,6,-1,8,10,-1,12,14,-1,16,-1,-1,-1,-1,-1,-1],"split_conditions":[2.00001E0,2.00001E0,2.00001E0,8.987887E-2,2.00001E0,2.00001E0,1.0765015E-1,2.00001E0,2.00001E0,1.0260292E-1,2.00001E0,-6.3713275E-2,8.925449E-2,-5.5100627E-2,-1.0717535E-1,1.0175308E-1,-1.06342636E-1],"split_indices":[28,108,20,0,66,26,0,38,120,0,29,0,0,0,0,0,0],"split_type":[0,0,0,0,0,0,0,0,0,0,0,0,0,0,0,0,0],"sum_hessian":[4.5391666E2,1.931315E2,2.6078513E2,4.4338107E0,1.886977E2,7.6888176E1,1.8389697E2,4.7425785E0,1.8395512E2,1.703389E1,5.9854282E1,1.2738295E0,3.468749E0,1.5383647E1,1.6857147E2,1.4650413E1,4.520387E1],"tree_param":{"num_deleted":"0","num_feature":"126","num_nodes":"17","size_leaf_vector":"1"}},{"base_weights":[2.5388366E-3,-9.31915E-1,6.981527E-1,8.792458E-2,-9.7986764E-1,-1.8514675E-1,1.0675853E-1,-1.06269754E-1,-1.9330442E-1,1.0129746E-1,-5.389095E-1,2.5547758E-1,-6.3828506E-2,1.00387774E-1,-1.0528008E-1],"categories":[],"categories_nodes":[],"categories_segments":[],"categories_sizes":[],"default_left":[0,0,0,0,0,0,0,0,0,0,0,0,0,0,0],"id":20,"left_children":[1,3,5,-1,7,9,-1,-1,11,-1,13,-1,-1,-1,-1],"loss_changes":[2.7109604E2,1.6318787E1,7.821454E1,0E0,1.1121643E1,3.0790874E1,0E0,0E0,2.3380688E1,0E0,4.525202E1,0E0,0E0,0E0,0E0],"parents":[2147483647,0,0,1,1,2,2,4,4,5,5,8,8,10,10],"right_children":[2,4,6,-1,8,10,-1,-1,12,-1,14,-1,-1,-1,-1],"split_conditions":[2.00001E0,2.00001E0,2.00001E0,8.792458E-2,2.00001E0,2.00001E0,1.0675853E-1,-1.06269754E-1,2.00001E0,1.0129746E-1,2.00001E0,2.5547758E-1,-6.3828506E-2,1.00387774E-1,-1.0528008E-1],"split_indices":[28,108,20,0,38,26,0,0,114,0,29,0,0,0,0],"split_type":[0,0,0,0,0,0,0,0,0,0,0,0,0,0,0],"sum_hessian":[4.1505768E2,1.7697644E2,2.3808122E2,4.117658E0,1.7285878E2,7.035761E1,1.6772362E2,1.5607234E2,1.678644E1,1.5613724E1,5.474389E1,1.678592E0,1.5107848E1,1.3440322E1,4.130357E1],"tree_param":{"num_deleted":"0","num_feature":"126","num_nodes":"15","size_leaf_vector":"1"}},{"base_weights":[3.4103722E-3,-9.169486E-1,6.927117E-1,8.601297E-2,-9.6493006E-1,-1.8149929E-1,1.0595312E-1,-1.05508424E-1,-1.6839787E-1,1.0004307E-1,-5.323874E-1,2.2882369E-1,-5.974145E-2,9.9070005E-2,-1.042908E-1],"categories":[],"categories_nodes":[],"categories_segments":[],"categories_sizes":[],"default_left":[0,0,0,0,0,0,0,0,0,0,0,0,0,0,0],"id":21,"left_children":[1,3,5,-1,7,9,-1,-1,11,-1,13,-1,-1,-1,-1],"loss_changes":[2.4212561E2,1.4765793E1,7.017011E1,0E0,1.1284225E1,2.7636585E1,0E0,0E0,1.972512E1,0E0,4.072497E1,0E0,0E0,0E0,0E0],"parents":[2147483647,0,0,1,1,2,2,4,4,5,5,8,8,10,10],"right_children":[2,4,6,-1,8,10,-1,-1,12,-1,14,-1,-1,-1,-1],"split_conditions":[2.00001E0,2.00001E0,2.00001E0,8.601297E-2,2.00001E0,2.00001E0,1.0595312E-1,-1.05508424E-1,2.00001E0,1.0004307E-1,2.00001E0,2.2882369E-1,-5.974145E-2,9.9070005E-2,-1.042908E-1],"split_indices":[28,108,20,0,38,26,0,0,114,0,29,0,0,0,0],"split_type":[0,0,0,0,0,0,0,0,0,0,0,0,0,0,0],"sum_hessian":[3.7965677E2,1.6243816E2,2.172186E2,3.8255568E0,1.5861261E2,6.435405E1,1.5286455E2,1.4219402E2,1.6418587E1,1.4307978E1,5.004607E1,1.7966918E0,1.4621895E1,1.2327534E1,3.7718536E1],"tree_param":{"num_deleted":"0","num_feature":"126","num_nodes":"15","size_leaf_vector":"1"}},{"base_weights":[4.2925836E-3,-9.0203273E-1,6.877486E-1,8.4136225E-2,-9.500693E-1,-1.7783801E-1,1.0522236E-1,-1.0481544E-1,-1.4599922E-1,9.88268E-2,-5.260856E-1,2.0570324E-1,-5.5764653E-2,9.7786985E-2,-1.0336226E-1],"categories":[],"categories_nodes":[],"categories_segments":[],"categories_sizes":[],"default_left":[0,0,0,0,0,0,0,0,0,0,0,0,0,0,0],"id":22,"left_children":[1,3,5,-1,7,9,-1,-1,11,-1,13,-1,-1,-1,-1],"loss_changes":[2.1631311E2,1.3372238E1,6.299373E1,0E0,1.140686E1,2.4822178E1,0E0,0E0,1.6652615E1,0E0,3.6683884E1,0E0,0E0,0E0,0E0],"parents":[2147483647,0,0,1,1,2,2,4,4,5,5,8,8,10,10],"right_children":[2,4,6,-1,8,10,-1,-1,12,-1,14,-1,-1,-1,-1],"split_conditions":[2.00001E0,2.00001E0,2.00001E0,8.4136225E-2,2.00001E0,2.00001E0,1.0522236E-1,-1.0481544E-1,2.00001E0,9.88268E-2,2.00001E0,2.0570324E-1,-5.5764653E-2,9.7786985E-2,-1.0336226E-1],"split_indices":[28,108,20,0,38,26,0,0,114,0,29,0,0,0,0],"split_type":[0,0,0,0,0,0,0,0,0,0,0,0,0,0,0],"sum_hessian":[3.4720966E2,1.4912991E2,1.9807974E2,3.556019E0,1.455739E2,5.8843998E1,1.3923575E2,1.294761E2,1.6097803E1,1.3109395E1,4.5734604E1,1.9051024E0,1.4192699E1,1.130587E1,3.4428734E1],"tree_param":{"num_deleted":"0","num_feature":"126","num_nodes":"15","size_leaf_vector":"1"}},{"base_weights":[5.1940233E-3,-8.871025E-1,6.8319654E-1,8.228847E-2,-9.3521976E-1,-1.7413494E-1,1.04556136E-1,5.544967E-1,-9.8982877E-1,9.763724E-2,-5.1994133E-1,8.947952E-2,-3.6979645E-2,-4.4193096E-2,-1.044421E-1,9.6527494E-2,-1.02483325E-1],"categories":[],"categories_nodes":[],"categories_segments":[],"categories_sizes":[],"default_left":[0,0,0,0,0,0,0,0,0,0,0,0,0,0,0,0,0],"id":23,"left_children":[1,3,5,-1,7,9,-1,11,13,-1,15,-1,-1,-1,-1,-1,-1],"loss_changes":[1.9329247E2,1.2120354E1,5.65829E1,0E0,1.1502525E1,2.2307613E1,0E0,2.0300617E0,3.434143E0,0E0,3.3071346E1,0E0,0E0,0E0,0E0,0E0,0E0],"parents":[2147483647,0,0,1,1,2,2,4,4,5,5,7,7,8,8,10,10],"right_children":[2,4,6,-1,8,10,-1,12,14,-1,16,-1,-1,-1,-1,-1,-1],"split_conditions":[2.00001E0,2.00001E0,2.00001E0,8.228847E-2,2.00001E0,2.00001E0,1.04556136E-1,2.00001E0,2.00001E0,9.763724E-2,2.00001E0,8.947952E-2,-3.6979645E-2,-4.4193096E-2,-1.044421E-1,9.6527494E-2,-1.02483325E-1],"split_indices":[28,108,20,0,66,26,0,60,114,0,29,0,0,0,0,0,0],"split_type":[0,0,0,0,0,0,0,0,0,0,0,0,0,0,0,0,0],"sum_hessian":[3.175008E2,1.3695305E2,1.8054774E2,3.3075657E0,1.336455E2,5.379403E1,1.2675372E2,4.4021544E0,1.2924333E2,1.2010685E1,4.1783344E1,3.2408717E0,1.1612828E0,1.2534982E1,1.1670835E2,1.0369128E1,3.1414215E1],"tree_param":{"num_deleted":"0","num_feature":"126","num_nodes":"17","size_leaf_vector":"1"}},{"base_weights":[5.75983E-3,-8.748291E-1,6.7899585E-1,8.046531E-2,-9.2322665E-1,-1.70362E-1,1.0394557E-1,-1.03637695E-1,-7.9963125E-2,9.646436E-2,-5.138961E-1,1.9029824E-1,-5.041985E-2,9.52818E-2,-1.0164394E-1],"categories":[],"categories_nodes":[],"categories_segments":[],"categories_sizes":[],"default_left":[0,0,0,0,0,0,0,0,0,0,0,0,0,0,0],"id":24,"left_children":[1,3,5,-1,7,9,-1,-1,11,-1,13,-1,-1,-1,-1],"loss_changes":[1.731414E2,1.1028587E1,5.0848892E1,0E0,1.1697472E1,2.0058271E1,0E0,0E0,1.4158622E1,0E0,2.983781E1,0E0,0E0,0E0,0E0],"parents":[2147483647,0,0,1,1,2,2,4,4,5,5,8,8,10,10],"right_children":[2,4,6,-1,8,10,-1,-1,12,-1,14,-1,-1,-1,-1],"split_conditions":[2.00001E0,2.00001E0,2.00001E0,8.046531E-2,2.00001E0,2.00001E0,1.0394557E-1,-1.03637695E-1,2.00001E0,9.646436E-2,2.00001E0,1.9029824E-1,-5.041985E-2,9.52818E-2,-1.0164394E-1],"split_indices":[28,108,20,0,38,26,0,0,114,0,29,0,0,0,0],"split_type":[0,0,0,0,0,0,0,0,0,0,0,0,0,0,0],"sum_hessian":[2.9005017E2,1.2554221E2,1.6450795E2,3.0787327E0,1.22463486E2,4.9171543E1,1.1533641E2,1.077733E2,1.4690184E1,1.1004773E1,3.816677E1,1.9746537E0,1.271553E1,9.511291E0,2.865548E1],"tree_param":{"num_deleted":"0","num_feature":"126","num_nodes":"15","size_leaf_vector":"1"}},{"base_weights":[6.7740157E-3,-8.5983866E-1,6.750951E-1,-9.7205913E-1,-6.491793E-2,-1.6649514E-1,1.03382826E-1,7.866369E-2,-1.03094995E-1,1.7329375E-1,-4.681516E-1,9.529926E-2,-5.0789756E-1,8.839071E-2,-9.693406E-2,9.40414E-2,-1.0083508E-1],"categories":[],"categories_nodes":[],"categories_segments":[],"categories_sizes":[],"default_left":[0,0,0,0,0,0,0,0,0,0,0,0,0,0,0,0,0],"id":25,"left_children":[1,3,5,7,9,11,-1,-1,-1,-1,13,-1,15,-1,-1,-1,-1],"loss_changes":[1.5475227E2,1.0315308E1,4.5714752E1,1.1362556E1,1.2021952E1,1.8043991E1,0E0,0E0,0E0,0E0,9.949539E0,0E0,2.694017E1,0E0,0E0,0E0,0E0],"parents":[2147483647,0,0,1,1,2,2,3,3,4,4,5,5,10,10,12,12],"right_children":[2,4,6,8,10,12,-1,-1,-1,-1,14,-1,16,-1,-1,-1,-1],"split_conditions":[2.00001E0,2.00001E0,2.00001E0,2.00001E0,2.00001E0,2.00001E0,1.03382826E-1,7.866369E-2,-1.03094995E-1,1.7329375E-1,2.00001E0,9.529926E-2,2.00001E0,8.839071E-2,-9.693406E-2,9.40414E-2,-1.0083508E-1],"split_indices":[28,38,20,108,114,26,0,0,0,0,63,0,29,0,0,0,0],"split_type":[0,0,0,0,0,0,0,0,0,0,0,0,0,0,0,0,0],"sum_hessian":[2.6519186E2,1.1534165E2,1.4985022E2,1.00877716E2,1.4463942E1,4.494495E1,1.04905266E2,2.8681E0,9.800961E1,2.0456438E0,1.2418298E1,1.0084759E1,3.486019E1,3.1518703E0,9.266428E0,8.72652E0,2.6133673E1],"tree_param":{"num_deleted":"0","num_feature":"126","num_nodes":"17","size_leaf_vector":"1"}},{"base_weights":[7.9109585E-3,-8.499097E-1,6.7144585E-1,-9.6587586E-1,-5.293309E-2,-1.6251044E-1,1.0286087E-1,7.688176E-2,-1.0258957E-1,1.5907265E-1,-4.5616663E-1,9.413425E-2,-5.0189805E-1,8.595882E-2,-9.550082E-2,9.279897E-2,-1.0004846E-1],"categories":[],"categories_nodes":[],"categories_segments":[],"categories_sizes":[],"default_left":[0,0,0,0,0,0,0,0,0,0,0,0,0,0,0,0,0],"id":26,"left_children":[1,3,5,7,9,11,-1,-1,-1,-1,13,-1,15,-1,-1,-1,-1],"loss_changes":[1.3877716E2,9.777298E0,4.111321E1,1.0448257E1,1.0379737E1,1.6238588E1,0E0,0E0,0E0,0E0,9.008099E0,0E0,2.4340805E1,0E0,0E0,0E0,0E0],"parents":[2147483647,0,0,1,1,2,2,3,3,4,4,5,5,10,10,12,12],"right_children":[2,4,6,8,10,12,-1,-1,-1,-1,14,-1,16,-1,-1,-1,-1],"split_conditions":[2.00001E0,2.00001E0,2.00001E0,2.00001E0,2.00001E0,2.00001E0,1.0286087E-1,7.688176E-2,-1.0258957E-1,1.5907265E-1,2.00001E0,9.413425E-2,2.00001E0,8.595882E-2,-9.550082E-2,9.279897E-2,-1.0004846E-1],"split_indices":[28,38,20,108,114,26,0,0,0,0,63,0,29,0,0,0,0],"split_type":[0,0,0,0,0,0,0,0,0,0,0,0,0,0,0,0,0],"sum_hessian":[2.4181088E2,1.0534262E2,1.3646826E2,9.177652E1,1.3566099E1,4.108409E1,9.538418E1,2.6743085E0,8.910221E1,2.0923483E0,1.1473751E1,9.244112E0,3.183998E1,2.9553883E0,8.518363E0,8.009223E0,2.3830757E1],"tree_param":{"num_deleted":"0","num_feature":"126","num_nodes":"17","size_leaf_vector":"1"}},{"base_weights":[9.090734E-3,-8.401665E-1,6.6800684E-1,-9.598961E-1,-4.1674912E-2,-1.5838905E-1,1.0237346E-1,7.5118564E-2,-1.0211547E-1,6.8208283E-1,-9.0074204E-2,9.2962496E-2,-4.9585518E-1,-1.239723E-2,1.3741897E-1,9.15482E-2,-9.927653E-2],"categories":[],"categories_nodes":[],"categories_segments":[],"categories_sizes":[],"default_left":[0,0,0,0,0,0,0,0,0,0,0,0,0,0,0,0,0],"id":27,"left_children":[1,3,5,7,9,11,-1,-1,-1,13,-1,-1,15,-1,-1,-1,-1],"loss_changes":[1.2448803E2,9.252441E0,3.6985672E1,9.622017E0,9.144476E0,1.4619023E1,0E0,0E0,0E0,4.6418242E0,0E0,0E0,2.2006758E1,0E0,0E0,0E0,0E0],"parents":[2147483647,0,0,1,1,2,2,3,3,4,4,5,5,9,9,12,12],"right_children":[2,4,6,8,10,12,-1,-1,-1,14,-1,-1,16,-1,-1,-1,-1],"split_conditions":[2.00001E0,2.00001E0,2.00001E0,2.00001E0,2.00001E0,2.00001E0,1.0237346E-1,7.5118564E-2,-1.0211547E-1,2.00001E0,-9.0074204E-2,9.2962496E-2,2.00001E0,-1.239723E-2,1.3741897E-1,9.15482E-2,-9.927653E-2],"split_indices":[28,38,20,108,111,26,0,0,0,78,0,0,29,0,0,0,0],"split_type":[0,0,0,0,0,0,0,0,0,0,0,0,0,0,0,0,0],"sum_hessian":[2.2046028E2,9.619821E1,1.2426206E2,8.347886E1,1.2719349E1,3.7560196E1,8.6701866E1,2.496061E0,8.09828E1,7.0151534E0,5.704196E0,8.476538E0,2.908366E1,3.6200156E0,3.3951378E0,7.3540745E0,2.1729586E1],"tree_param":{"num_deleted":"0","num_feature":"126","num_nodes":"17","size_leaf_vector":"1"}},{"base_weights":[9.862E-3,-8.2948834E-1,6.6473925E-1,-9.540626E-1,-3.7376277E-2,-1.5411179E-1,1.01914875E-1,7.337388E-2,-1.0166725E-1,6.412446E-1,-8.85372E-2,9.177818E-2,-4.8972932E-1,-1.1449057E-2,1.3071685E-1,9.028381E-2,-9.8512314E-2],"categories":[],"categories_nodes":[],"categories_segments":[],"categories_sizes":[],"default_left":[0,0,0,0,0,0,0,0,0,0,0,0,0,0,0,0,0],"id":28,"left_children":[1,3,5,7,9,11,-1,-1,-1,13,-1,-1,15,-1,-1,-1,-1],"loss_changes":[1.11695114E2,8.752838E0,3.3280533E1,8.874275E0,8.131781E0,1.3165133E1,0E0,0E0,0E0,4.1159663E0,0E0,0E0,1.9909143E1,0E0,0E0,0E0,0E0],"parents":[2147483647,0,0,1,1,2,2,3,3,4,4,5,5,9,9,12,12],"right_children":[2,4,6,8,10,12,-1,-1,-1,14,-1,-1,16,-1,-1,-1,-1],"split_conditions":[2.00001E0,2.00001E0,2.00001E0,2.00001E0,2.00001E0,2.00001E0,1.01914875E-1,7.337388E-2,-1.0166725E-1,2.00001E0,-8.85372E-2,9.177818E-2,2.00001E0,-1.1449057E-2,1.3071685E-1,9.028381E-2,-9.8512314E-2],"split_indices":[28,38,20,108,111,26,0,0,0,78,0,0,29,0,0,0,0],"split_type":[0,0,0,0,0,0,0,0,0,0,0,0,0,0,0,0,0],"sum_hessian":[2.0120029E2,8.806348E1,1.131368E2,7.591931E1,1.2144164E1,3.4346214E1,7.8790596E1,2.3321245E0,7.358719E1,6.8811975E0,5.2629666E0,7.776157E0,2.6570055E1,3.6111243E0,3.2700732E0,6.7560697E0,1.9813986E1],"tree_param":{"num_deleted":"0","num_feature":"126","num_nodes":"17","size_leaf_vector":"1"}},{"base_weights":[1.0673743E-2,-8.1867254E-1,6.616075E-1,-9.4832206E-1,-3.3429146E-2,-1.496611E-1,1.0147991E-1,7.164817E-2,-1.0123996E-1,6.0353506E-1,-8.700014E-2,9.05764E-2,-4.834846E-1,-1.0571674E-2,1.24571204E-1,8.900153E-2,-9.7749375E-2],"categories":[],"categories_nodes":[],"categories_segments":[],"categories_sizes":[],"default_left":[0,0,0,0,0,0,0,0,0,0,0,0,0,0,0,0,0],"id":29,"left_children":[1,3,5,7,9,11,-1,-1,-1,13,-1,-1,15,-1,-1,-1,-1],"loss_changes":[1.0022292E2,8.280056E0,2.995237E1,8.196636E0,7.242467E0,1.1859175E1,0E0,0E0,0E0,3.6603239E0,0E0,0E0,1.802252E1,0E0,0E0,0E0,0E0],"parents":[2147483647,0,0,1,1,2,2,3,3,4,4,5,5,9,9,12,12],"right_children":[2,4,6,8,10,12,-1,-1,-1,14,-1,-1,16,-1,-1,-1,-1],"split_conditions":[2.00001E0,2.00001E0,2.00001E0,2.00001E0,2.00001E0,2.00001E0,1.0147991E-1,7.164817E-2,-1.0123996E-1,2.00001E0,-8.700014E-2,9.05764E-2,2.00001E0,-1.0571674E-2,1.24571204E-1,8.900153E-2,-9.7749375E-2],"split_indices":[28,38,20,108,111,26,0,0,0,78,0,0,29,0,0,0,0],"split_type":[0,0,0,0,0,0,0,0,0,0,0,0,0,0,0,0,0],"sum_hessian":[1.8364642E2,8.06428E1,1.0300363E2,6.903666E1,1.1606141E1,3.1416742E1,7.158689E1,2.1813486E0,6.685531E1,6.7473135E0,4.8588276E0,7.1374598E0,2.4279284E1,3.6031716E0,3.1441422E0,6.210509E0,1.8068773E1],"tree_param":{"num_deleted":"0","num_feature":"126","num_nodes":"17","size_leaf_vector":"1"}},{"base_weights":[1.1527159E-2,-8.0767107E-1,6.585787E-1,-9.426248E-1,-2.9810352E-2,-1.4502442E-1,1.010638E-1,6.9942385E-2,-1.0082896E-1,5.687012E-1,-8.545905E-2,8.935305E-2,-4.7709015E-1,-9.760117E-3,1.1893634E-1,8.7697916E-2,-9.6981704E-2],"categories":[],"categories_nodes":[],"categories_segments":[],"categories_sizes":[],"default_left":[0,0,0,0,0,0,0,0,0,0,0,0,0,0,0,0,0],"id":30,"left_children":[1,3,5,7,9,11,-1,-1,-1,13,-1,-1,15,-1,-1,-1,-1],"loss_changes":[8.993032E1,7.832077E0,2.6961193E1,7.581623E0,6.4603744E0,1.0685439E1,0E0,0E0,0E0,3.264753E0,0E0,0E0,1.6324389E1,0E0,0E0,0E0,0E0],"parents":[2147483647,0,0,1,1,2,2,3,3,4,4,5,5,9,9,12,12],"right_children":[2,4,6,8,10,12,-1,-1,-1,14,-1,-1,16,-1,-1,-1,-1],"split_conditions":[2.00001E0,2.00001E0,2.00001E0,2.00001E0,2.00001E0,2.00001E0,1.010638E-1,6.9942385E-2,-1.0082896E-1,2.00001E0,-8.545905E-2,8.935305E-2,2.00001E0,-9.760117E-3,1.1893634E-1,8.7697916E-2,-9.6981704E-2],"split_indices":[28,38,20,108,111,26,0,0,0,78,0,0,29,0,0,0,0],"split_type":[0,0,0,0,0,0,0,0,0,0,0,0,0,0,0,0,0],"sum_hessian":[1.6765604E2,7.387655E1,9.377948E1,6.277388E1,1.1102671E1,2.8747992E1,6.5031494E1,2.0426574E0,6.0731224E1,6.6137824E0,4.4888883E0,6.555248E0,2.2192743E1,3.5960479E0,3.0177348E0,5.71298E0,1.6479763E1],"tree_param":{"num_deleted":"0","num_feature":"126","num_nodes":"17","size_leaf_vector":"1"}},{"base_weights":[1.2426874E-2,-7.9643816E-1,6.5562445E-1,-9.369242E-1,-2.6496664E-2,-1.401883E-1,1.0066211E-1,6.82578E-2,-1.0042997E-1,5.3649426E-1,-8.3911106E-2,8.810487E-2,-4.705157E-1,-9.009652E-3,1.1376432E-1,8.637054E-2,-9.620377E-2],"categories":[],"categories_nodes":[],"categories_segments":[],"categories_sizes":[],"default_left":[0,0,0,0,0,0,0,0,0,0,0,0,0,0,0,0,0],"id":31,"left_children":[1,3,5,7,9,11,-1,-1,-1,13,-1,-1,15,-1,-1,-1,-1],"loss_changes":[8.069282E1,7.407219E0,2.4271584E1,7.0226707E0,5.7715383E0,9.630033E0,0E0,0E0,0E0,2.9204416E0,0E0,0E0,1.4794954E1,0E0,0E0,0E0,0E0],"parents":[2147483647,0,0,1,1,2,2,3,3,4,4,5,5,9,9,12,12],"right_children":[2,4,6,8,10,12,-1,-1,-1,14,-1,-1,16,-1,-1,-1,-1],"split_conditions":[2.00001E0,2.00001E0,2.00001E0,2.00001E0,2.00001E0,2.00001E0,1.0066211E-1,6.82578E-2,-1.0042997E-1,2.00001E0,-8.3911106E-2,8.810487E-2,2.00001E0,-9.009652E-3,1.1376432E-1,8.637054E-2,-9.620377E-2],"split_indices":[28,38,20,108,111,26,0,0,0,78,0,0,29,0,0,0,0],"split_type":[0,0,0,0,0,0,0,0,0,0,0,0,0,0,0,0,0],"sum_hessian":[1.5309726E2,6.770958E1,8.538768E1,5.707805E1,1.0631528E1,2.6317888E1,5.9069794E1,1.9150474E0,5.5163002E1,6.4811125E0,4.1504154E0,6.0247207E0,2.0293167E1,3.5896585E0,2.8914537E0,5.259422E0,1.5033745E1],"tree_param":{"num_deleted":"0","num_feature":"126","num_nodes":"17","size_leaf_vector":"1"}},{"base_weights":[1.3371442E-2,-7.8493065E-1,6.5271443E-1,-9.3117666E-1,-2.3466391E-2,-1.351442E-1,1.0027068E-1,6.659588E-2,-1.0003894E-1,5.0667703E-1,-8.235451E-2,8.6829536E-2,-4.6374026E-1,-8.315971E-3,1.090076E-1,8.5017614E-2,-9.54104E-2],"categories":[],"categories_nodes":[],"categories_segments":[],"categories_sizes":[],"default_left":[0,0,0,0,0,0,0,0,0,0,0,0,0,0,0,0,0],"id":32,"left_children":[1,3,5,7,9,11,-1,-1,-1,13,-1,-1,15,-1,-1,-1,-1],"loss_changes":[7.239913E1,7.0040207E0,2.1852104E1,6.5139046E0,5.163905E0,8.6807375E0,0E0,0E0,0E0,2.619835E0,0E0,0E0,1.34164715E1,0E0,0E0,0E0,0E0],"parents":[2147483647,0,0,1,1,2,2,3,3,4,4,5,5,9,9,12,12],"right_children":[2,4,6,8,10,12,-1,-1,-1,14,-1,-1,16,-1,-1,-1,-1],"split_conditions":[2.00001E0,2.00001E0,2.00001E0,2.00001E0,2.00001E0,2.00001E0,1.0027068E-1,6.659588E-2,-1.0003894E-1,2.00001E0,-8.235451E-2,8.6829536E-2,2.00001E0,-8.315971E-3,1.090076E-1,8.5017614E-2,-9.54104E-2],"split_indices":[28,38,20,108,111,26,0,0,0,78,0,0,29,0,0,0,0],"split_type":[0,0,0,0,0,0,0,0,0,0,0,0,0,0,0,0,0],"sum_hessian":[1.3984712E2,6.2090916E1,7.775622E1,5.190015E1,1.0190763E1,2.4105902E1,5.3650314E1,1.7975843E0,5.0102566E1,6.349928E0,3.8408358E0,5.5414467E0,1.8564455E1,3.583918E0,2.7660098E0,4.845989E0,1.3718465E1],"tree_param":{"num_deleted":"0","num_feature":"126","num_nodes":"17","size_leaf_vector":"1"}},{"base_weights":[1.436607E-2,-7.7310723E-1,6.498248E-1,5.8584727E-2,-8.51022E-1,-1.2988763E-1,9.988559E-2,6.4958416E-2,-9.1049606E-1,8.5525274E-2,-4.5674247E-1,-2.038839E-2,-9.9973224E-2,8.36383E-2,-9.4596826E-2],"categories":[],"categories_nodes":[],"categories_segments":[],"categories_sizes":[],"default_left":[0,0,0,0,0,0,0,0,0,0,0,0,0,0,0],"id":33,"left_children":[1,3,5,-1,7,9,-1,-1,11,-1,13,-1,-1,-1,-1],"loss_changes":[6.4951324E1,6.6369705E0,1.9674969E1,0E0,5.5212555E0,7.826532E0,0E0,0E0,3.172676E0,0E0,1.217333E1,0E0,0E0,0E0,0E0],"parents":[2147483647,0,0,1,1,2,2,4,4,5,5,8,8,10,10],"right_children":[2,4,6,-1,8,10,-1,-1,12,-1,14,-1,-1,-1,-1],"split_conditions":[2.00001E0,2.00001E0,2.00001E0,5.8584727E-2,2.00001E0,2.00001E0,9.988559E-2,6.4958416E-2,2.00001E0,8.5525274E-2,2.00001E0,-2.038839E-2,-9.9973224E-2,8.36383E-2,-9.4596826E-2],"split_indices":[28,66,20,0,108,26,0,0,114,0,29,0,0,0,0],"split_type":[0,0,0,0,0,0,0,0,0,0,0,0,0,0,0],"sum_hessian":[1.2779311E2,5.697363E1,7.081948E1,2.7359173E0,5.4237713E1,2.2093014E1,4.872647E1,1.6894178E0,5.2548294E1,5.1012464E0,1.6991768E1,6.2604012E0,4.628789E1,4.469183E0,1.2522585E1],"tree_param":{"num_deleted":"0","num_feature":"126","num_nodes":"15","size_leaf_vector":"1"}},{"base_weights":[1.5588305E-2,-7.5816786E-1,6.469276E-1,-9.2039955E-1,2.1014458E-2,-1.2441157E-1,9.950308E-2,6.334695E-2,-9.9309616E-2,5.115267E-1,-7.883289E-2,8.4191315E-2,-4.495022E-1,-5.715863E-3,1.0532067E-1,8.223268E-2,-9.3758695E-2],"categories":[],"categories_nodes":[],"categories_segments":[],"categories_sizes":[],"default_left":[0,0,0,0,0,0,0,0,0,0,0,0,0,0,0,0,0],"id":34,"left_children":[1,3,5,7,9,11,-1,-1,-1,13,-1,-1,15,-1,-1,-1,-1],"loss_changes":[5.81305E1,6.7793083E0,1.7715195E1,5.6314545E0,4.449917E0,7.057687E0,0E0,0E0,0E0,2.2021136E0,0E0,0E0,1.1051693E1,0E0,0E0,0E0,0E0],"parents":[2147483647,0,0,1,1,2,2,3,3,4,4,5,5,9,9,12,12],"right_children":[2,4,6,8,10,12,-1,-1,-1,14,-1,-1,16,-1,-1,-1,-1],"split_conditions":[2.00001E0,2.00001E0,2.00001E0,2.00001E0,2.00001E0,2.00001E0,9.950308E-2,6.334695E-2,-9.9309616E-2,2.00001E0,-7.883289E-2,8.4191315E-2,2.00001E0,-5.715863E-3,1.0532067E-1,8.223268E-2,-9.3758695E-2],"split_indices":[28,38,20,108,111,26,0,0,0,78,0,0,29,0,0,0,0],"split_type":[0,0,0,0,0,0,0,0,0,0,0,0,0,0,0,0,0],"sum_hessian":[1.1699326E2,5.24773E1,6.451596E1,4.3284E1,9.193297E0,2.026179E1,4.4254173E1,1.5897447E0,4.1694256E1,5.953239E0,3.2400587E0,4.7003427E0,1.5561446E1,3.340587E0,2.6126518E0,4.1258063E0,1.1435639E1],"tree_param":{"num_deleted":"0","num_feature":"126","num_nodes":"17","size_leaf_vector":"1"}},{"base_weights":[1.6723268E-2,-7.457444E-1,6.439994E-1,-9.14278E-1,2.1389266E-2,-7.4256696E-2,8.29971E-1,6.1763432E-2,-9.891968E-2,4.8398608E-1,-7.724684E-2,-7.093747E-2,9.1412026E-1,-5.2796723E-3,1.0117318E-1,9.9518545E-2,-2.2808028E-2],"categories":[],"categories_nodes":[],"categories_segments":[],"categories_sizes":[],"default_left":[0,0,0,0,0,0,0,0,0,0,0,0,0,0,0,0,0],"id":35,"left_children":[1,3,5,7,9,-1,11,-1,-1,13,-1,-1,15,-1,-1,-1,-1],"loss_changes":[5.2134262E1,6.381857E0,1.603378E1,5.2441216E0,3.9878254E0,0E0,7.5385323E0,0E0,0E0,1.9889773E0,0E0,0E0,4.9372673E0,0E0,0E0,0E0,0E0],"parents":[2147483647,0,0,1,1,2,2,3,3,4,4,6,6,9,9,12,12],"right_children":[2,4,6,8,10,-1,12,-1,-1,14,-1,-1,16,-1,-1,-1,-1],"split_conditions":[2.00001E0,2.00001E0,2.00001E0,2.00001E0,2.00001E0,-7.4256696E-2,2.00001E0,6.1763432E-2,-9.891968E-2,2.00001E0,-7.724684E-2,-7.093747E-2,2.00001E0,-5.2796723E-3,1.0117318E-1,9.9518545E-2,-2.2808028E-2],"split_indices":[28,38,55,108,111,0,59,0,0,78,0,0,35,0,0,0,0],"split_type":[0,0,0,0,0,0,0,0,0,0,0,0,0,0,0,0,0],"sum_hessian":[1.0700001E2,4.8210384E1,5.8789627E1,3.9369408E1,8.840978E0,6.5986366E0,5.219099E1,1.4978505E0,3.7871555E1,5.8325624E0,3.0084147E0,2.3200603E0,4.987093E1,3.3376832E0,2.4948792E0,4.6686188E1,3.18474E0],"tree_param":{"num_deleted":"0","num_feature":"126","num_nodes":"17","size_leaf_vector":"1"}},{"base_weights":[1.5726876E-2,-7.3292816E-1,6.3309234E-1,-9.0795636E-1,2.1619046E-2,-1.3487911E-1,9.875577E-2,6.0209334E-2,-9.852362E-2,4.5838404E-1,-7.565401E-2,8.1147484E-2,-4.524768E-1,-4.8765433E-3,9.732806E-2,7.900121E-2,-9.230324E-2],"categories":[],"categories_nodes":[],"categories_segments":[],"categories_sizes":[],"default_left":[0,0,0,0,0,0,0,0,0,0,0,0,0,0,0,0,0],"id":36,"left_children":[1,3,5,7,9,11,-1,-1,-1,13,-1,-1,15,-1,-1,-1,-1],"loss_changes":[4.634453E1,6.0057755E0,1.50890045E1,4.8894215E0,3.5793855E0,5.8463674E0,0E0,0E0,0E0,1.8008518E0,0E0,0E0,9.084742E0,0E0,0E0,0E0,0E0],"parents":[2147483647,0,0,1,1,2,2,3,3,4,4,5,5,9,9,12,12],"right_children":[2,4,6,8,10,12,-1,-1,-1,14,-1,-1,16,-1,-1,-1,-1],"split_conditions":[2.00001E0,2.00001E0,2.00001E0,2.00001E0,2.00001E0,2.00001E0,9.875577E-2,6.0209334E-2,-9.852362E-2,2.00001E0,-7.565401E-2,8.1147484E-2,2.00001E0,-4.8765433E-3,9.732806E-2,7.900121E-2,-9.230324E-2],"split_indices":[28,38,20,108,111,26,0,0,0,78,0,0,29,0,0,0,0],"split_type":[0,0,0,0,0,0,0,0,0,0,0,0,0,0,0,0,0],"sum_hessian":[9.8266846E1,4.4326565E1,5.394028E1,3.5815357E1,8.511208E0,1.7229963E1,3.6710316E1,1.4130585E0,3.4402298E1,5.714636E0,2.796572E0,3.9386945E0,1.3291268E1,3.3350527E0,2.3795834E0,3.4644892E0,9.826779E0],"tree_param":{"num_deleted":"0","num_feature":"126","num_nodes":"17","size_leaf_vector":"1"}},{"base_weights":[1.6977409E-2,-7.196927E-1,6.3010526E-1,-9.013985E-1,2.1720994E-2,-1.2840337E-1,9.836037E-2,5.8686353E-2,-9.811806E-2,4.3454346E-1,-7.4056484E-2,7.972106E-2,-4.4422534E-1,-4.5040064E-3,9.374993E-2,7.751798E-2,-9.137901E-2],"categories":[],"categories_nodes":[],"categories_segments":[],"categories_sizes":[],"default_left":[0,0,0,0,0,0,0,0,0,0,0,0,0,0,0,0,0],"id":37,"left_children":[1,3,5,7,9,11,-1,-1,-1,13,-1,-1,15,-1,-1,-1,-1],"loss_changes":[4.1545662E1,5.6497955E0,1.3582613E1,4.5641155E0,3.217827E0,5.2764134E0,0E0,0E0,0E0,1.6342108E0,0E0,0E0,8.264618E0,0E0,0E0,0E0,0E0],"parents":[2147483647,0,0,1,1,2,2,3,3,4,4,5,5,9,9,12,12],"right_children":[2,4,6,8,10,12,-1,-1,-1,14,-1,-1,16,-1,-1,-1,-1],"split_conditions":[2.00001E0,2.00001E0,2.00001E0,2.00001E0,2.00001E0,2.00001E0,9.836037E-2,5.8686353E-2,-9.811806E-2,2.00001E0,-7.4056484E-2,7.972106E-2,2.00001E0,-4.5040064E-3,9.374993E-2,7.751798E-2,-9.137901E-2],"split_indices":[28,38,20,108,111,26,0,0,0,78,0,0,29,0,0,0,0],"split_type":[0,0,0,0,0,0,0,0,0,0,0,0,0,0,0,0,0],"sum_hessian":[8.997773E1,4.0792244E1,4.918549E1,3.2589436E1,8.202806E0,1.5838109E1,3.334738E1,1.3347659E0,3.125467E1,5.6000166E0,2.6027904E0,3.6414557E0,1.2196653E1,3.332667E0,2.2673492E0,3.2099469E0,8.986707E0],"tree_param":{"num_deleted":"0","num_feature":"126","num_nodes":"17","size_leaf_vector":"1"}},{"base_weights":[1.8283242E-2,-7.0601726E-1,6.270307E-1,5.896901E-2,-8.052693E-1,-1.217108E-1,9.795411E-2,5.7195704E-2,-8.713005E-1,7.826918E-2,-4.3569598E-1,-1.1577744E-2,-9.814303E-2,7.601553E-2,-9.0417854E-2],"categories":[],"categories_nodes":[],"categories_segments":[],"categories_sizes":[],"default_left":[0,0,0,0,0,0,0,0,0,0,0,0,0,0,0],"id":38,"left_children":[1,3,5,-1,7,9,-1,-1,11,-1,13,-1,-1,-1,-1],"loss_changes":[3.7235268E1,5.4358673E0,1.2225893E1,0E0,3.7953358E0,4.7630353E0,0E0,0E0,2.7979164E0,0E0,7.523058E0,0E0,0E0,0E0,0E0],"parents":[2147483647,0,0,1,1,2,2,4,4,5,5,8,8,10,10],"right_children":[2,4,6,-1,8,10,-1,-1,12,-1,14,-1,-1,-1,-1],"split_conditions":[2.00001E0,2.00001E0,2.00001E0,5.896901E-2,2.00001E0,2.00001E0,9.795411E-2,5.7195704E-2,2.00001E0,7.826918E-2,2.00001E0,-1.1577744E-2,-9.814303E-2,7.601553E-2,-9.0417854E-2],"split_indices":[28,66,20,0,108,26,0,0,114,0,29,0,0,0,0],"split_type":[0,0,0,0,0,0,0,0,0,0,0,0,0,0,0],"sum_hessian":[8.244575E1,3.757657E1,4.486918E1,2.3220124E0,3.525456E1,1.4572189E1,3.029699E1,1.2624059E0,3.3992153E1,3.3706386E0,1.1201551E1,4.5855055E0,2.9406647E1,2.977803E0,8.223748E0],"tree_param":{"num_deleted":"0","num_feature":"126","num_nodes":"15","size_leaf_vector":"1"}},{"base_weights":[2.0025834E-2,-6.894471E-1,6.238427E-1,-8.8878536E-1,5.8325306E-2,-1.1481997E-1,9.753365E-2,5.5738587E-2,-9.732192E-2,4.3965113E-1,-7.028302E-2,7.6794006E-2,-4.268944E-1,-2.371999E-3,9.063792E-2,7.449677E-2,-8.941743E-2],"categories":[],"categories_nodes":[],"categories_segments":[],"categories_sizes":[],"default_left":[0,0,0,0,0,0,0,0,0,0,0,0,0,0,0,0,0],"id":39,"left_children":[1,3,5,7,9,11,-1,-1,-1,13,-1,-1,15,-1,-1,-1,-1],"loss_changes":[3.328016E1,5.3779736E0,1.1003876E1,3.9947243E0,2.764162E0,4.300525E0,0E0,0E0,0E0,1.3733299E0,0E0,0E0,6.8521643E0,0E0,0E0,0E0,0E0],"parents":[2147483647,0,0,1,1,2,2,3,3,4,4,5,5,9,9,12,12],"right_children":[2,4,6,8,10,12,-1,-1,-1,14,-1,-1,16,-1,-1,-1,-1],"split_conditions":[2.00001E0,2.00001E0,2.00001E0,2.00001E0,2.00001E0,2.00001E0,9.753365E-2,5.5738587E-2,-9.732192E-2,2.00001E0,-7.028302E-2,7.6794006E-2,2.00001E0,-2.371999E-3,9.063792E-2,7.449677E-2,-8.941743E-2],"split_indices":[28,38,20,108,111,26,0,0,0,78,0,0,29,0,0,0,0],"split_type":[0,0,0,0,0,0,0,0,0,0,0,0,0,0,0,0,0],"sum_hessian":[7.5682274E1,3.473156E1,4.0950714E1,2.7272726E1,7.458835E0,1.3420639E1,2.7530075E1,1.1954682E0,2.6077257E1,5.2507095E0,2.2081254E0,3.1237571E0,1.0296882E1,3.1111324E0,2.1395772E0,2.7659824E0,7.5308995E0],"tree_param":{"num_deleted":"0","num_feature":"126","num_nodes":"17","size_leaf_vector":"1"}},{"base_weights":[2.1488419E-2,-6.750816E-1,6.2052894E-1,-8.813529E-1,5.6209218E-2,-1.07739516E-1,9.70959E-2,5.431617E-2,-9.686981E-2,4.1746786E-1,-6.8689816E-2,7.529898E-2,-4.1782603E-1,-2.1930065E-3,8.746909E-2,7.29652E-2,-8.837589E-2],"categories":[],"categories_nodes":[],"categories_segments":[],"categories_sizes":[],"default_left":[0,0,0,0,0,0,0,0,0,0,0,0,0,0,0,0,0],"id":40,"left_children":[1,3,5,7,9,11,-1,-1,-1,13,-1,-1,15,-1,-1,-1,-1],"loss_changes":[2.9813261E1,5.0348644E0,9.903122E0,3.7410736E0,2.4910867E0,3.8838947E0,0E0,0E0,0E0,1.2541615E0,0E0,0E0,6.24494E0,0E0,0E0,0E0,0E0],"parents":[2147483647,0,0,1,1,2,2,3,3,4,4,5,5,9,9,12,12],"right_children":[2,4,6,8,10,12,-1,-1,-1,14,-1,-1,16,-1,-1,-1,-1],"split_conditions":[2.00001E0,2.00001E0,2.00001E0,2.00001E0,2.00001E0,2.00001E0,9.70959E-2,5.431617E-2,-9.686981E-2,2.00001E0,-6.8689816E-2,7.529898E-2,2.00001E0,-2.1930065E-3,8.746909E-2,7.29652E-2,-8.837589E-2],"split_indices":[28,38,20,108,111,26,0,0,0,78,0,0,29,0,0,0,0],"split_type":[0,0,0,0,0,0,0,0,0,0,0,0,0,0,0,0,0],"sum_hessian":[6.9443825E1,3.2049465E1,3.739436E1,2.4838266E1,7.2111983E0,1.2373055E1,2.5021305E1,1.1334953E0,2.3704771E1,5.147147E0,2.0640514E0,2.8986747E0,9.4743805E0,3.1102188E0,2.0369284E0,2.572628E0,6.9017525E0],"tree_param":{"num_deleted":"0","num_feature":"126","num_nodes":"17","size_leaf_vector":"1"}},{"base_weights":[2.300025E-2,-6.6026634E-1,6.170704E-1,5.7849187E-2,-7.729479E-1,-1.00492105E-1,9.663768E-2,5.2929074E-2,-8.4338266E-1,7.37873E-2,-4.0850505E-1,-7.3899203E-3,-9.690983E-2,7.142432E-2,-8.729192E-2],"categories":[],"categories_nodes":[],"categories_segments":[],"categories_sizes":[],"default_left":[0,0,0,0,0,0,0,0,0,0,0,0,0,0,0],"id":41,"left_children":[1,3,5,-1,7,9,-1,-1,11,-1,13,-1,-1,-1,-1],"loss_changes":[2.6700615E1,4.71978E0,8.911603E0,0E0,3.0591564E0,3.5085607E0,0E0,0E0,2.579855E0,0E0,5.695053E0,0E0,0E0,0E0,0E0],"parents":[2147483647,0,0,1,1,2,2,4,4,5,5,8,8,10,10],"right_children":[2,4,6,-1,8,10,-1,-1,12,-1,14,-1,-1,-1,-1],"split_conditions":[2.00001E0,2.00001E0,2.00001E0,5.7849187E-2,2.00001E0,2.00001E0,9.663768E-2,5.2929074E-2,2.00001E0,7.37873E-2,2.00001E0,-7.3899203E-3,-9.690983E-2,7.142432E-2,-8.729192E-2],"split_indices":[28,66,20,0,108,26,0,0,114,0,29,0,0,0,0],"split_type":[0,0,0,0,0,0,0,0,0,0,0,0,0,0,0],"sum_hessian":[6.3776173E1,2.9609516E1,3.4166653E1,2.1241317E0,2.7485384E1,1.1419815E1,2.274684E1,1.0760543E0,2.640933E1,2.6933444E0,8.726471E0,3.9317288E0,2.2477602E1,2.3960164E0,6.3304543E0],"tree_param":{"num_deleted":"0","num_feature":"126","num_nodes":"15","size_leaf_vector":"1"}},{"base_weights":[2.507506E-2,-6.426652E-1,6.134495E-1,-8.6704034E-1,8.8248044E-2,-6.5462984E-2,7.983698E-1,5.1578134E-2,-9.5969014E-2,4.21765E-1,-6.482406E-2,-5.6558974E-2,8.82906E-1,-3.2030122E-4,8.456E-2,9.689858E-2,-1.9477082E-2],"categories":[],"categories_nodes":[],"categories_segments":[],"categories_sizes":[],"default_left":[0,0,0,0,0,0,0,0,0,0,0,0,0,0,0,0,0],"id":42,"left_children":[1,3,5,7,9,-1,11,-1,-1,13,-1,-1,15,-1,-1,-1,-1],"loss_changes":[2.3841515E1,4.74115E0,8.082051E0,3.2949944E0,2.137318E0,0E0,3.7953205E0,0E0,0E0,1.0525789E0,0E0,0E0,2.7219124E0,0E0,0E0,0E0,0E0],"parents":[2147483647,0,0,1,1,2,2,3,3,4,4,6,6,9,9,12,12],"right_children":[2,4,6,8,10,-1,12,-1,-1,14,-1,-1,16,-1,-1,-1,-1],"split_conditions":[2.00001E0,2.00001E0,2.00001E0,2.00001E0,2.00001E0,-6.5462984E-2,2.00001E0,5.1578134E-2,-9.5969014E-2,2.00001E0,-6.482406E-2,-5.6558974E-2,2.00001E0,-3.2030122E-4,8.456E-2,9.689858E-2,-1.9477082E-2],"split_indices":[28,38,55,108,111,0,59,0,0,78,0,0,35,0,0,0,0],"split_type":[0,0,0,0,0,0,0,0,0,0,0,0,0,0,0,0,0],"sum_hessian":[5.8680298E1,2.7443111E1,3.1237185E1,2.0854862E1,6.588249E0,3.652224E0,2.758496E1,1.0227691E0,1.9832092E1,4.828848E0,1.7594014E0,1.2777904E0,2.630717E1,2.90676E0,1.9220879E0,2.44547E1,1.8524691E0],"tree_param":{"num_deleted":"0","num_feature":"126","num_nodes":"17","size_leaf_vector":"1"}},{"base_weights":[2.344418E-2,-6.2721956E-1,6.0021245E-1,-8.584886E-2,8.426049E-2,-1.1168282E-1,9.5681354E-2,4.01119E-2,-6.327204E-2,7.019725E-2,-4.1087025E-1,6.772267E-2,-8.544854E-2],"categories":[],"categories_nodes":[],"categories_segments":[],"categories_sizes":[],"default_left":[0,0,0,0,0,0,0,0,0,0,0,0,0],"id":43,"left_children":[1,3,5,-1,7,9,-1,-1,-1,-1,11,-1,-1],"loss_changes":[2.1074322E1,4.4171343E0,7.658657E0,0E0,1.932252E0,2.9232345E0,0E0,0E0,0E0,0E0,4.703017E0,0E0,0E0],"parents":[2147483647,0,0,1,1,2,2,4,4,5,5,10,10],"right_children":[2,4,6,-1,8,10,-1,-1,-1,-1,12,-1,-1],"split_conditions":[2.00001E0,2.00001E0,2.00001E0,-8.584886E-2,2.00001E0,2.00001E0,9.5681354E-2,4.01119E-2,-6.327204E-2,7.019725E-2,2.00001E0,6.772267E-2,-8.544854E-2],"split_indices":[28,38,20,0,111,26,0,0,0,0,29,0,0],"split_type":[0,0,0,0,0,0,0,0,0,0,0,0,0],"sum_hessian":[5.415278E1,2.5405197E1,2.874758E1,1.9017025E1,6.3881736E0,9.823464E0,1.8924116E1,4.7358036E0,1.6523701E0,2.279093E0,7.5443716E0,2.0324876E0,5.5118837E0],"tree_param":{"num_deleted":"0","num_feature":"126","num_nodes":"13","size_leaf_vector":"1"}},{"base_weights":[2.369724E-2,-6.056261E-1,5.963451E-1,-8.377249E-1,7.364197E-2,-1.0347091E-1,9.514501E-2,5.245268E-2,-9.4947E-2,7.757908E-2,-2.3896974E-1,6.865775E-2,-4.004965E-1,6.89536E-2,-7.811772E-2,6.617917E-2,-8.425034E-2],"categories":[],"categories_nodes":[],"categories_segments":[],"categories_sizes":[],"default_left":[0,0,0,0,0,0,0,0,0,0,0,0,0,0,0,0,0],"id":44,"left_children":[1,3,5,7,9,11,-1,-1,-1,-1,13,-1,15,-1,-1,-1,-1],"loss_changes":[1.8817581E1,3.986658E0,6.8872213E0,3.334916E0,1.7788229E0,2.6445382E0,0E0,0E0,0E0,0E0,3.4523375E0,0E0,4.2998924E0,0E0,0E0,0E0,0E0],"parents":[2147483647,0,0,1,1,2,2,3,3,4,4,5,5,10,10,12,12],"right_children":[2,4,6,8,10,12,-1,-1,-1,-1,14,-1,16,-1,-1,-1,-1],"split_conditions":[2.00001E0,2.00001E0,2.00001E0,2.00001E0,2.00001E0,2.00001E0,9.514501E-2,5.245268E-2,-9.4947E-2,7.757908E-2,2.00001E0,6.865775E-2,2.00001E0,6.89536E-2,-7.811772E-2,6.617917E-2,-8.425034E-2],"split_indices":[28,38,20,108,114,26,0,0,0,0,63,0,29,0,0,0,0],"split_type":[0,0,0,0,0,0,0,0,0,0,0,0,0,0,0,0,0],"sum_hessian":[5.021367E1,2.3895557E1,2.6318111E1,1.7636183E1,6.2593746E0,9.097673E0,1.7220438E1,1.0569732E0,1.6579208E1,1.4718494E0,4.787525E0,2.1274452E0,6.970228E0,1.6648408E0,3.1226845E0,1.9019567E0,5.0682716E0],"tree_param":{"num_deleted":"0","num_feature":"126","num_nodes":"17","size_leaf_vector":"1"}},{"base_weights":[2.6680753E-2,-5.924155E-1,5.922783E-1,-8.282301E-1,7.9357125E-2,-9.517834E-2,9.457624E-2,5.1114477E-2,-9.4362006E-2,7.492141E-2,-2.3006165E-1,6.711843E-2,-3.899348E-1,6.706753E-2,-7.652481E-2,6.464386E-2,-8.300989E-2],"categories":[],"categories_nodes":[],"categories_segments":[],"categories_sizes":[],"default_left":[0,0,0,0,0,0,0,0,0,0,0,0,0,0,0,0,0],"id":45,"left_children":[1,3,5,7,9,11,-1,-1,-1,-1,13,-1,15,-1,-1,-1,-1],"loss_changes":[1.6842793E1,3.7069721E0,6.192519E0,3.125267E0,1.5993592E0,2.3933005E0,0E0,0E0,0E0,0E0,3.1522925E0,0E0,3.9340403E0,0E0,0E0,0E0,0E0],"parents":[2147483647,0,0,1,1,2,2,3,3,4,4,5,5,10,10,12,12],"right_children":[2,4,6,8,10,12,-1,-1,-1,-1,14,-1,16,-1,-1,-1,-1],"split_conditions":[2.00001E0,2.00001E0,2.00001E0,2.00001E0,2.00001E0,2.00001E0,9.457624E-2,5.1114477E-2,-9.4362006E-2,7.492141E-2,2.00001E0,6.711843E-2,2.00001E0,6.706753E-2,-7.652481E-2,6.464386E-2,-8.300989E-2],"split_indices":[28,38,20,108,114,26,0,0,0,0,63,0,29,0,0,0,0],"split_type":[0,0,0,0,0,0,0,0,0,0,0,0,0,0,0,0,0],"sum_hessian":[4.6098324E1,2.1985664E1,2.411266E1,1.6100834E1,5.884832E0,8.4363575E0,1.5676302E1,1.0050554E0,1.50957775E1,1.4103099E0,4.474522E0,1.9886957E0,6.4476614E0,1.5733532E0,2.9011688E0,1.7823825E0,4.665279E0],"tree_param":{"num_deleted":"0","num_feature":"126","num_nodes":"17","size_leaf_vector":"1"}},{"base_weights":[2.9760424E-2,-5.788929E-1,5.8800924E-1,-8.1825875E-2,8.4812865E-2,-8.683987E-2,9.3972385E-2,7.242046E-2,-2.2132504E-1,6.558373E-2,-3.792271E-1,6.523902E-2,-7.4926116E-2,6.311957E-2,-8.172857E-2],"categories":[],"categories_nodes":[],"categories_segments":[],"categories_sizes":[],"default_left":[0,0,0,0,0,0,0,0,0,0,0,0,0,0,0],"id":46,"left_children":[1,3,5,-1,7,9,-1,-1,11,-1,13,-1,-1,-1,-1],"loss_changes":[1.5072081E1,3.4446855E0,5.567043E0,0E0,1.4399364E0,2.1668925E0,0E0,0E0,2.8812628E0,0E0,3.6017509E0,0E0,0E0,0E0,0E0],"parents":[2147483647,0,0,1,1,2,2,4,4,5,5,8,8,10,10],"right_children":[2,4,6,-1,8,10,-1,-1,12,-1,14,-1,-1,-1,-1],"split_conditions":[2.00001E0,2.00001E0,2.00001E0,-8.1825875E-2,2.00001E0,2.00001E0,9.3972385E-2,7.242046E-2,2.00001E0,6.558373E-2,2.00001E0,6.523902E-2,-7.4926116E-2,6.311957E-2,-8.172857E-2],"split_indices":[28,38,20,0,114,26,0,0,63,0,29,0,0,0,0],"split_type":[0,0,0,0,0,0,0,0,0,0,0,0,0,0,0],"sum_hessian":[4.2356544E1,2.0245783E1,2.2110762E1,1.4708344E1,5.5374384E0,7.8334665E0,1.4277295E1,1.3507278E0,4.186711E0,1.8616772E0,5.9717894E0,1.4881458E0,2.698565E0,1.6726875E0,4.2991023E0],"tree_param":{"num_deleted":"0","num_feature":"126","num_nodes":"15","size_leaf_vector":"1"}},{"base_weights":[3.2151934E-2,-5.584684E-1,5.835251E-1,-7.9438066E-1,9.000547E-2,-5.8262564E-2,7.682586E-1,5.189774E-2,-9.31676E-2,3.6529515E-2,-5.6055304E-2,8.4828824E-2,-1.7142769E-2],"categories":[],"categories_nodes":[],"categories_segments":[],"categories_sizes":[],"default_left":[0,0,0,0,0,0,0,0,0,0,0,0,0],"id":47,"left_children":[1,3,5,7,9,-1,11,-1,-1,-1,-1,-1,-1],"loss_changes":[1.3425473E1,3.1208463E0,5.0347176E0,3.1373138E0,1.3178781E0,0E0,1.5601778E0,0E0,0E0,0E0,0E0,0E0,0E0],"parents":[2147483647,0,0,1,1,2,2,3,3,4,4,6,6],"right_children":[2,4,6,8,10,-1,12,-1,-1,-1,-1,-1,-1],"split_conditions":[2.00001E0,2.00001E0,2.00001E0,2.00001E0,2.00001E0,-5.8262564E-2,2.00001E0,5.189774E-2,-9.31676E-2,3.6529515E-2,-5.6055304E-2,8.4828824E-2,-1.7142769E-2],"split_indices":[28,38,55,108,111,0,35,0,0,0,0,0,0],"split_type":[0,0,0,0,0,0,0,0,0,0,0,0,0],"sum_hessian":[3.922571E1,1.8932602E1,2.0293108E1,1.3717302E1,5.2153006E0,2.4805408E0,1.7812567E1,1.0351473E0,1.2682155E1,3.972705E0,1.2425958E0,1.6504225E1,1.3083413E0],"tree_param":{"num_deleted":"0","num_feature":"126","num_nodes":"13","size_leaf_vector":"1"}},{"base_weights":[2.9406067E-2,-5.4269475E-1,5.622113E-1,5.2412327E-2,-6.699242E-1,-1.0752591E-1,9.276352E-2,8.321574E-2,-8.382023E-2,6.204748E-2,-3.893605E-1,7.247469E-2,-6.0241397E-2,5.9553295E-2,-8.013623E-2],"categories":[],"categories_nodes":[],"categories_segments":[],"categories_sizes":[],"default_left":[0,0,0,0,0,0,0,0,0,0,0,0,0,0,0],"id":48,"left_children":[1,3,5,-1,7,9,-1,11,-1,-1,13,-1,-1,-1,-1],"loss_changes":[1.1785257E1,2.8852487E0,4.992554E0,0E0,2.2394643E0,1.873463E0,0E0,2.2119625E0,0E0,0E0,3.053207E0,0E0,0E0,0E0,0E0],"parents":[2147483647,0,0,1,1,2,2,4,4,5,5,7,7,10,10],"right_children":[2,4,6,-1,8,10,-1,12,-1,-1,14,-1,-1,-1,-1],"split_conditions":[2.00001E0,2.00001E0,2.00001E0,5.2412327E-2,2.00001E0,2.00001E0,9.276352E-2,2.00001E0,-8.382023E-2,6.204748E-2,2.00001E0,7.247469E-2,-6.0241397E-2,5.9553295E-2,-8.013623E-2],"split_indices":[28,66,20,0,18,26,0,20,0,0,29,0,0,0,0],"split_type":[0,0,0,0,0,0,0,0,0,0,0,0,0,0,0],"sum_hessian":[3.666227E1,1.7670244E1,1.8992027E1,1.5504262E0,1.6119818E1,6.9535446E0,1.2038482E1,3.0362706E0,1.3083548E1,1.6053202E0,5.3482246E0,1.5391052E0,1.4971654E0,1.4460262E0,3.9021983E0],"tree_param":{"num_deleted":"0","num_feature":"126","num_nodes":"15","size_leaf_vector":"1"}},{"base_weights":[3.1923752E-2,-5.233626E-1,5.5759084E-1,-7.6261365E-1,8.969764E-2,-9.824948E-2,9.204527E-2,5.157268E-2,-9.184764E-2,6.6606484E-2,-2.0595695E-1,6.0554195E-2,-3.777372E-1,6.105722E-2,-7.138562E-2,5.8092363E-2,-7.8772284E-2],"categories":[],"categories_nodes":[],"categories_segments":[],"categories_sizes":[],"default_left":[0,0,0,0,0,0,0,0,0,0,0,0,0,0,0,0,0],"id":49,"left_children":[1,3,5,7,9,11,-1,-1,-1,-1,13,-1,15,-1,-1,-1,-1],"loss_changes":[1.0506032E1,2.6400256E0,4.483514E0,3.00737E0,1.1283195E0,1.6998588E0,0E0,0E0,0E0,0E0,2.3469331E0,0E0,2.8036416E0,0E0,0E0,0E0,0E0],"parents":[2147483647,0,0,1,1,2,2,3,3,4,4,5,5,10,10,12,12],"right_children":[2,4,6,8,10,12,-1,-1,-1,-1,14,-1,16,-1,-1,-1,-1],"split_conditions":[2.00001E0,2.00001E0,2.00001E0,2.00001E0,2.00001E0,2.00001E0,9.204527E-2,5.157268E-2,-9.184764E-2,6.6606484E-2,2.00001E0,6.0554195E-2,2.00001E0,6.105722E-2,-7.138562E-2,5.8092363E-2,-7.8772284E-2],"split_indices":[28,38,20,108,114,26,0,0,0,0,63,0,29,0,0,0,0],"split_type":[0,0,0,0,0,0,0,0,0,0,0,0,0,0,0,0,0],"sum_hessian":[3.3992664E1,1.6532747E1,1.7459919E1,1.1716395E1,4.8163514E0,6.478979E0,1.0980939E1,1.0223699E0,1.0694026E1,1.2081877E0,3.6081636E0,1.509989E0,4.9689903E0,1.3061564E0,2.3020072E0,1.363593E0,3.6053972E0],"tree_param":{"num_deleted":"0","num_feature":"126","num_nodes":"17","size_leaf_vector":"1"}}]},"name":"gbtree"},"learner_model_param":{"base_score":"4.821203E-1","boost_from_average":"1","num_class":"0","num_feature":"126","num_target":"1"},"objective":{"name":"binary:logistic","reg_loss_param":{"scale_pos_weight":"1"}}},"version":[2,0,3]}